Review,0,1,2,3,4,5,6,7,8,9,10,11,12,13,14,15,16,17,18,19,20,21,22,23,24,25,26,27,28,29,30,31,32,33,34,35,36,37,38,39,40,41,42,43,44,45,46,47,48,49,50,51,52,53,54,55,56,57,58,59,60,61,62,63,64,65,66,67,68,69,70,71,72,73,74,75,76,77,78,79,80,81,82,83,84,85,86,87,88,89,90,91,92,93,94,95,96,97,98,99
R_w2v_test_1,-0.03380241,0.12891626,-0.009640468,0.101592444,0.05566616,-0.31464925,0.16721927,0.4447156,-0.14455867,-0.05495273,-0.08852374,-0.17530143,-0.06667971,0.06326413,0.09239948,-0.15379842,0.1301925,-0.14853534,-0.07863577,-0.3706182,0.18517607,0.05470152,0.13807884,-0.054383073,-0.099553704,0.04405466,-0.089537375,-0.052366674,-0.14740124,0.025529912,0.16551188,-0.050572913,0.13689342,-0.20683216,-0.07830638,0.26045612,0.0464303,-0.087333925,-0.15251891,-0.2722415,-0.05713558,-0.17689766,-0.10366724,0.07584208,0.20155208,-0.018936925,-0.1551124,-0.01659795,0.13990267,0.14474864,0.10848261,-0.0485857,-0.05588947,-0.08448511,-0.06499906,0.04226196,0.16857375,-0.036947314,-0.15025948,0.078318894,0.032879576,0.044954095,0.11339902,-0.007087299,-0.16506481,0.24040066,0.07292402,0.29501298,-0.21837811,0.16656868,-0.0953506,0.11634204,0.1676747,0.044356734,0.1717406,0.09970686,0.018292567,0.09748045,-0.15053634,-0.085247956,-0.13485877,-0.03046097,-0.17794977,0.21442007,-0.024246566,0.030519133,0.11365065,0.19294743,0.20335025,0.0031148717,0.30716795,0.18278898,0.050636575,0.026611796,0.4314216,0.19662423,0.15339518,-0.20388186,0.053232834,-0.07758398
R_w2v_test_2,-0.025025636,0.09142248,-0.03183584,0.10596968,0.07261295,-0.33860022,0.17585482,0.4473694,-0.1446672,-0.06355982,-0.08081975,-0.16819482,-0.055468537,0.08400513,0.11196041,-0.15540275,0.1349342,-0.12815787,-0.084000304,-0.38746855,0.20920253,0.04038649,0.15704103,-0.054388642,-0.085988246,0.030989768,-0.058810282,-0.015280796,-0.13875033,0.01899222,0.1729636,-0.06777928,0.13913774,-0.21317317,-0.069184706,0.27104992,0.066940434,-0.09817294,-0.15224084,-0.25797135,-0.04732066,-0.16274321,-0.116133936,0.05159229,0.19664624,-0.018582275,-0.14566016,-0.024125397,0.1517024,0.12983851,0.10148994,-0.06508963,-0.057267554,-0.095536076,-0.043510504,0.031970322,0.16459617,-0.03464579,-0.123549305,0.0819814,0.033897348,0.025371421,0.16310969,-0.009268867,-0.16532837,0.2807858,0.084221505,0.31578854,-0.24201424,0.17648828,-0.078954324,0.13235876,0.16577598,0.074550144,0.17196941,0.08181194,0.03187308,0.100617595,-0.1729214,-0.082445346,-0.17019233,-0.024325429,-0.18663406,0.2355205,-0.023203036,0.00087545655,0.14184007,0.18843397,0.19463487,0.011346711,0.29672498,0.20164576,0.048154708,0.02754513,0.43263367,0.21938683,0.14928558,-0.20174912,0.054078404,-0.08122037
R_w2v_test_3,-0.026117677,0.119638115,-0.012707602,0.106881686,0.061710987,-0.3336431,0.17341113,0.46102026,-0.15042877,-0.05786076,-0.0871799,-0.1750182,-0.062258754,0.0755071,0.09865322,-0.16175973,0.13690494,-0.14428757,-0.08560432,-0.3857323,0.2028216,0.05789784,0.1482832,-0.052365232,-0.09428942,0.03620826,-0.08557165,-0.042252302,-0.14646368,0.017351713,0.17316681,-0.058531318,0.14363031,-0.21583025,-0.07768958,0.27281606,0.05095266,-0.09577485,-0.16155289,-0.28516772,-0.06302614,-0.17575113,-0.11130858,0.07096579,0.20541461,-0.019161515,-0.16401601,-0.021153288,0.1488595,0.14892149,0.106678076,-0.05215769,-0.06347764,-0.09434188,-0.054224804,0.036600873,0.17503612,-0.039982628,-0.15062928,0.08305093,0.028557934,0.038993005,0.13716377,-0.011260591,-0.17589933,0.26895535,0.07117151,0.30952752,-0.2352227,0.17177503,-0.09923858,0.13039547,0.17501134,0.057166215,0.17843704,0.096252166,0.018246068,0.10808063,-0.16632862,-0.08733693,-0.14724453,-0.03127957,-0.18454875,0.23710687,-0.025068214,0.02400826,0.124958664,0.19558994,0.20662378,0.0062176227,0.30907378,0.20056517,0.051058277,0.022374332,0.45120263,0.21383299,0.15335493,-0.20861435,0.050669868,-0.07893338
R_w2v_test_4,-0.04192012,0.120788604,-0.0002854446,0.088642664,0.051021792,-0.3002271,0.16299419,0.4280272,-0.1379543,-0.05734166,-0.083428815,-0.1636903,-0.059450984,0.066265374,0.08209765,-0.14980444,0.1215381,-0.14153232,-0.07456943,-0.35263696,0.17703162,0.04416786,0.13611528,-0.04055433,-0.09305001,0.034415804,-0.08757878,-0.046055693,-0.13418221,0.025015593,0.15617935,-0.04389625,0.13709006,-0.19587642,-0.07117586,0.24175456,0.048884526,-0.09651979,-0.149637,-0.25666395,-0.06680499,-0.15868202,-0.09589194,0.073574156,0.18549114,-0.028599922,-0.14363453,-0.0132061355,0.1326702,0.14051399,0.09838673,-0.04005587,-0.050959814,-0.08251707,-0.05673755,0.036842395,0.15435581,-0.03401118,-0.13475718,0.07861133,0.033283226,0.036899976,0.1105075,-0.0058602365,-0.15036395,0.22144842,0.06910548,0.27697524,-0.21847227,0.15458477,-0.0831763,0.118573725,0.15665923,0.037656114,0.16492938,0.09819455,0.012583095,0.09501124,-0.15360975,-0.07431548,-0.12149303,-0.025306847,-0.16271311,0.21278551,-0.029094791,0.032547634,0.11075603,0.18207413,0.18991598,0.010475067,0.28798202,0.17648152,0.04708308,0.020950222,0.41505376,0.18643971,0.14937176,-0.19799301,0.06083809,-0.074888684
R_w2v_test_5,-0.028141422,0.09953023,-0.030732239,0.086807474,0.06144814,-0.36212006,0.14585777,0.4659981,-0.12660885,-0.04257312,-0.095753506,-0.17801945,-0.076007605,0.08030533,0.12651178,-0.17337695,0.12975533,-0.14845417,-0.058595296,-0.39643154,0.23279011,0.070755556,0.1452816,-0.06649216,-0.08681934,0.06144802,-0.08861242,-0.048746552,-0.15793225,0.019548232,0.19736755,-0.044098772,0.14767005,-0.19024085,-0.119134136,0.26843935,0.032919273,-0.10664784,-0.18467157,-0.3060452,-0.051166866,-0.17315622,-0.08750751,0.06847387,0.21784954,-0.016900074,-0.17083628,-0.027951421,0.14814733,0.1431864,0.12160151,-0.058816854,-0.07642027,-0.11250806,-0.032965608,0.054294676,0.18961512,-0.036335442,-0.16134027,0.060870893,0.012121832,0.07346606,0.1153538,-0.027824732,-0.20101857,0.29081044,0.08455346,0.3028156,-0.23602799,0.18094955,-0.12535752,0.1158942,0.19898236,0.043264452,0.19602022,0.105481274,0.019384911,0.10779847,-0.18169546,-0.10502118,-0.141322,-0.022655377,-0.17996919,0.2668195,0.020632504,0.061974574,0.10049989,0.22245148,0.20623668,-0.015209919,0.36050108,0.20566995,0.061970107,0.025357539,0.46601003,0.2396147,0.17020191,-0.21384461,0.056654144,-0.07183122
R_w2v_test_6,-0.015871981,0.120994784,-0.002923046,0.08990352,0.06689229,-0.31359464,0.15442476,0.43080854,-0.1261135,-0.05226321,-0.07598646,-0.17665087,-0.0670082,0.054443665,0.07904158,-0.14799541,0.13129516,-0.14009118,-0.066630505,-0.34960538,0.18825054,0.064692795,0.13143782,-0.0617221,-0.089733824,0.052357454,-0.087398,-0.051930107,-0.14125635,0.0153097985,0.15743162,-0.047734175,0.13251157,-0.1858922,-0.09389186,0.24185792,0.048205763,-0.076551646,-0.15177119,-0.26875797,-0.052148025,-0.17181794,-0.10086373,0.06917244,0.19448115,-0.019953353,-0.14752093,-0.026237452,0.13733913,0.14772968,0.10165346,-0.04916408,-0.06320206,-0.095510945,-0.054343045,0.042150263,0.18272603,-0.038831376,-0.1451199,0.069838345,0.023305397,0.04744465,0.1170375,-0.0055897245,-0.16532823,0.25474,0.06652112,0.27159518,-0.20946105,0.14957109,-0.10285674,0.10449763,0.16384383,0.04348235,0.1742839,0.09089003,0.02633031,0.09953037,-0.14951175,-0.09173019,-0.1359336,-0.015825523,-0.17084959,0.20340845,-0.010742227,0.030714482,0.11413016,0.18300815,0.18712594,-0.0150731085,0.29816896,0.17742379,0.05829352,0.03339689,0.42906785,0.18486962,0.1474575,-0.18559918,0.03539788,-0.0759294
R_w2v_test_7,-0.034372162,0.13154106,-0.0013203182,0.09502991,0.04954058,-0.28069916,0.15690011,0.41043872,-0.13581379,-0.0596075,-0.08428526,-0.17115307,-0.073006794,0.047944404,0.07859997,-0.13837841,0.1176158,-0.15086508,-0.07643444,-0.33290204,0.15771832,0.055476695,0.12500055,-0.051096562,-0.09533538,0.043809343,-0.105166666,-0.07070798,-0.14024384,0.015924836,0.14723061,-0.034271814,0.12497165,-0.1903612,-0.080550976,0.2349484,0.030921847,-0.07519623,-0.13569273,-0.25580233,-0.05861663,-0.16513556,-0.07807857,0.088364415,0.18972662,-0.009227907,-0.15813258,-0.011079462,0.11746676,0.14885187,0.1046952,-0.04244942,-0.053297788,-0.08780747,-0.06478473,0.044336643,0.15777469,-0.028188355,-0.15647295,0.07436424,0.029232189,0.051407248,0.083607815,-0.0049969177,-0.15367697,0.19682385,0.052510317,0.27041006,-0.18595234,0.14457084,-0.09941474,0.101352125,0.15858471,0.023372177,0.16198032,0.096504636,0.0054807374,0.0944885,-0.1257344,-0.087881394,-0.10079069,-0.026404863,-0.15702157,0.20149256,-0.023053257,0.060641766,0.09808788,0.18685006,0.19213502,-0.0041614245,0.2964439,0.16766004,0.050977062,0.034983143,0.40002257,0.1755202,0.14559837,-0.19262232,0.050371982,-0.076903224
R_w2v_test_8,-0.043892626,0.14105414,-0.0007769218,0.07938843,0.048549466,-0.28128907,0.15379067,0.41886935,-0.13452484,-0.046193708,-0.087612174,-0.16700797,-0.065762535,0.05248215,0.07653844,-0.14882943,0.115094356,-0.14588843,-0.06474419,-0.34367782,0.16312812,0.04908665,0.12509781,-0.04162739,-0.09841903,0.04867632,-0.0975864,-0.063805506,-0.13645689,0.032863352,0.16316047,-0.030486895,0.124146566,-0.18335997,-0.075864956,0.22719161,0.03283329,-0.08877232,-0.14721182,-0.26462656,-0.065563105,-0.17439748,-0.08036999,0.08592648,0.19437616,-0.025904467,-0.14240389,-0.019568758,0.1219173,0.14127709,0.10874498,-0.030952612,-0.05682444,-0.07529681,-0.062424876,0.043938093,0.15558526,-0.037114497,-0.15161772,0.06922797,0.03814859,0.045320507,0.08190822,-0.00917881,-0.15491204,0.20371126,0.071099706,0.25637838,-0.19716437,0.1532258,-0.09768973,0.097395,0.15097041,0.02619789,0.16075513,0.1112502,0.0029010805,0.09608449,-0.13460235,-0.06936074,-0.10924387,-0.024057994,-0.1502213,0.19051583,-0.017223598,0.05192196,0.0893865,0.19638966,0.19817412,0.0031028402,0.28903466,0.16279466,0.050122302,0.022161948,0.40758067,0.16753756,0.15637264,-0.19872211,0.05716523,-0.07359557
R_w2v_test_9,-0.03413417,0.11876745,-0.005885201,0.08561321,0.045785088,-0.2925851,0.14513253,0.40966102,-0.1319084,-0.046331942,-0.0787543,-0.15895885,-0.07047584,0.061228696,0.08467695,-0.13873738,0.12038227,-0.14108147,-0.07121318,-0.33960187,0.17536068,0.0592712,0.12877338,-0.04857525,-0.08602957,0.043381214,-0.09215667,-0.051789224,-0.13759014,0.015708944,0.1542691,-0.04130928,0.12659557,-0.17758739,-0.07725148,0.23635657,0.033438247,-0.0793135,-0.14596774,-0.26062652,-0.057340447,-0.16037412,-0.08845645,0.071998335,0.1852771,-0.016057853,-0.14360367,-0.016348174,0.12322208,0.13395557,0.09651026,-0.0372547,-0.052719552,-0.081177615,-0.055497974,0.03589619,0.1591228,-0.03951179,-0.14463936,0.06841683,0.019589964,0.043998703,0.092359036,-0.008330389,-0.1566554,0.22345734,0.0680739,0.26138428,-0.1978402,0.1492034,-0.09286494,0.10604479,0.15729967,0.042893276,0.15878247,0.09816923,0.007776479,0.094672345,-0.14299707,-0.08366833,-0.1121537,-0.025361596,-0.15483321,0.20334409,-0.0122749945,0.042521883,0.09692607,0.17859589,0.18167843,-0.002553731,0.28603584,0.17101173,0.045451537,0.018341066,0.3990451,0.18337162,0.14014547,-0.1909432,0.051929414,-0.062201682
R_w2v_test_10,-0.037290968,0.14164323,-0.007486436,0.09372822,0.060737107,-0.33229753,0.1722004,0.47398913,-0.14987662,-0.056516238,-0.08962741,-0.1825796,-0.07078038,0.06383008,0.09136011,-0.16478284,0.1330099,-0.15645367,-0.07448291,-0.38722432,0.19763765,0.05869388,0.14110109,-0.057024445,-0.104089364,0.046498735,-0.101151794,-0.06362231,-0.1484851,0.025731692,0.178083,-0.04522427,0.14473838,-0.20748489,-0.09222317,0.2649957,0.041046593,-0.09445424,-0.16726598,-0.29854205,-0.06446843,-0.18860067,-0.0960418,0.08479048,0.21155147,-0.025172787,-0.16560408,-0.023733132,0.13946402,0.15945365,0.11651656,-0.04114095,-0.063343145,-0.091347665,-0.05989966,0.047282316,0.1830276,-0.03745349,-0.1631032,0.07941938,0.036491822,0.0489087,0.11067452,-0.009620709,-0.17490658,0.252787,0.07422647,0.29474816,-0.22831795,0.16965514,-0.1046553,0.115525976,0.17291956,0.04134811,0.18692526,0.11251991,0.014819546,0.110368066,-0.16084082,-0.08462934,-0.13033442,-0.022614663,-0.1804687,0.22656992,-0.017181503,0.049381007,0.11146569,0.21038467,0.21519226,-0.0019287163,0.32780987,0.19057274,0.05747761,0.025173517,0.46146113,0.20294192,0.16780849,-0.21836704,0.05759716,-0.08292724
R_w2v_test_11,-0.031227315,0.14776611,0.00093184714,0.107344285,0.059666753,-0.32780352,0.2035664,0.4967491,-0.1741554,-0.087881595,-0.09450353,-0.20059462,-0.065828994,0.062417097,0.06769734,-0.1655683,0.15083548,-0.17019734,-0.09503208,-0.40830636,0.17446683,0.04887584,0.16182119,-0.05294857,-0.12567438,0.03650183,-0.09565893,-0.046805263,-0.15747437,0.036420316,0.17461938,-0.062459543,0.1527322,-0.25233227,-0.06478362,0.310964,0.078780204,-0.06970137,-0.14908682,-0.27755982,-0.06444333,-0.19893265,-0.12088413,0.09677164,0.21824932,-0.031610638,-0.16584527,-0.00933212,0.15347949,0.16441007,0.0993174,-0.048586197,-0.0425391,-0.08380401,-0.08414061,0.05176842,0.17254618,-0.04611563,-0.13543226,0.090589106,0.06056806,0.019088985,0.15965775,0.0065049147,-0.16831644,0.25510436,0.055813268,0.33134535,-0.24664949,0.1600545,-0.08355782,0.13490313,0.17624883,0.082145795,0.17399812,0.11216154,0.025884349,0.10617423,-0.15058155,-0.070197366,-0.1546934,-0.018293722,-0.2022933,0.21249774,-0.049590442,-0.0027933018,0.1538875,0.22712037,0.24314135,0.02003894,0.3225359,0.21386762,0.032376066,0.04042653,0.45680642,0.205353,0.15775995,-0.22245172,0.070025146,-0.113177784
R_w2v_test_12,-0.029455785,0.09963825,-0.011240543,0.08651436,0.046181157,-0.25646287,0.13613349,0.37075117,-0.119183004,-0.051893197,-0.07144446,-0.14749074,-0.058131814,0.05441891,0.07319324,-0.12574446,0.10693097,-0.123614654,-0.07078126,-0.30444947,0.15333316,0.04783106,0.115401804,-0.040500034,-0.07727164,0.038449425,-0.07705192,-0.047033884,-0.122124635,0.013857926,0.14132895,-0.041449394,0.1168476,-0.16898708,-0.06723308,0.21417105,0.03527391,-0.07349266,-0.12540494,-0.2265391,-0.049675174,-0.14510645,-0.082240984,0.069187246,0.1668432,-0.012552215,-0.13552576,-0.0146319475,0.11716405,0.121856645,0.087794416,-0.03842334,-0.047653187,-0.069009006,-0.05145753,0.03385756,0.13531229,-0.030286202,-0.12851858,0.06524146,0.030502375,0.038621515,0.09648361,-0.008675528,-0.13761982,0.19633824,0.056233756,0.24790815,-0.1800746,0.13194102,-0.0781611,0.10355959,0.13724814,0.02887601,0.14407615,0.080746196,0.01780134,0.07968197,-0.12240894,-0.074945256,-0.10403732,-0.026749458,-0.14716643,0.17953739,-0.018828075,0.03114171,0.08655591,0.15959552,0.16688064,0.0048423675,0.25246358,0.15672764,0.04644798,0.02462116,0.36083624,0.16616963,0.124589644,-0.17276318,0.050877936,-0.06280874
R_w2v_test_13,-0.03745184,0.11698896,-0.023869298,0.09795608,0.067819074,-0.31716338,0.18549019,0.45342582,-0.15869671,-0.07278676,-0.088710114,-0.17510441,-0.053500533,0.075025335,0.09274784,-0.1572705,0.139788,-0.14268985,-0.08038496,-0.3797472,0.19187047,0.035275787,0.15085919,-0.042586543,-0.0982617,0.031049918,-0.06499617,-0.02888165,-0.13637601,0.025095448,0.17784345,-0.05622853,0.13531871,-0.22378035,-0.059813064,0.2720908,0.06554271,-0.0967571,-0.15122321,-0.2665568,-0.05679937,-0.17204717,-0.093492776,0.0690817,0.20578471,-0.020588523,-0.1589295,-0.0173104,0.14383253,0.14060947,0.10094702,-0.052344777,-0.052042924,-0.09574343,-0.052940972,0.03780676,0.15519948,-0.033056602,-0.13234633,0.07694258,0.045842737,0.024937157,0.14865336,-0.0014264788,-0.15990265,0.25402054,0.07198788,0.31463557,-0.22878206,0.16431601,-0.08117426,0.13334155,0.1651524,0.068672255,0.17205317,0.09880268,0.026099045,0.10256747,-0.15894774,-0.071237996,-0.15603188,-0.022598395,-0.18559462,0.22231376,-0.021715596,0.009483026,0.1408306,0.20167895,0.20658346,0.019770008,0.2944383,0.20114276,0.043595314,0.028085386,0.4320844,0.20780352,0.15499148,-0.2168355,0.06962945,-0.08795731
R_w2v_test_14,-0.030478323,0.114933334,0.0047781146,0.07031711,0.046947878,-0.23898967,0.119189836,0.33132467,-0.10881127,-0.040337924,-0.068701714,-0.14376442,-0.054121885,0.045547444,0.069420494,-0.10980686,0.089530766,-0.124045394,-0.043574657,-0.26183873,0.1381502,0.049648374,0.07835633,-0.02898707,-0.07560655,0.04648835,-0.08412558,-0.04329288,-0.1037788,0.011696695,0.12811412,-0.025143763,0.09259355,-0.14284463,-0.0728992,0.19040269,0.040449154,-0.07175873,-0.1305743,-0.20995767,-0.05285281,-0.13641693,-0.08011082,0.072482444,0.14721689,-0.020135568,-0.12153927,-0.0048177317,0.10443729,0.11011968,0.08741058,-0.023664983,-0.051345974,-0.06862027,-0.04844788,0.047497477,0.1361254,-0.034058303,-0.12689441,0.05637887,0.01375172,0.04725128,0.071487755,0.0053229122,-0.12035801,0.1868938,0.036248155,0.20748346,-0.15632421,0.11824135,-0.08260725,0.08209852,0.13020582,0.024278888,0.113050036,0.084501795,0.0043559484,0.06877454,-0.10339735,-0.062266935,-0.08982132,-0.010246642,-0.122164376,0.14725713,-0.015902953,0.044319835,0.08317981,0.1473486,0.16165514,-0.012299798,0.23295999,0.12997971,0.030143103,0.020120952,0.328275,0.14441232,0.119975515,-0.1601158,0.044862837,-0.061652463
R_w2v_test_15,-0.03597828,0.1278066,-0.018012753,0.109726705,0.07461788,-0.3563542,0.19494694,0.49723297,-0.1698754,-0.06945449,-0.09235325,-0.18442386,-0.059305694,0.0845407,0.10479854,-0.17480193,0.14612886,-0.14941788,-0.090012245,-0.42116502,0.21626419,0.04385763,0.15828803,-0.054580983,-0.108621754,0.0348279,-0.07780512,-0.030816741,-0.15091698,0.026527885,0.1854083,-0.0613202,0.15051284,-0.24290498,-0.0701701,0.29851848,0.0643591,-0.10130819,-0.16352317,-0.29004672,-0.0608707,-0.19082306,-0.1192303,0.07165145,0.21885133,-0.025224673,-0.16949378,-0.021134352,0.15790096,0.15269658,0.113017455,-0.051455762,-0.056967735,-0.10043691,-0.05541921,0.04114938,0.17653693,-0.038062587,-0.14366353,0.09202038,0.0423934,0.028234191,0.15436666,-0.0011429585,-0.1747045,0.28553984,0.083091356,0.33208168,-0.25369257,0.17764635,-0.0899936,0.1378945,0.17838731,0.07685243,0.18957119,0.10526372,0.026195066,0.11253151,-0.1771216,-0.080466524,-0.16754928,-0.022544509,-0.19774465,0.24276164,-0.03192916,0.012231369,0.15254113,0.20907818,0.22398621,0.014541136,0.32786366,0.21586643,0.050227497,0.024209345,0.4737152,0.22667524,0.16524124,-0.23296748,0.06571242,-0.092016295
R_w2v_test_16,-0.043407913,0.12783192,-0.0012283172,0.08329012,0.049119774,-0.28381926,0.14966081,0.4114907,-0.13444845,-0.058461893,-0.08051616,-0.15867907,-0.061622716,0.052135874,0.07451642,-0.14296582,0.11286211,-0.13962623,-0.06925742,-0.33929753,0.16154319,0.05327576,0.1275576,-0.042253688,-0.09982161,0.03862395,-0.084513314,-0.054605402,-0.13303496,0.024698664,0.1511063,-0.042971924,0.1256232,-0.1910448,-0.068428464,0.2406329,0.044727724,-0.08594977,-0.13731141,-0.2547518,-0.0629751,-0.16462149,-0.0796322,0.08305636,0.18586205,-0.020448752,-0.14843899,-0.007181162,0.12060439,0.13733448,0.09381706,-0.038085856,-0.05023588,-0.081933506,-0.062315892,0.041161817,0.1499574,-0.035967335,-0.13774958,0.06901909,0.0340046,0.044216793,0.0983293,-0.004942849,-0.14884396,0.21081133,0.052683946,0.26631063,-0.19822584,0.14164592,-0.09053026,0.10965925,0.15373676,0.046746317,0.15627103,0.106684096,0.00800749,0.09182442,-0.13729425,-0.07023238,-0.10568195,-0.014970714,-0.1535317,0.19616327,-0.023895852,0.040243994,0.09714031,0.18777591,0.19054888,0.008487528,0.2859651,0.17433654,0.03769046,0.023893474,0.39904687,0.18202972,0.15059593,-0.19912992,0.060569953,-0.08056753
R_w2v_test_17,-0.043057464,0.13242507,-0.0066931136,0.0865962,0.05815882,-0.2945322,0.15907152,0.4305802,-0.13851501,-0.058080215,-0.08958033,-0.17207965,-0.06374871,0.054479614,0.078744546,-0.15146954,0.1244207,-0.15084025,-0.075624704,-0.35181105,0.17303537,0.056993272,0.13580582,-0.04871878,-0.10302227,0.044662856,-0.08817598,-0.057931878,-0.13988936,0.023998318,0.16759709,-0.03972023,0.12431812,-0.19684899,-0.07784296,0.2506939,0.043745007,-0.08967577,-0.14950898,-0.26902544,-0.059256915,-0.17299168,-0.08394357,0.079371385,0.19809532,-0.016131155,-0.15169142,-0.012501592,0.1289035,0.13920605,0.1081345,-0.042970482,-0.05435757,-0.091182835,-0.06737176,0.0452307,0.16182147,-0.03372101,-0.14808379,0.06728799,0.036410082,0.047501665,0.10679367,-0.010264852,-0.15571001,0.224374,0.06385264,0.28230065,-0.20785405,0.15254475,-0.09455009,0.10945922,0.15993574,0.043031607,0.16397665,0.10475233,0.011451811,0.0958651,-0.1423632,-0.07665625,-0.12295531,-0.020560347,-0.16538249,0.20078067,-0.01742157,0.041514657,0.10846667,0.19876935,0.19949782,0.0033868083,0.29447484,0.17804392,0.048053216,0.02646836,0.4158115,0.19033006,0.15906383,-0.20723766,0.06056283,-0.08196061
R_w2v_test_18,-0.023933353,0.080575265,-0.024626527,0.09072923,0.07595169,-0.2698622,0.17303203,0.3842175,-0.13358228,-0.076264545,-0.06948747,-0.14607927,-0.025697896,0.06521928,0.078174666,-0.13759224,0.1347812,-0.113124475,-0.091120526,-0.32965866,0.16452391,0.025789427,0.16132411,-0.03850242,-0.096153274,0.024347872,-0.019092713,0.016167704,-0.1069515,0.02468345,0.14436157,-0.057389446,0.10076829,-0.21564242,-0.033419915,0.2491059,0.08872525,-0.100440465,-0.1261318,-0.19930811,-0.040777348,-0.13656326,-0.0877978,0.031711362,0.17364301,-0.011725492,-0.119859055,-0.019467263,0.13696799,0.10041495,0.08021926,-0.055377025,-0.037331767,-0.094698265,-0.061469972,0.021728637,0.13231538,-0.017470386,-0.07837693,0.07083468,0.049446583,-0.009447277,0.17385866,0.014865584,-0.103519365,0.23955636,0.053547822,0.29909563,-0.22316793,0.13548397,-0.0450058,0.12320509,0.123173,0.10140217,0.12819141,0.06507701,0.031942192,0.08337178,-0.14638957,-0.046614595,-0.17723367,-0.008701486,-0.17657533,0.18586521,-0.036060654,-0.041232195,0.16306807,0.16787812,0.17422244,0.04145984,0.22287829,0.17758563,0.024345089,0.016395256,0.3561153,0.1955099,0.13536504,-0.1909971,0.053831544,-0.09418917
R_w2v_test_19,-0.032592162,0.13506122,-0.00718294,0.10334971,0.072182745,-0.32729638,0.19291584,0.48052856,-0.16360797,-0.07588711,-0.09637895,-0.18653023,-0.059034552,0.060891576,0.08106484,-0.16660036,0.14099771,-0.15293247,-0.08260036,-0.39078784,0.18567543,0.049087882,0.15419042,-0.056030232,-0.11000267,0.0414233,-0.084252626,-0.04108351,-0.1490093,0.027809031,0.1738011,-0.059051998,0.13519134,-0.23589335,-0.06966479,0.2891191,0.06956497,-0.08798896,-0.15368286,-0.2793545,-0.057743523,-0.19335058,-0.1123834,0.08030237,0.22084919,-0.02749541,-0.15672167,-0.025771582,0.15081567,0.14615512,0.10471742,-0.056495473,-0.055988386,-0.096348666,-0.07500147,0.043054238,0.17129597,-0.045452673,-0.14121391,0.082475014,0.05759571,0.024705786,0.15634944,-0.00049913675,-0.16894518,0.2658077,0.067188725,0.32676244,-0.2330749,0.16714585,-0.08628767,0.13319795,0.17179792,0.080201514,0.1848837,0.11105504,0.023852386,0.10537916,-0.1570239,-0.0727103,-0.15776607,-0.021683635,-0.19804186,0.21798947,-0.03444557,0.0031653915,0.15072373,0.21032691,0.22019362,0.012590199,0.3112155,0.2082234,0.04858397,0.032692477,0.4566306,0.21068972,0.16629702,-0.21710192,0.057264984,-0.104279675
R_w2v_test_20,-0.032485295,0.12729652,-0.009820731,0.10391058,0.062238615,-0.31689185,0.18080516,0.45548397,-0.15448694,-0.06585984,-0.08896809,-0.17655693,-0.06739397,0.070774205,0.08464981,-0.1555556,0.13546762,-0.14450236,-0.08554299,-0.37779835,0.18523444,0.04649285,0.14832887,-0.052886125,-0.10371495,0.038293056,-0.082471594,-0.043813523,-0.1476511,0.026459789,0.16832626,-0.058154684,0.1446184,-0.22200689,-0.067919366,0.27094123,0.0605335,-0.08484866,-0.1515604,-0.26618025,-0.058603585,-0.17877129,-0.10809132,0.07749085,0.2035936,-0.021999164,-0.15197502,-0.022984866,0.14810014,0.14501245,0.10157093,-0.050590992,-0.051625896,-0.088117264,-0.0600769,0.04409902,0.16834138,-0.040152993,-0.13579369,0.08307683,0.03807446,0.027117092,0.13254924,-0.006409076,-0.16113777,0.24837044,0.07298909,0.30487847,-0.22905876,0.167426,-0.091690324,0.122950554,0.16892825,0.062715605,0.16912948,0.09455727,0.020409575,0.10543137,-0.15609825,-0.08114903,-0.15057862,-0.021691455,-0.18178567,0.21255997,-0.03180254,0.014662788,0.1310536,0.19515297,0.20635332,0.008325492,0.29852775,0.19204347,0.04692316,0.024588061,0.4325429,0.19847827,0.15194689,-0.2032776,0.054339685,-0.08136458
R_w2v_test_21,-0.049266014,0.12012159,-0.0067010946,0.080309354,0.058827933,-0.27215463,0.15706468,0.3990196,-0.1327622,-0.0637995,-0.07729612,-0.15391293,-0.050689407,0.050370447,0.071489766,-0.14081115,0.12174135,-0.13783024,-0.08167265,-0.32416904,0.15514152,0.040775094,0.1487754,-0.035151787,-0.103856,0.03638027,-0.058994208,-0.029478338,-0.1167022,0.021813186,0.14639772,-0.042975586,0.10785529,-0.1988509,-0.046910234,0.24276654,0.07281395,-0.093481846,-0.13421987,-0.22473334,-0.057219014,-0.14906327,-0.07759757,0.063000016,0.18155505,-0.013461311,-0.13215564,-0.008508456,0.1227463,0.11722557,0.092235535,-0.03538712,-0.041937098,-0.08461361,-0.0732811,0.03877514,0.14596456,-0.022461008,-0.10888485,0.062094852,0.043875013,0.0260401,0.121193536,0.004207079,-0.11982651,0.20556775,0.05170856,0.2763415,-0.20409952,0.13421208,-0.06850081,0.1105448,0.13646072,0.06634967,0.13891327,0.08886739,0.0103242155,0.09016207,-0.13869889,-0.05534745,-0.1358487,-0.013503928,-0.15771168,0.17841245,-0.03011127,0.014394881,0.123916306,0.18090704,0.1857322,0.021860408,0.25189233,0.16912612,0.029111836,0.018504892,0.37541586,0.18218735,0.14248243,-0.1977867,0.05678065,-0.090525225
R_w2v_test_22,-0.072062716,0.16833633,0.0044741295,0.080061965,0.05352094,-0.3265625,0.17159674,0.49096307,-0.16264838,-0.041277617,-0.1092931,-0.19162431,-0.075030394,0.061036,0.08586495,-0.17123008,0.121244654,-0.18464044,-0.0792599,-0.40838873,0.18696058,0.074150376,0.1274031,-0.0620701,-0.117436856,0.05698447,-0.1252166,-0.09147277,-0.16685867,0.033041902,0.20662428,-0.025552684,0.15120536,-0.19047852,-0.10679762,0.27016726,0.022435144,-0.117110945,-0.18838984,-0.32939243,-0.080868736,-0.2029599,-0.08183324,0.1043349,0.23841858,-0.01566205,-0.17424276,-0.016307525,0.1293591,0.16969293,0.12450197,-0.026221015,-0.06969,-0.081373245,-0.08723179,0.059117142,0.18662272,-0.03383569,-0.1961933,0.07801072,0.03408138,0.078636125,0.0725223,-0.014160377,-0.18379635,0.22726515,0.078911394,0.27598697,-0.21713273,0.17515483,-0.12340286,0.10732363,0.17065145,0.019137727,0.19194554,0.13321733,-0.0011486048,0.100858524,-0.15693358,-0.08815262,-0.09089031,-0.032363843,-0.16697118,0.2304129,-0.011738253,0.09011127,0.08961339,0.23065005,0.22779813,0.00017234962,0.35080138,0.19213563,0.05863644,0.021863192,0.48893434,0.19576871,0.19567883,-0.25476992,0.0749699,-0.07253912
R_w2v_test_23,-0.03284244,0.10319512,-0.024861364,0.09945633,0.06343088,-0.32937303,0.16054858,0.43858796,-0.14193846,-0.05235237,-0.08069703,-0.16684803,-0.060816754,0.07776136,0.110275276,-0.15635961,0.124552295,-0.14091754,-0.074947484,-0.3777877,0.20806254,0.0532619,0.14578085,-0.043020308,-0.089106716,0.041603133,-0.07503495,-0.038100038,-0.13461636,0.013477057,0.17282195,-0.048468266,0.13710982,-0.19942854,-0.07856181,0.25668553,0.04332641,-0.111256815,-0.16283701,-0.27321538,-0.054476574,-0.15970363,-0.098863535,0.05836534,0.19720894,-0.015404402,-0.15752946,-0.021639297,0.1378302,0.13089913,0.10617122,-0.05248313,-0.065986924,-0.09586119,-0.03774722,0.03465276,0.16231056,-0.03426847,-0.14054175,0.07538045,0.01934076,0.04292335,0.13236278,-0.013655552,-0.16504471,0.26468584,0.06927182,0.29514864,-0.23058414,0.16518913,-0.10255151,0.13041593,0.16331552,0.052641295,0.17173304,0.09565003,0.015514452,0.09751017,-0.16805062,-0.08655768,-0.135996,-0.024546087,-0.16773878,0.23773886,-0.012097404,0.034081344,0.12106603,0.19262266,0.18732244,0.0049653705,0.3052276,0.19445547,0.046750084,0.02694798,0.43490008,0.21262604,0.15164018,-0.20866889,0.06441503,-0.069936305
R_w2v_test_24,-0.03953991,0.14035223,-0.0021432247,0.079729125,0.046097983,-0.31248534,0.17046486,0.44181013,-0.15480572,-0.06265128,-0.08675649,-0.1827233,-0.07384628,0.050890207,0.0773923,-0.15463011,0.1288771,-0.16514534,-0.07110467,-0.37049532,0.17756511,0.0555105,0.1390758,-0.05277858,-0.10928481,0.043989938,-0.11025771,-0.06781383,-0.1411205,0.019368583,0.1658813,-0.045427047,0.12774448,-0.20237601,-0.07357615,0.26880094,0.043214798,-0.07776266,-0.14606804,-0.27762341,-0.06664126,-0.17186964,-0.09388269,0.09048366,0.20380042,-0.019127117,-0.15097953,-0.011809899,0.1222677,0.1524406,0.11222826,-0.036863778,-0.0465015,-0.08531905,-0.0754887,0.05191735,0.16724928,-0.04253505,-0.15867256,0.07762851,0.03384649,0.046542473,0.09452773,0.0032908593,-0.16361296,0.2138999,0.058234505,0.2867841,-0.20374402,0.14610285,-0.10070633,0.113348365,0.16425794,0.046001703,0.16676201,0.12494995,-0.003450465,0.104350366,-0.14859876,-0.06874698,-0.108901985,-0.025603963,-0.16945395,0.21834452,-0.031326894,0.054368626,0.11040984,0.20983428,0.20791376,-0.0005262457,0.30985153,0.18885945,0.038050767,0.02606298,0.42864543,0.19033864,0.15436465,-0.21295069,0.066522926,-0.081976175
R_w2v_test_25,-0.034367986,0.14415087,-0.0006518559,0.10006819,0.06305335,-0.3344301,0.17439705,0.48527718,-0.15497214,-0.06387208,-0.097848244,-0.19565922,-0.06928854,0.06213459,0.08396935,-0.16945879,0.14003581,-0.16579546,-0.08458778,-0.3954563,0.19480358,0.066372715,0.15309444,-0.057022445,-0.110021666,0.05068217,-0.0960023,-0.059418485,-0.1563106,0.026909085,0.17868406,-0.04748266,0.14363872,-0.21874991,-0.08636991,0.27990365,0.05932184,-0.09595168,-0.1666724,-0.29624194,-0.069667846,-0.1881035,-0.101439506,0.08886835,0.21823806,-0.023604682,-0.17003542,-0.013713354,0.1487699,0.15961467,0.1124779,-0.048172653,-0.060333952,-0.103051685,-0.071404904,0.048788,0.18565553,-0.042352714,-0.15917327,0.0807638,0.03834015,0.04921813,0.12455515,-0.0042189285,-0.17520434,0.25734168,0.06420929,0.30930126,-0.23601691,0.16679877,-0.104695946,0.122797474,0.17644288,0.054545585,0.18513666,0.117471375,0.017529093,0.105434224,-0.16300565,-0.08498478,-0.13604549,-0.017589144,-0.1873874,0.22546726,-0.025444262,0.037482638,0.124700874,0.21944281,0.22251278,0.0052950457,0.33090356,0.20132437,0.049699854,0.034883533,0.47025087,0.21228252,0.16910832,-0.22791001,0.061328948,-0.095164426
R_w2v_test_26,-0.02279038,0.10045096,-0.0030986464,0.073941,0.048585158,-0.24201243,0.13279364,0.35371888,-0.11762487,-0.04290438,-0.06953869,-0.13436016,-0.052813265,0.053945605,0.06549624,-0.117720194,0.102491915,-0.10669405,-0.061502904,-0.29242557,0.14313348,0.036225263,0.1054078,-0.045435384,-0.077898584,0.02656898,-0.07467803,-0.03473841,-0.117168784,0.023280352,0.12529702,-0.043049645,0.10505742,-0.15980618,-0.055251736,0.20558602,0.04368612,-0.05955955,-0.119566895,-0.20780124,-0.049009215,-0.14208476,-0.085305005,0.057209175,0.15222968,-0.022457408,-0.11199674,-0.019119272,0.10746482,0.11821204,0.0875073,-0.036713663,-0.035880182,-0.057780515,-0.048668798,0.039270528,0.13550061,-0.02529372,-0.106414735,0.06411157,0.028851347,0.025396148,0.09520016,-0.004564097,-0.12734537,0.19018354,0.06278304,0.22675472,-0.17195661,0.13066413,-0.07039728,0.08733797,0.1269331,0.042478427,0.13149367,0.07572118,0.011261743,0.08263806,-0.11839368,-0.06266841,-0.11348162,-0.018727092,-0.14153443,0.16111284,-0.024483101,0.017637061,0.09528854,0.14512978,0.16883405,0.0043221097,0.22986162,0.14044158,0.042075183,0.015391145,0.33398995,0.14844486,0.119511634,-0.15472741,0.038868304,-0.0629606
R_w2v_test_27,-0.06558091,0.14054625,-0.020684635,0.08777822,0.083052635,-0.33939844,0.1860224,0.49691823,-0.16514185,-0.069484845,-0.09933652,-0.19213553,-0.051536325,0.0660618,0.10168071,-0.18792309,0.15467563,-0.17882547,-0.08484834,-0.41646343,0.20309174,0.05284056,0.17955936,-0.04838798,-0.12822351,0.044002067,-0.0712548,-0.034358718,-0.14427221,0.031544227,0.19608381,-0.04199851,0.13400152,-0.23467109,-0.070574895,0.2961354,0.072972,-0.13087808,-0.17984357,-0.29044318,-0.07078827,-0.18318473,-0.08858879,0.08041472,0.23340099,-0.016723627,-0.15898426,-0.014113309,0.1508211,0.14358321,0.12707175,-0.041648623,-0.061896782,-0.11346287,-0.07398088,0.052826595,0.18155107,-0.02629673,-0.13815257,0.07338447,0.04408396,0.042789362,0.13840552,0.004334354,-0.1557866,0.2652338,0.065930836,0.33297214,-0.2537273,0.17094791,-0.09655847,0.13197868,0.174451,0.0846811,0.17235246,0.11136729,0.01841565,0.10929514,-0.16967006,-0.06636317,-0.17440559,-0.0041107596,-0.1997992,0.2375036,-0.014726641,0.03373791,0.1465224,0.24363364,0.23817523,0.023301374,0.3307988,0.21640994,0.044018693,0.02730927,0.4762459,0.23324013,0.19535176,-0.25210086,0.079037674,-0.109737955
R_w2v_test_28,-0.052643333,0.1357107,-0.0040054456,0.08906018,0.07063163,-0.28282443,0.18036285,0.43615764,-0.14115132,-0.07628788,-0.087741755,-0.17777972,-0.04406554,0.05793963,0.06397167,-0.15722485,0.14307687,-0.15282282,-0.086594045,-0.35549384,0.16243665,0.046492714,0.16060922,-0.03783164,-0.118379965,0.03730642,-0.0611893,-0.031912014,-0.12764342,0.037653774,0.16454609,-0.041669857,0.11313808,-0.22344534,-0.052562308,0.2621537,0.07723471,-0.10756583,-0.14669003,-0.24482039,-0.05990174,-0.1639595,-0.08297352,0.07217807,0.20562239,-0.013614001,-0.1434908,-0.014312287,0.13833697,0.13189371,0.10050335,-0.039030336,-0.04051278,-0.0986164,-0.08793497,0.039928023,0.15696649,-0.022225173,-0.12157406,0.07399021,0.05421366,0.013473603,0.13210376,0.01744256,-0.13015778,0.22132249,0.056328088,0.29987106,-0.22112401,0.1445675,-0.07182403,0.11491566,0.14304154,0.07576718,0.14658721,0.101305775,0.017332738,0.09101219,-0.14347242,-0.05221427,-0.1578321,-0.008670868,-0.18504333,0.19384754,-0.032544233,0.007569396,0.14778785,0.20414725,0.20772335,0.03635596,0.26641396,0.17998911,0.033896405,0.018710697,0.40598923,0.19528382,0.1639773,-0.22854207,0.06645112,-0.09958238
R_w2v_test_29,-0.03227261,0.12712948,-0.0011043266,0.09323134,0.05586746,-0.29802856,0.152705,0.4256545,-0.13278605,-0.051794097,-0.08393816,-0.16838305,-0.062272254,0.050335784,0.08042431,-0.15037313,0.1265101,-0.14938469,-0.062730975,-0.34542683,0.17506452,0.072858974,0.12048638,-0.058411855,-0.091318816,0.05482695,-0.09697016,-0.061555576,-0.14176895,0.020422123,0.16104908,-0.038397893,0.12731674,-0.18021524,-0.090629965,0.2426837,0.0313549,-0.0916619,-0.15028654,-0.277881,-0.056589726,-0.17428935,-0.09174643,0.07898818,0.19993813,-0.021752449,-0.14684816,-0.024391646,0.13389775,0.1399752,0.1022966,-0.038562965,-0.06814053,-0.09113821,-0.0576399,0.047737688,0.16876914,-0.034097478,-0.14716499,0.06595062,0.035519347,0.049042795,0.10265049,-0.017361162,-0.16575189,0.23133546,0.060393453,0.27284214,-0.20061886,0.15333863,-0.09728857,0.10673923,0.16724758,0.039059125,0.17351969,0.10301572,0.013051283,0.09300536,-0.14251524,-0.08468061,-0.11827465,-0.027469888,-0.16764547,0.20406924,-0.008737825,0.04275685,0.09984424,0.19030069,0.19828993,-0.015813299,0.29929033,0.17105234,0.054307844,0.03263403,0.42209983,0.18361293,0.15099761,-0.1947741,0.050112065,-0.07713929
R_w2v_test_30,-0.026024893,0.1367393,0.010806241,0.09546099,0.045236673,-0.28464952,0.1479349,0.4080744,-0.12650587,-0.03388465,-0.08558736,-0.17352808,-0.0674721,0.050314236,0.07197505,-0.1422091,0.11748052,-0.15122372,-0.07289692,-0.3308207,0.16555753,0.06613148,0.11857625,-0.04756534,-0.09561843,0.043617636,-0.10986058,-0.06712217,-0.14526992,0.021674687,0.14838924,-0.036498427,0.1354484,-0.17904149,-0.07841467,0.22081639,0.03395265,-0.06963814,-0.14214389,-0.26367334,-0.06676493,-0.1722815,-0.1060271,0.08133156,0.18536054,-0.024076521,-0.15074974,-0.014880553,0.12956841,0.14429979,0.101968564,-0.039444786,-0.05552716,-0.07401839,-0.06583714,0.04537222,0.1688555,-0.043306295,-0.15121235,0.072979204,0.020477474,0.050044566,0.07738765,-0.0062741563,-0.16082817,0.21155955,0.06085661,0.26200467,-0.19700146,0.15686928,-0.10111315,0.09394907,0.16600983,0.022200407,0.15252286,0.09227439,0.009767392,0.089369096,-0.13287014,-0.08996747,-0.11381614,-0.032978725,-0.15529992,0.1917517,-0.019937558,0.044754997,0.08233859,0.18251686,0.20194595,-0.010651038,0.29639977,0.16374034,0.060142387,0.023057409,0.40376607,0.1714095,0.13815627,-0.17475504,0.035740353,-0.06618082
R_w2v_test_31,-0.04113517,0.14160779,-0.0031729504,0.09749344,0.053081352,-0.33929148,0.17562774,0.47736052,-0.15756297,-0.055789266,-0.09043684,-0.18613988,-0.07936638,0.06675896,0.08888673,-0.1654955,0.14173825,-0.16423595,-0.08057586,-0.39689007,0.20001043,0.06398277,0.14513306,-0.05590293,-0.10432684,0.04612598,-0.11149519,-0.06524367,-0.15593703,0.019845568,0.17771028,-0.047795124,0.14736092,-0.21415068,-0.08647801,0.27889442,0.04488629,-0.09059857,-0.16433269,-0.30112773,-0.06798969,-0.1873321,-0.10596248,0.09045858,0.21346377,-0.02375134,-0.16292116,-0.01696098,0.14312851,0.16322617,0.117076434,-0.041973453,-0.05981885,-0.090852834,-0.0699112,0.051701672,0.18151452,-0.042022333,-0.16537724,0.08462401,0.03205538,0.05195409,0.105466925,-0.008499555,-0.17954977,0.2450117,0.075780004,0.30815184,-0.2250765,0.16850835,-0.109863475,0.12190051,0.17943414,0.041108068,0.18337244,0.12053589,0.00668384,0.11001697,-0.16506746,-0.08854475,-0.12581341,-0.031998478,-0.18438855,0.23556145,-0.027427418,0.052911147,0.114866816,0.21103592,0.21838176,-0.00022523664,0.3283638,0.19833808,0.055277426,0.022510253,0.46715906,0.20354316,0.16471945,-0.21952796,0.06263261,-0.07689748
R_w2v_test_32,-0.033776533,0.12079585,-0.015860246,0.11402357,0.07493566,-0.3375964,0.19423391,0.48069322,-0.16231751,-0.08079932,-0.08777445,-0.18682085,-0.059563003,0.07734876,0.08802395,-0.16056319,0.1583405,-0.14478451,-0.10228896,-0.39767092,0.19608353,0.045945395,0.17307633,-0.051070914,-0.1094915,0.03428906,-0.070334665,-0.016864091,-0.14890103,0.023155237,0.168949,-0.068721876,0.14236826,-0.24624214,-0.054910723,0.30125242,0.0900672,-0.09196005,-0.1550241,-0.25982592,-0.061041225,-0.18183535,-0.122351006,0.06686639,0.21269317,-0.021398755,-0.15457167,-0.023909163,0.16249178,0.14563534,0.10111845,-0.052012194,-0.040106986,-0.08929883,-0.070892796,0.037215523,0.17377812,-0.038338292,-0.12214922,0.09253392,0.05085987,0.011770577,0.1683889,0.010891671,-0.15011087,0.2720805,0.06925926,0.34406903,-0.24852961,0.17485864,-0.07258013,0.13705644,0.16818812,0.08675039,0.1700274,0.09035215,0.032808457,0.10797023,-0.16816263,-0.0787867,-0.1884221,-0.025476975,-0.20519029,0.2202971,-0.048388664,-0.013781166,0.16143364,0.20131804,0.22081546,0.025636641,0.2985786,0.20838375,0.0466068,0.020103805,0.44787762,0.22006826,0.14998433,-0.21496658,0.054279074,-0.09755636
R_w2v_test_33,-0.039878964,0.14601813,4.500416e-05,0.09673191,0.0510972,-0.31454712,0.16638814,0.46112978,-0.15205345,-0.057979167,-0.091891,-0.18030685,-0.07827434,0.05914338,0.08104418,-0.15795928,0.12765454,-0.15532078,-0.076507345,-0.37143272,0.18066336,0.06268866,0.13713613,-0.054885127,-0.10545954,0.05471053,-0.11012173,-0.07205562,-0.15605457,0.024254672,0.17135932,-0.038365163,0.14243868,-0.2090389,-0.084283605,0.26320508,0.04318829,-0.08371495,-0.16262552,-0.29140207,-0.07094594,-0.1876797,-0.0922027,0.093935624,0.20869072,-0.026297046,-0.16609718,-0.021681288,0.13949928,0.15377496,0.107325226,-0.0371951,-0.056940123,-0.09073841,-0.07021979,0.042828243,0.17104016,-0.042481337,-0.1659609,0.07857486,0.03799625,0.052139208,0.10299774,-0.009447391,-0.16903283,0.23587815,0.06420726,0.29290482,-0.21303846,0.16197406,-0.108831875,0.114487335,0.17178844,0.03769541,0.18636833,0.117057554,0.00888091,0.10862288,-0.14748503,-0.09143962,-0.12001173,-0.024751391,-0.17201816,0.21350697,-0.027026705,0.05083602,0.1097434,0.20607291,0.21029662,-0.006253471,0.31763712,0.18930656,0.053506646,0.022122761,0.44828102,0.19266455,0.1616142,-0.21188276,0.05852036,-0.082643665
R_w2v_test_34,-0.024794847,0.115381196,-0.00738626,0.09414339,0.06100041,-0.30641773,0.16339816,0.4297919,-0.1438157,-0.063250564,-0.079453155,-0.1677331,-0.055352885,0.064592004,0.0807216,-0.15275356,0.12509048,-0.13473962,-0.08087087,-0.35711223,0.17491595,0.04551443,0.14177488,-0.048204765,-0.098243274,0.03597538,-0.07273807,-0.035010096,-0.13539325,0.02277545,0.15688118,-0.055996414,0.13046497,-0.20751761,-0.06765879,0.2560799,0.06372449,-0.07953278,-0.14266396,-0.2537247,-0.05574552,-0.16374236,-0.10140137,0.070535555,0.18705861,-0.024190228,-0.14072688,-0.018205766,0.13778865,0.13635218,0.08846076,-0.050697677,-0.048161313,-0.08665709,-0.057905264,0.035606775,0.15866615,-0.037086982,-0.12606953,0.076090224,0.040318035,0.02869285,0.1380808,-0.0015421802,-0.15458566,0.24842855,0.06100429,0.2899811,-0.21938322,0.15040062,-0.081394725,0.122969866,0.15740038,0.06826942,0.16401747,0.09805195,0.022098865,0.0981264,-0.15114513,-0.07389415,-0.13846031,-0.0155713875,-0.17309366,0.20113651,-0.030797102,0.0065677837,0.13007548,0.1851012,0.1944507,0.012112489,0.2819921,0.18693559,0.038620107,0.025993904,0.41511473,0.1925948,0.14206503,-0.19741055,0.05149018,-0.088829264
R_w2v_test_35,-0.042290527,0.15063158,-0.012222811,0.10966844,0.07392569,-0.33267716,0.18086493,0.4898309,-0.16368046,-0.065637626,-0.10407327,-0.18343663,-0.077897616,0.069866866,0.096581005,-0.16677448,0.13574483,-0.15994117,-0.08034999,-0.40709168,0.19313447,0.06086884,0.15591048,-0.0550276,-0.11281588,0.038313773,-0.09239585,-0.051692225,-0.16061509,0.035761923,0.18808301,-0.048151877,0.14781842,-0.22913644,-0.075152345,0.2862129,0.066685066,-0.09357714,-0.1722994,-0.29502052,-0.06762869,-0.19457963,-0.10549398,0.08723418,0.22010168,-0.02735725,-0.15953863,-0.0194367,0.15132494,0.15513174,0.12921669,-0.050529294,-0.05390349,-0.092567764,-0.07683461,0.050273035,0.18393378,-0.03688382,-0.15162262,0.07669283,0.045329385,0.04549405,0.123174846,-0.010464273,-0.17478536,0.2551482,0.08222262,0.32463452,-0.23620848,0.17687991,-0.10126321,0.12822871,0.18084359,0.063493356,0.18260375,0.10974228,0.018755818,0.110631265,-0.15901312,-0.082606025,-0.15144704,-0.0206754,-0.18962917,0.21886556,-0.03195964,0.03063651,0.12792931,0.22240679,0.23543783,0.010505623,0.32522154,0.20574403,0.046877798,0.022932665,0.46725982,0.21004567,0.18041778,-0.22531712,0.066095,-0.10091187
R_w2v_test_36,-0.042389847,0.12899236,-0.01516775,0.10965304,0.0799707,-0.33509567,0.20120117,0.4796787,-0.15896365,-0.081519924,-0.0869697,-0.1886597,-0.04635604,0.068419866,0.08598201,-0.16876583,0.16055575,-0.16007029,-0.10594483,-0.39252782,0.19404557,0.04419796,0.18431069,-0.047681134,-0.120793425,0.038457308,-0.05803461,-0.019828748,-0.13806325,0.022531558,0.1704401,-0.05644305,0.13577804,-0.24666098,-0.059926078,0.29307565,0.08920393,-0.119602814,-0.15564337,-0.26489693,-0.06882147,-0.17611499,-0.103482686,0.06436579,0.21297865,-0.013617825,-0.16053805,-0.016158884,0.15982553,0.14226764,0.10151002,-0.051441558,-0.052771833,-0.110191956,-0.07609386,0.037268505,0.17931189,-0.023835147,-0.12035264,0.088180944,0.053040717,0.015266557,0.16933301,0.011634496,-0.13827758,0.2697287,0.057887252,0.34582758,-0.26416168,0.16402054,-0.07431177,0.14217049,0.16395012,0.0899633,0.1685145,0.091696665,0.027826983,0.10710442,-0.1746437,-0.07622149,-0.18977882,-0.01067382,-0.20633645,0.2281766,-0.038995672,-0.0056276973,0.17042306,0.21163474,0.21650022,0.02575481,0.30038413,0.20888886,0.039442807,0.027800208,0.45465854,0.22261739,0.16575442,-0.23154525,0.062647685,-0.11027573
R_w2v_test_37,-0.023377676,0.11678275,-0.011754667,0.108840324,0.07120614,-0.35586566,0.18491182,0.47996897,-0.15339765,-0.066201836,-0.098163776,-0.19513583,-0.064481124,0.07265906,0.10167527,-0.16279788,0.14831284,-0.15076648,-0.08960009,-0.4073337,0.21440569,0.056322686,0.16296534,-0.06102649,-0.097146414,0.045059778,-0.07673404,-0.039619036,-0.15435994,0.02163301,0.18737939,-0.061594337,0.15414186,-0.22679548,-0.0872462,0.29148602,0.06265402,-0.09872516,-0.16306381,-0.29184896,-0.052642085,-0.18761839,-0.12329414,0.062215738,0.21698527,-0.021090237,-0.16453713,-0.0228131,0.16160944,0.15201344,0.111211285,-0.06315944,-0.060429327,-0.09641775,-0.062111504,0.039195996,0.18416068,-0.03474991,-0.14681122,0.08806854,0.038234286,0.03013747,0.15239921,-0.009938648,-0.17010865,0.286988,0.088460006,0.32836977,-0.25186664,0.18702094,-0.09721343,0.13728839,0.18146463,0.06486659,0.18750118,0.0965544,0.036205847,0.10090683,-0.17563687,-0.08743314,-0.16973504,-0.027164018,-0.20093231,0.24109726,-0.032889962,0.008715997,0.14536396,0.20841387,0.20499277,0.010473466,0.31850657,0.21235573,0.05782184,0.035883047,0.47176027,0.22831717,0.16317004,-0.2133855,0.056933843,-0.09058497
R_w2v_test_38,-0.03032762,0.10135202,-0.00029054726,0.06121028,0.029096164,-0.18399024,0.09287029,0.27026883,-0.09203616,-0.03569028,-0.06757142,-0.10796443,-0.052114576,0.032566793,0.050770395,-0.09638511,0.06865457,-0.099276364,-0.04742694,-0.2177596,0.09453896,0.03887659,0.07433885,-0.033857416,-0.06459582,0.035975043,-0.07773077,-0.066398226,-0.10120974,0.01250026,0.10394603,-0.0152225215,0.08530649,-0.10453972,-0.053934682,0.14804024,0.00779031,-0.055429585,-0.09625098,-0.18303193,-0.044518318,-0.11472061,-0.04093737,0.07072731,0.12492342,-0.005339626,-0.10216252,-0.007577101,0.08032078,0.10985735,0.07099461,-0.018378401,-0.036263864,-0.049149457,-0.050451808,0.039404582,0.10999736,-0.01895042,-0.12116393,0.035791367,0.022387749,0.05104892,0.035284746,-0.008195206,-0.105555534,0.11805335,0.045246333,0.16896252,-0.110468745,0.09085437,-0.06981705,0.06546399,0.11137014,0.0042336923,0.11663887,0.07604873,0.0051677655,0.060329165,-0.07184444,-0.06303458,-0.04979593,-0.014703777,-0.09504506,0.12938839,-0.0075193075,0.058993254,0.04710092,0.1329913,0.1310208,-0.008372294,0.19528617,0.10851962,0.03931039,0.026345821,0.2622097,0.11561707,0.11025181,-0.13947631,0.042710334,-0.04429697
R_w2v_test_39,-0.05005172,0.13382417,-0.001647032,0.07534969,0.059226613,-0.26770505,0.1651599,0.41100535,-0.1405239,-0.07342005,-0.08003729,-0.15631783,-0.046432342,0.042901233,0.063542545,-0.14287847,0.12107372,-0.14587335,-0.08124692,-0.3239913,0.14543326,0.03758152,0.15486185,-0.035718154,-0.11532309,0.03616084,-0.06007232,-0.03514852,-0.11737845,0.028097093,0.14737189,-0.043411028,0.10908327,-0.20623867,-0.039928716,0.25216785,0.07784202,-0.088426,-0.13083811,-0.22286497,-0.061097085,-0.15491554,-0.078384735,0.07369242,0.18536718,-0.017105237,-0.1325403,-0.005052095,0.11969917,0.12167495,0.09138805,-0.034872275,-0.042259604,-0.082132675,-0.08156275,0.043463558,0.13653572,-0.025599614,-0.109143026,0.06543026,0.048130184,0.020537784,0.122582346,0.0057304134,-0.12323635,0.20141298,0.041662272,0.27893105,-0.20546709,0.12763815,-0.06720451,0.110104434,0.13351734,0.08205763,0.13311368,0.09701169,0.009646589,0.0862099,-0.1315117,-0.044234525,-0.13137192,-0.0016628875,-0.1586744,0.17423993,-0.038455665,0.010647074,0.13051473,0.19372143,0.19235617,0.02445405,0.2573137,0.17366682,0.022585547,0.02060061,0.3732953,0.17899197,0.1528415,-0.2083358,0.062310573,-0.10389445
R_w2v_test_40,-0.022869484,0.11207851,-0.0257114,0.11905051,0.069989204,-0.35491228,0.19812238,0.49075747,-0.16040428,-0.06486548,-0.092193715,-0.18603826,-0.06398816,0.0863995,0.11108553,-0.17536813,0.14921407,-0.1426964,-0.09530729,-0.41902575,0.220142,0.047573373,0.1630695,-0.054094702,-0.100642435,0.04192241,-0.07452906,-0.034929037,-0.15515599,0.016734604,0.18538737,-0.06956916,0.15634869,-0.24308012,-0.07447768,0.2989467,0.06649077,-0.10024571,-0.17643678,-0.28866524,-0.055940453,-0.18600486,-0.11294965,0.06555636,0.21529895,-0.018345095,-0.16572334,-0.028921274,0.16467209,0.14738716,0.11108162,-0.06152971,-0.06563438,-0.099927016,-0.062066507,0.030228972,0.17674913,-0.040301267,-0.15224944,0.09210449,0.041594382,0.025764907,0.17193735,-0.010001176,-0.1798166,0.2969915,0.08139838,0.3493348,-0.2578853,0.18307632,-0.09825162,0.14645088,0.18417616,0.076112315,0.19768755,0.098846376,0.026232583,0.11913965,-0.1771395,-0.08475823,-0.17295821,-0.035964932,-0.20810173,0.2515101,-0.03653141,0.0028409462,0.1530212,0.20118046,0.2135105,0.011932188,0.3141726,0.21987386,0.053801656,0.02613622,0.48143625,0.23529923,0.15971988,-0.22301205,0.055243533,-0.08847467
R_w2v_test_41,-0.04227251,0.13810752,-0.0033299846,0.09849966,0.06001311,-0.34187827,0.18137775,0.49611855,-0.1589884,-0.059431136,-0.09959832,-0.18495475,-0.06940431,0.07405742,0.09757786,-0.17339797,0.14338069,-0.1618763,-0.08492264,-0.4102527,0.20494281,0.056538712,0.15292068,-0.05633166,-0.110956974,0.04051492,-0.09698545,-0.049985096,-0.15617116,0.024792826,0.18253171,-0.053279046,0.15252167,-0.2232569,-0.08133306,0.28265506,0.056640718,-0.10452951,-0.17590515,-0.29872027,-0.07155522,-0.18658477,-0.11139411,0.08252416,0.21817546,-0.03054832,-0.1635228,-0.016833244,0.14605165,0.16357543,0.11833214,-0.04623708,-0.05702972,-0.088854276,-0.07025472,0.0509019,0.18484063,-0.03801253,-0.15407841,0.08666886,0.03547377,0.04287253,0.12668851,-0.0076609943,-0.1798722,0.26407692,0.08090826,0.31551898,-0.24300458,0.18194012,-0.10088006,0.1328408,0.17692678,0.0500638,0.18811317,0.11067452,0.018206019,0.11306117,-0.17336923,-0.08313344,-0.14548986,-0.029162161,-0.188717,0.23589443,-0.030439375,0.035867166,0.12596507,0.21386296,0.2228633,0.009905849,0.33273938,0.20288108,0.051332545,0.02247081,0.4780903,0.21524005,0.172588,-0.22776692,0.061435048,-0.07984883
R_w2v_test_42,-0.020004472,0.0872652,-0.02798138,0.1325847,0.08275992,-0.39185667,0.21045211,0.50595117,-0.17052908,-0.075003356,-0.079947494,-0.1778012,-0.0604605,0.11267999,0.118919656,-0.16355646,0.16716039,-0.11543995,-0.10953875,-0.4373535,0.2418506,0.025133736,0.1938264,-0.05522545,-0.085417315,0.015491618,-0.049414977,0.019164653,-0.15427254,0.020214934,0.17728475,-0.09227383,0.16615775,-0.26571855,-0.048568953,0.3232134,0.10839833,-0.09136627,-0.15465525,-0.25351658,-0.048570216,-0.17740428,-0.16157663,0.03489288,0.2055442,-0.027453516,-0.14663526,-0.028460423,0.18233281,0.14123611,0.09762794,-0.078427926,-0.046300936,-0.09076341,-0.03601161,0.030205239,0.18036854,-0.03808964,-0.09916466,0.10900868,0.032298088,-0.008528324,0.20874056,-0.004440044,-0.1699278,0.32964063,0.10121204,0.36503106,-0.2773273,0.20395827,-0.07110799,0.15767032,0.18103483,0.11291003,0.18566519,0.0707502,0.042648897,0.116791844,-0.20077574,-0.085650966,-0.22450735,-0.027216528,-0.21502152,0.25259754,-0.059091985,-0.042817645,0.18815324,0.18106636,0.20938176,0.025154635,0.31348118,0.23082319,0.051508926,0.015151683,0.47594672,0.24235159,0.14473462,-0.20865387,0.04339817,-0.0827111
R_w2v_test_43,-0.029230561,0.12156642,-0.021084027,0.11084945,0.08393645,-0.3579539,0.20095529,0.49934053,-0.17706789,-0.07540788,-0.09275063,-0.18393566,-0.056149874,0.086994365,0.10828691,-0.17465958,0.15323378,-0.14429113,-0.0969574,-0.4271095,0.21547149,0.036268435,0.17051943,-0.05978368,-0.10765719,0.029256197,-0.07444189,-0.019606428,-0.1510641,0.027338702,0.18250395,-0.0724167,0.14718327,-0.25368795,-0.05756033,0.3096708,0.07868846,-0.09484933,-0.16317602,-0.27832034,-0.059129033,-0.19380674,-0.12139888,0.070377626,0.21936269,-0.028190173,-0.1573507,-0.02687475,0.15973175,0.1494671,0.11609756,-0.05536008,-0.054916196,-0.09644145,-0.061601084,0.039818425,0.1800418,-0.035772614,-0.13282752,0.09195506,0.049824424,0.015210717,0.17434867,0.0027150442,-0.1696452,0.29527596,0.08740877,0.35139346,-0.25854313,0.1872192,-0.088021696,0.14267263,0.1772753,0.09396948,0.18356393,0.10149135,0.028397013,0.120554216,-0.17666931,-0.07163876,-0.18982965,-0.023489518,-0.21198466,0.23877159,-0.040165007,-0.0023190423,0.16399641,0.20749387,0.22985315,0.023338502,0.31745476,0.2187793,0.049651653,0.022821616,0.4732047,0.230768,0.16231279,-0.22795084,0.056987256,-0.09933236
R_w2v_test_44,-0.0314052,0.11862626,-0.011250723,0.10435919,0.056493137,-0.33308145,0.16361704,0.45573902,-0.14404969,-0.05867893,-0.085545555,-0.17849198,-0.06641456,0.07099816,0.0937235,-0.15938672,0.13503368,-0.15174752,-0.07897818,-0.37881252,0.20187572,0.058021147,0.1463106,-0.05339854,-0.09333862,0.046631817,-0.0888902,-0.05513426,-0.14580707,0.01644438,0.17083852,-0.046532836,0.1415539,-0.20346102,-0.08945311,0.2593554,0.044198934,-0.1003758,-0.16198826,-0.28637522,-0.06115888,-0.17079616,-0.09941788,0.07152536,0.20508853,-0.016291454,-0.166336,-0.020251056,0.14593254,0.14734727,0.10382103,-0.05086989,-0.06425754,-0.09979491,-0.05125529,0.035008557,0.1748164,-0.03783719,-0.15380679,0.08008163,0.027414955,0.048195772,0.12338566,-0.012394524,-0.16709727,0.25910008,0.06715571,0.29838392,-0.22972895,0.16350597,-0.09992005,0.12630887,0.17138174,0.04512774,0.18341467,0.10089434,0.017967554,0.09951982,-0.16794877,-0.09273195,-0.13005514,-0.025477326,-0.17494233,0.23436286,-0.015654964,0.035462495,0.117442444,0.1949748,0.19538781,-0.00056400895,0.3189027,0.19570336,0.050936442,0.03159181,0.45203924,0.21062739,0.15413766,-0.21228981,0.058783643,-0.07944763
R_w2v_test_45,-0.03900091,0.13123466,-0.021265248,0.11143127,0.06425947,-0.2991105,0.17603937,0.4353686,-0.14979225,-0.07653983,-0.09017907,-0.18114309,-0.069933556,0.05382694,0.09752252,-0.14611644,0.12864478,-0.15478449,-0.09656743,-0.34226236,0.15925622,0.045323152,0.14428946,-0.048846174,-0.10178224,0.044149768,-0.09503135,-0.06554896,-0.14150326,0.015068856,0.15285368,-0.046251465,0.12287574,-0.21623652,-0.07535858,0.25162292,0.04350753,-0.09315784,-0.1431793,-0.26002905,-0.06892397,-0.17040604,-0.073650025,0.08582053,0.20000547,0.0005618767,-0.18062901,-0.012728028,0.12927517,0.146903,0.108051755,-0.048587054,-0.058207702,-0.10285312,-0.06969871,0.038374208,0.16062899,-0.023689443,-0.16123272,0.08011746,0.0388061,0.047346164,0.11986989,-0.0002515493,-0.14788257,0.22136028,0.048466712,0.308082,-0.20851533,0.14811385,-0.09186739,0.11626768,0.16163163,0.035351492,0.16846682,0.09344888,0.012100796,0.10352074,-0.13782822,-0.0927119,-0.12310989,-0.024509167,-0.1698344,0.21236211,-0.023718648,0.04675674,0.12653518,0.1923103,0.19867094,0.0072061536,0.3006176,0.1851612,0.05066159,0.03341528,0.41928303,0.200913,0.15488751,-0.21078604,0.054619476,-0.094593585
R_w2v_test_46,-0.03608081,0.13942684,0.00325801,0.08866458,0.04688922,-0.29033235,0.15890744,0.431197,-0.14285882,-0.05140089,-0.088328615,-0.17291465,-0.079761885,0.051022362,0.06905347,-0.14294805,0.12586172,-0.14297254,-0.071697064,-0.34445205,0.16081348,0.05876534,0.121763065,-0.04917442,-0.095263585,0.05286507,-0.116703175,-0.06821908,-0.14502063,0.022508664,0.15425743,-0.03451719,0.13720417,-0.19769661,-0.081705555,0.2409271,0.03140054,-0.07234295,-0.14841637,-0.26848418,-0.07086996,-0.18148719,-0.09190099,0.094934694,0.19173764,-0.026554715,-0.15067242,-0.024897572,0.12266867,0.14888436,0.10424212,-0.03392187,-0.048997674,-0.07389005,-0.07103028,0.044031344,0.16274986,-0.038089257,-0.1534859,0.08396829,0.035069626,0.041813664,0.090852514,-0.0062196543,-0.15951997,0.20772517,0.06649758,0.27150235,-0.19379745,0.15029767,-0.101009406,0.10235437,0.15746321,0.025392104,0.17462191,0.11176822,0.009526597,0.103680216,-0.13634272,-0.080785945,-0.1072693,-0.028411472,-0.15909651,0.19474865,-0.02843601,0.047816277,0.101065956,0.1832993,0.2011226,-0.007177563,0.29532045,0.17136064,0.05735411,0.018858738,0.41666132,0.17220521,0.14881894,-0.187718,0.044304855,-0.06338312
R_w2v_test_47,-0.04251148,0.12861279,0.0003301944,0.07399628,0.03801828,-0.25875604,0.12744264,0.37596062,-0.12391013,-0.042435937,-0.08200253,-0.15413125,-0.06484002,0.043033548,0.07398202,-0.13213333,0.098681435,-0.14067052,-0.056572426,-0.30601344,0.15037276,0.06197551,0.10311464,-0.044553965,-0.08936437,0.052410934,-0.09594733,-0.070742555,-0.12717214,0.020781184,0.14922129,-0.021463038,0.11535705,-0.15850265,-0.07937246,0.21198872,0.01782264,-0.077670924,-0.13836265,-0.25325322,-0.0561347,-0.15621552,-0.06650887,0.08348709,0.17510335,-0.020143775,-0.14694858,-0.011464345,0.10791295,0.12909274,0.095646255,-0.027629767,-0.057086658,-0.0768108,-0.057100143,0.04110722,0.15116228,-0.031624984,-0.15318987,0.055819485,0.024816433,0.06492235,0.06384329,-0.012661864,-0.14368172,0.18610927,0.05469326,0.22918904,-0.16982368,0.13310501,-0.09873676,0.08585991,0.14458273,0.017613338,0.15205677,0.10394522,0.002749734,0.07970389,-0.11826657,-0.07535798,-0.07832677,-0.022739861,-0.1317966,0.18122375,-0.0042960052,0.06433195,0.06962288,0.17972694,0.17745101,-0.0063066557,0.27295905,0.15493383,0.045776937,0.027604094,0.36986163,0.16216083,0.14094894,-0.18530825,0.059435774,-0.06216824
R_w2v_test_48,-0.050668553,0.18779264,-0.009824493,0.14887607,0.056792185,-0.29941544,0.2033684,0.48083317,-0.17669047,-0.103742905,-0.11853174,-0.23490535,-0.11665007,0.030345073,0.10929829,-0.154211,0.12049755,-0.21565908,-0.12977766,-0.35346428,0.12688217,0.06618032,0.14694966,-0.06516641,-0.13102576,0.06387529,-0.17848004,-0.16608633,-0.18628469,0.0077601173,0.14431056,-0.023505788,0.15406051,-0.24400122,-0.107425876,0.25633848,-0.013302009,-0.088137425,-0.151155,-0.3117134,-0.08244137,-0.21733302,-0.024592318,0.15194298,0.2339047,0.03648581,-0.2616228,-0.006034073,0.124947704,0.21069048,0.1349397,-0.05301307,-0.063239604,-0.11806473,-0.09741482,0.044300117,0.17190304,-0.012279512,-0.25415662,0.10129847,0.046376154,0.10101272,0.058411308,-0.01517811,-0.17868803,0.16511838,0.034684718,0.34112304,-0.19422467,0.15872973,-0.13743278,0.1061797,0.19847146,-0.045061033,0.20927827,0.10575848,-0.010026359,0.12461332,-0.09987535,-0.15075758,-0.059318688,-0.030293915,-0.18200675,0.23754066,-0.016796654,0.14162584,0.09441627,0.23474306,0.23859201,-0.009377046,0.384035,0.18194655,0.06478441,0.06547862,0.46605742,0.20988768,0.17744285,-0.24485551,0.05689401,-0.11805025
R_w2v_test_49,-0.035661668,0.13983518,-0.0050106635,0.11719063,0.056286633,-0.30289307,0.17199299,0.43950972,-0.1541397,-0.065226346,-0.103467666,-0.20217244,-0.08176385,0.045725726,0.10162758,-0.14530724,0.118292436,-0.17772861,-0.09222257,-0.35314843,0.16564757,0.06522768,0.13269436,-0.053735197,-0.101547256,0.054289714,-0.12790646,-0.09803978,-0.16148642,0.013362146,0.15340024,-0.03129103,0.14125031,-0.20718704,-0.10060076,0.2442792,0.013929387,-0.085532755,-0.14879338,-0.28667068,-0.056523297,-0.19390315,-0.07083084,0.10306137,0.2115812,0.0018707,-0.19432181,-0.020302286,0.12733613,0.16804188,0.11034289,-0.050575443,-0.06777622,-0.099673904,-0.06465505,0.042808104,0.16588262,-0.027074218,-0.19113557,0.08541058,0.035626218,0.07083941,0.08787935,-0.019376084,-0.18060984,0.21375386,0.060369458,0.30047196,-0.2007568,0.16502924,-0.1159933,0.10933687,0.1797007,0.0016656683,0.19167787,0.09691964,0.005921186,0.10440358,-0.12191708,-0.11682747,-0.0960823,-0.02618898,-0.16974886,0.22572473,-0.0100436555,0.08604655,0.09337725,0.20738217,0.21049103,-0.016519563,0.33233967,0.17533661,0.061002202,0.046047404,0.43298137,0.19586627,0.163605,-0.21344031,0.048592463,-0.0966151
R_w2v_test_50,-0.05168501,0.14027299,-0.0051502637,0.08607559,0.049378816,-0.29075786,0.15040608,0.41772285,-0.13995706,-0.055758912,-0.090472005,-0.17719324,-0.07220024,0.05055476,0.081776686,-0.14476715,0.11716666,-0.15840337,-0.073980734,-0.3382114,0.16979377,0.05812832,0.11715783,-0.044583466,-0.09838981,0.049618334,-0.0968174,-0.074544586,-0.13640705,0.022015596,0.17208384,-0.029694578,0.12250216,-0.17899868,-0.08570429,0.2405306,0.02297501,-0.10008953,-0.15237416,-0.28337058,-0.066246584,-0.16978703,-0.06907885,0.09714108,0.19435489,-0.0058317343,-0.1672659,-0.0065565514,0.11889928,0.14532396,0.10568894,-0.04042069,-0.057300217,-0.08875621,-0.06480535,0.043736212,0.15634796,-0.033206955,-0.1689872,0.06807902,0.027500825,0.06717913,0.07506817,-0.01808309,-0.15709451,0.2063827,0.06359522,0.2722996,-0.1892033,0.14835373,-0.11057265,0.11006611,0.1639626,0.013667776,0.16791017,0.11671724,0.00568369,0.08978062,-0.1335546,-0.08657789,-0.09699089,-0.021314383,-0.15380013,0.20559527,-0.006309497,0.06428836,0.08004253,0.19460323,0.19268166,-0.002653415,0.30076233,0.174454,0.050495796,0.024796864,0.41006866,0.18782616,0.1609646,-0.2151211,0.068130665,-0.06732275
R_w2v_test_51,-0.034434494,0.119124986,-0.014623357,0.089356795,0.068019696,-0.32647422,0.16311699,0.44951874,-0.14003341,-0.058693916,-0.092712894,-0.1833738,-0.06069215,0.06180435,0.092748836,-0.16233137,0.13907892,-0.15330523,-0.0742145,-0.37348416,0.20016211,0.059939884,0.15017267,-0.05834283,-0.09611726,0.05231867,-0.07572287,-0.043747783,-0.14512604,0.021464244,0.17988181,-0.041282628,0.13188286,-0.2047706,-0.09099145,0.26569268,0.05250244,-0.10270192,-0.16166121,-0.28288522,-0.06056132,-0.17174125,-0.09147549,0.06640462,0.2085397,-0.018143933,-0.15942498,-0.022296978,0.143224,0.141203,0.11158388,-0.05152628,-0.06300261,-0.104834266,-0.052886926,0.042550914,0.17484987,-0.030769022,-0.14781964,0.070782825,0.032246992,0.043878786,0.12580392,-0.0118620545,-0.16254507,0.26106778,0.06614845,0.2987202,-0.2281979,0.16413036,-0.10242126,0.1228429,0.1711123,0.057229605,0.17540024,0.09733597,0.021902582,0.095937565,-0.16010523,-0.084355354,-0.14843656,-0.015058412,-0.18510689,0.22782652,-0.008290103,0.026664814,0.12707904,0.21007724,0.20213798,0.006318038,0.31278098,0.19774315,0.05076635,0.029793946,0.44298416,0.21544822,0.1648836,-0.21365818,0.0611921,-0.090779334
R_w2v_test_52,-0.027658397,0.08029519,-0.036352254,0.10516509,0.06402414,-0.3408683,0.16304547,0.43913373,-0.14063115,-0.051527273,-0.08197445,-0.16245216,-0.055700906,0.09494943,0.1280068,-0.15874499,0.12818947,-0.1312678,-0.080345295,-0.3922581,0.22165179,0.047693245,0.15857227,-0.047452357,-0.080994524,0.033765953,-0.05519662,-0.022856537,-0.13921754,0.013788147,0.18621796,-0.060219787,0.14340253,-0.20439157,-0.076663926,0.26918155,0.050346084,-0.11361208,-0.16353743,-0.27318382,-0.045382768,-0.15878248,-0.0946524,0.050502766,0.20020473,-0.010849429,-0.15749402,-0.021853212,0.13985771,0.12486573,0.10763936,-0.06130899,-0.064412914,-0.10239947,-0.030313367,0.032725696,0.16094485,-0.034745216,-0.12929162,0.07173983,0.020852719,0.03614981,0.15145782,-0.015869156,-0.17237914,0.28059283,0.0769558,0.3094376,-0.24073112,0.17307773,-0.099993125,0.13579004,0.17228322,0.06779553,0.18028006,0.08336569,0.0217924,0.10571961,-0.18057346,-0.08751328,-0.15267566,-0.03150191,-0.17697556,0.2543284,-0.007238012,0.029482266,0.13073209,0.18869653,0.18605706,0.009886162,0.3142344,0.20539391,0.039999127,0.02490728,0.43728882,0.22901824,0.14927527,-0.20762232,0.06033047,-0.07211177
R_w2v_test_53,-0.037158966,0.14004782,-0.0060400777,0.10487703,0.05992183,-0.33905008,0.1834195,0.48461956,-0.16006358,-0.060734678,-0.09460594,-0.18948682,-0.076566085,0.066230334,0.09335458,-0.16625544,0.14073068,-0.16021363,-0.08613779,-0.3949193,0.1953041,0.060902346,0.15109095,-0.052700907,-0.10761671,0.04663936,-0.1052037,-0.06170634,-0.15756397,0.023032468,0.17992176,-0.053702306,0.15259053,-0.22502288,-0.085612305,0.28094572,0.04754496,-0.09089206,-0.16374452,-0.299815,-0.071161166,-0.19136277,-0.1081396,0.0880958,0.21536823,-0.026813025,-0.17048652,-0.018310007,0.14658289,0.16212566,0.11398687,-0.046637513,-0.056003667,-0.093305305,-0.06687708,0.045649696,0.18517877,-0.04052376,-0.16250423,0.086608425,0.03658894,0.042741552,0.12805152,-0.00892251,-0.1822097,0.2592594,0.073815644,0.31939742,-0.23502298,0.17209044,-0.10704968,0.12680876,0.18181354,0.050769128,0.1863257,0.112733796,0.01153169,0.11466378,-0.16525349,-0.09061886,-0.138571,-0.030319044,-0.1881139,0.23288576,-0.02714594,0.035252064,0.125394,0.20741975,0.21971293,0.0011940558,0.32922807,0.20168936,0.05640318,0.021797739,0.4728414,0.2132701,0.16420236,-0.22042203,0.057079785,-0.085086
R_w2v_test_54,-0.036264,0.13598675,-0.0074143573,0.09258378,0.057753712,-0.31496468,0.1593608,0.443435,-0.14355858,-0.05951443,-0.09029822,-0.18343584,-0.06854351,0.05496901,0.08893841,-0.15339652,0.13326061,-0.15770303,-0.07644171,-0.36451566,0.18791975,0.065373614,0.14044997,-0.056612685,-0.10005933,0.054219574,-0.09748468,-0.06464254,-0.1442573,0.020058237,0.17116751,-0.040408965,0.13352063,-0.19909203,-0.08889659,0.25885174,0.041882247,-0.08994647,-0.15870424,-0.28524157,-0.06274131,-0.17823657,-0.0896245,0.08134233,0.20356925,-0.016480245,-0.1593023,-0.019532604,0.13892576,0.14862369,0.110833265,-0.040987495,-0.060955882,-0.09711485,-0.064822786,0.043439038,0.17584325,-0.03555659,-0.15959759,0.07322816,0.03104538,0.053443126,0.108888194,-0.0075441548,-0.16174461,0.24075516,0.068321526,0.28990737,-0.21602036,0.1600102,-0.106219955,0.111995295,0.16835208,0.043104216,0.17322023,0.1067221,0.014658986,0.09876839,-0.15245155,-0.08714134,-0.12724543,-0.02467155,-0.16955623,0.21614362,-0.014098238,0.042331688,0.11173505,0.20258395,0.20185064,-0.0014139778,0.3102654,0.18781893,0.052246604,0.028204598,0.43768483,0.20055082,0.16068505,-0.20865646,0.05571882,-0.081832476
R_w2v_test_55,-0.027350197,0.09705023,-0.027267579,0.09376892,0.07039827,-0.30849653,0.16118029,0.41773695,-0.13130315,-0.054207243,-0.08181111,-0.16109245,-0.054326802,0.06784416,0.10638938,-0.14205508,0.12408225,-0.13521495,-0.0728496,-0.35418153,0.18718883,0.05338428,0.14423275,-0.055714436,-0.08336117,0.043322124,-0.066436484,-0.037222136,-0.12996304,0.020601083,0.16704199,-0.053686928,0.12357299,-0.1916049,-0.08037773,0.24858041,0.041792307,-0.09684455,-0.14616162,-0.2557819,-0.04142987,-0.1592817,-0.094891414,0.05380392,0.19739781,-0.0142812,-0.14448297,-0.025307441,0.13653329,0.12503013,0.10440691,-0.059837103,-0.06851249,-0.09423418,-0.04242424,0.03831964,0.15797658,-0.030152747,-0.13270895,0.06932085,0.030309642,0.03751969,0.13586654,-0.011464966,-0.15999882,0.2563966,0.073540546,0.28990448,-0.21493343,0.16244103,-0.09073682,0.119978234,0.16230683,0.058386672,0.16553155,0.08394222,0.01818152,0.092050776,-0.15496431,-0.07988451,-0.13988748,-0.026763419,-0.17162995,0.22138405,-0.003158185,0.024362717,0.12359844,0.1837101,0.1866425,0.0027900487,0.28500113,0.18780805,0.05515508,0.029372385,0.41473168,0.2055326,0.15342243,-0.19669844,0.05321498,-0.07936899
R_w2v_test_56,-0.041850284,0.14416468,-0.0001829963,0.09433169,0.04952332,-0.3088926,0.16013682,0.4463076,-0.14593472,-0.054562457,-0.09591847,-0.18515672,-0.07169696,0.05042574,0.07949881,-0.15049484,0.12997214,-0.16616099,-0.073115535,-0.3651608,0.17982978,0.067503415,0.13165134,-0.051514603,-0.104513556,0.054534037,-0.108115464,-0.07433091,-0.14918976,0.024622811,0.17603008,-0.03585586,0.13732421,-0.19935235,-0.08963447,0.25619704,0.035614055,-0.0885478,-0.15846623,-0.29397842,-0.06972112,-0.185759,-0.08986417,0.09095167,0.20612717,-0.018102149,-0.1660309,-0.013410093,0.13364124,0.15455925,0.11106266,-0.03644418,-0.060365725,-0.08988615,-0.0711241,0.050142,0.17774993,-0.039410535,-0.16989674,0.07548571,0.031607393,0.056972116,0.094101064,-0.008306951,-0.16369715,0.22878882,0.06495512,0.2865252,-0.20819977,0.15768975,-0.109203525,0.1089197,0.1724479,0.03607303,0.17448667,0.11313333,0.0085539585,0.100402795,-0.14307812,-0.08743053,-0.11606639,-0.025986664,-0.16918176,0.21218474,-0.014764628,0.052168515,0.10593612,0.2070544,0.20946425,-0.0054166922,0.31488955,0.18563393,0.04998507,0.030288855,0.43735427,0.19432825,0.15872657,-0.21141379,0.059595637,-0.078516446
R_w2v_test_57,-0.020017553,0.09059258,-0.019169502,0.088952474,0.05938514,-0.27801502,0.14116849,0.37817678,-0.12279389,-0.05406747,-0.06713052,-0.13755953,-0.05489921,0.0654203,0.090225354,-0.12632656,0.11421202,-0.111001536,-0.06802715,-0.3227188,0.16249186,0.03559474,0.12621833,-0.05230885,-0.07500018,0.024299074,-0.06127108,-0.017284274,-0.11972023,0.02391854,0.14703736,-0.05706302,0.11694276,-0.18632506,-0.050189823,0.23124415,0.051334597,-0.06566202,-0.12535691,-0.21700609,-0.044990774,-0.14995132,-0.099660635,0.04993339,0.16719851,-0.021501753,-0.11637567,-0.021450557,0.123817876,0.119574025,0.09151728,-0.052675195,-0.03997069,-0.065366775,-0.04416311,0.03434047,0.14170566,-0.026756033,-0.11116643,0.06971769,0.025506683,0.020085052,0.121900275,-0.008726379,-0.14331584,0.22581157,0.07811062,0.2611888,-0.19468805,0.1500248,-0.075412825,0.10305704,0.1474329,0.05966264,0.13796878,0.07104911,0.012844791,0.08731814,-0.13426533,-0.0676685,-0.13857776,-0.024102734,-0.16076337,0.18288732,-0.019689556,0.00800743,0.11228001,0.151741,0.17596138,0.0124873165,0.24248512,0.1634524,0.042697728,0.012953169,0.35722527,0.17005832,0.12360952,-0.16369705,0.0418624,-0.06700291
R_w2v_test_58,-0.03916613,0.13003846,-0.016546307,0.1001732,0.059794523,-0.31167084,0.17186424,0.44703266,-0.14846067,-0.06731724,-0.091563284,-0.18063919,-0.068536505,0.05754733,0.09945987,-0.15493074,0.12939133,-0.15766819,-0.086648785,-0.36151007,0.17624418,0.053830188,0.14603068,-0.052869488,-0.10603472,0.048013594,-0.093068615,-0.065229736,-0.14233406,0.018851591,0.16916934,-0.04359684,0.13056679,-0.20958683,-0.07958396,0.2573872,0.039428562,-0.09988339,-0.15462503,-0.27732295,-0.06401759,-0.17584263,-0.07714224,0.08265752,0.20567337,-0.00801858,-0.17131491,-0.014074172,0.13497172,0.14910908,0.11345856,-0.047314864,-0.060262393,-0.09962981,-0.065878294,0.042449415,0.16703436,-0.027456162,-0.16095556,0.075840354,0.03708469,0.051406454,0.11576314,-0.0071122223,-0.1589191,0.23425817,0.062890746,0.30278608,-0.21668772,0.15846132,-0.10057734,0.11751919,0.16403185,0.03730042,0.17742606,0.10134748,0.012923291,0.104171105,-0.14652793,-0.089692034,-0.12579949,-0.02550562,-0.17264485,0.22365321,-0.014192149,0.049608327,0.11684127,0.20279238,0.20313226,0.0071542347,0.3107467,0.18756144,0.05053008,0.030916126,0.43552026,0.2035624,0.16221002,-0.21887393,0.05959371,-0.08802302
R_w2v_test_59,-0.057913266,0.14695045,-0.008473098,0.11045216,0.10032799,-0.32799894,0.22476837,0.50620544,-0.17983985,-0.10562649,-0.09986754,-0.20371065,-0.033081163,0.06342663,0.06729768,-0.18440917,0.18300463,-0.16948257,-0.12334742,-0.412359,0.17874385,0.0422216,0.20878688,-0.047349717,-0.15057653,0.037818514,-0.044935517,0.010731351,-0.13663852,0.042223502,0.17180976,-0.055626567,0.12037301,-0.28915834,-0.02919494,0.32704338,0.13591528,-0.12607446,-0.16059825,-0.24862996,-0.071851626,-0.19194907,-0.102765486,0.07028352,0.2367276,-0.016278485,-0.1538584,-0.012892989,0.17355283,0.13354862,0.10842313,-0.046432093,-0.029050566,-0.11471766,-0.11549906,0.048358366,0.180408,-0.016747352,-0.09292672,0.09452547,0.08032784,-0.015372082,0.19703114,0.038814396,-0.11160676,0.26573968,0.049733605,0.38456884,-0.27986616,0.16491647,-0.056705274,0.14414728,0.15464687,0.13341661,0.15001145,0.09962271,0.03249898,0.10498613,-0.16942991,-0.04770207,-0.23686017,0.0015074023,-0.23286533,0.20953476,-0.062367722,-0.04063896,0.21002798,0.23867194,0.2558692,0.06399325,0.28186685,0.22052433,0.023516193,0.019682076,0.45362312,0.23492847,0.1892,-0.2592021,0.07025087,-0.14186695
R_w2v_test_60,-0.030720042,0.14381565,-0.0058408473,0.10033734,0.06819312,-0.33379206,0.17526974,0.4813894,-0.14728712,-0.06113908,-0.09584016,-0.19772506,-0.07100351,0.056982253,0.08722977,-0.16629472,0.14364374,-0.1622471,-0.075900204,-0.3844152,0.1956899,0.070137285,0.14159976,-0.06202003,-0.10580631,0.060369566,-0.10303126,-0.06803384,-0.15907262,0.023848293,0.18487412,-0.045266185,0.1442659,-0.20948546,-0.10142788,0.270453,0.04992995,-0.089844145,-0.16744107,-0.30296624,-0.06394422,-0.1971495,-0.10121881,0.09052387,0.22212818,-0.024845678,-0.16983952,-0.027768182,0.15107283,0.16024384,0.119301215,-0.051470287,-0.06814774,-0.109598,-0.065731175,0.053366385,0.19474378,-0.04280746,-0.16630457,0.07683708,0.03590783,0.056820907,0.11902878,-0.009629075,-0.18476073,0.2624435,0.06978807,0.30074725,-0.22529507,0.16966885,-0.11475326,0.111062765,0.18375674,0.046319135,0.19180065,0.11435297,0.020533536,0.11051275,-0.15537718,-0.09719687,-0.13971819,-0.02165299,-0.18753411,0.22403878,-0.00847897,0.046651118,0.12117,0.21628362,0.21640672,-0.011800628,0.33303997,0.19410688,0.063445054,0.03776095,0.47460732,0.20332243,0.17581207,-0.21676587,0.051847454,-0.0932
R_w2v_test_61,-0.04092986,0.15558517,0.0032689432,0.08887544,0.0586757,-0.32658723,0.17745431,0.4747209,-0.15726712,-0.055268545,-0.096216336,-0.18333009,-0.061845794,0.06131642,0.083668575,-0.1801322,0.13273796,-0.16699347,-0.06604187,-0.3977574,0.20238934,0.062986866,0.13350962,-0.053488754,-0.11562479,0.04275833,-0.10583994,-0.0675341,-0.1487346,0.037028015,0.18609415,-0.03727344,0.13991077,-0.21599114,-0.078545794,0.27067846,0.03829235,-0.09976795,-0.17424943,-0.31257373,-0.07258701,-0.2036073,-0.101024844,0.10467963,0.22314854,-0.028800596,-0.16530186,-0.0201747,0.14598852,0.16314927,0.12530817,-0.025527231,-0.06271006,-0.0926723,-0.061769202,0.05886808,0.18161075,-0.043691497,-0.16890341,0.07814033,0.032888565,0.058769338,0.097417414,-0.0044764294,-0.17671913,0.24528246,0.0690964,0.2862682,-0.22719602,0.15785624,-0.1128361,0.113033205,0.18508574,0.052907974,0.18347895,0.12880448,0.014415132,0.103864565,-0.15776539,-0.073662624,-0.12948109,-0.021032099,-0.17517929,0.22694278,-0.018915359,0.053602688,0.111507274,0.22566295,0.23376065,0.0076677343,0.32844153,0.1994608,0.05404281,0.023237705,0.45945022,0.19917682,0.16829132,-0.2282882,0.07259764,-0.09099033
R_w2v_test_62,-0.03978692,0.12808134,-0.013050064,0.10001793,0.056645203,-0.32857046,0.1607412,0.46623865,-0.14805764,-0.05108833,-0.0942552,-0.18298751,-0.07537986,0.071558736,0.098763496,-0.1616556,0.13021256,-0.1540335,-0.07109803,-0.3882241,0.19878368,0.061599005,0.14086394,-0.055502277,-0.09802695,0.046458784,-0.10243225,-0.055371787,-0.15803708,0.022217609,0.18139298,-0.04503401,0.1466534,-0.20642191,-0.08852777,0.26923123,0.043707192,-0.0910675,-0.16856433,-0.2923312,-0.059074912,-0.18721662,-0.09881615,0.08625722,0.21415526,-0.020186506,-0.16489987,-0.018177139,0.13948768,0.15112816,0.120907374,-0.04414779,-0.06371581,-0.090171985,-0.056745395,0.052283775,0.18121904,-0.040716942,-0.15744545,0.07351871,0.031578284,0.0557157,0.1066742,-0.0135471085,-0.18261343,0.24858122,0.07849073,0.30134568,-0.22194105,0.17630947,-0.11117837,0.11474251,0.1810801,0.04538391,0.18320592,0.107848026,0.01306406,0.107661,-0.15438907,-0.091742896,-0.13314964,-0.030131629,-0.1783399,0.23182774,-0.011629867,0.054473832,0.10718607,0.21062608,0.21965474,-0.0014277203,0.3316543,0.19665797,0.053813275,0.02646725,0.4519631,0.20514703,0.16330834,-0.20884405,0.05776034,-0.07614686
R_w2v_test_63,-0.017293869,0.14489432,0.009852801,0.08355109,0.056197364,-0.31064236,0.14802836,0.44871005,-0.1244177,-0.0552284,-0.088628866,-0.1965869,-0.085540175,0.036560062,0.07592064,-0.14514601,0.13914949,-0.16138665,-0.062562205,-0.35477105,0.1853572,0.08899954,0.12105036,-0.06433968,-0.096281864,0.07910346,-0.12288392,-0.09099901,-0.15364547,0.018122492,0.16300763,-0.029263495,0.14254089,-0.1809619,-0.12463511,0.23578905,0.02054166,-0.07992018,-0.16302091,-0.3001026,-0.060329426,-0.18776463,-0.08202726,0.09347725,0.21116464,-0.020964881,-0.16807537,-0.03232955,0.13174266,0.16411865,0.11439732,-0.03869759,-0.06742027,-0.098415665,-0.07354185,0.042724732,0.18949215,-0.03918622,-0.18530434,0.07317655,0.020798951,0.06569032,0.08405638,-0.014715292,-0.18140464,0.23968464,0.063264005,0.26003778,-0.1978271,0.14813222,-0.13460803,0.09422054,0.18209852,0.010469678,0.18658268,0.10726154,0.014803953,0.10622791,-0.14268897,-0.09847594,-0.09828747,-0.021477528,-0.16894013,0.20520933,0.0014096046,0.06669584,0.09402833,0.1937949,0.19555408,-0.038057987,0.32858455,0.17651427,0.073409595,0.03432744,0.45274976,0.18360233,0.15864776,-0.18919738,0.037430663,-0.06539849
R_w2v_test_64,-0.040186383,0.122704946,-0.011968743,0.084676504,0.05802318,-0.3257197,0.16217853,0.45924532,-0.14859372,-0.06466647,-0.095518865,-0.17880413,-0.06681533,0.06341643,0.09869582,-0.16659543,0.13033625,-0.15488447,-0.06959027,-0.38132557,0.19379441,0.057550006,0.15518889,-0.05459873,-0.10883229,0.046682563,-0.08403341,-0.046379883,-0.14694908,0.027837744,0.18438505,-0.048934694,0.13728411,-0.21977408,-0.07676988,0.27575812,0.05828076,-0.0950731,-0.15974718,-0.27786955,-0.058161423,-0.17949885,-0.08884959,0.075371034,0.21135837,-0.023165645,-0.16014494,-0.014999302,0.13915366,0.14121914,0.11192539,-0.04642937,-0.053198792,-0.09383795,-0.06442801,0.052660316,0.1680761,-0.038277112,-0.14468029,0.07065049,0.03889301,0.04289454,0.12298216,-0.008491988,-0.16627164,0.25174838,0.064752795,0.30240342,-0.22430754,0.16893983,-0.10257852,0.121387124,0.17295437,0.06718547,0.17796041,0.109524,0.013536657,0.10101169,-0.15336809,-0.07544673,-0.13643235,-0.017990146,-0.17755815,0.22239365,-0.015966535,0.038730238,0.12210454,0.21986343,0.21092603,0.011372679,0.32507515,0.19960535,0.042942807,0.021621186,0.4383517,0.21359259,0.16957694,-0.22142336,0.06522623,-0.09669355
R_w2v_test_65,-0.039635953,0.13754901,-0.010278786,0.10911114,0.07926461,-0.34255365,0.20392689,0.497243,-0.17249978,-0.08429109,-0.09132306,-0.18766943,-0.052685484,0.074348316,0.08853916,-0.1746409,0.15864557,-0.1541327,-0.100317836,-0.41207126,0.19833353,0.040848378,0.17999388,-0.053622153,-0.12230946,0.030111594,-0.0729083,-0.018168457,-0.14540093,0.034283623,0.17459272,-0.061822176,0.14251634,-0.25801867,-0.052781887,0.30734065,0.08894634,-0.09864059,-0.16239195,-0.27020195,-0.06343141,-0.19195658,-0.10994213,0.07272542,0.22218278,-0.03003084,-0.15512511,-0.022610998,0.16257554,0.14976372,0.11249086,-0.04761976,-0.044183116,-0.101261586,-0.07580536,0.04858136,0.17914982,-0.0315191,-0.12535785,0.09266193,0.058415696,0.011960294,0.16421002,0.009074761,-0.15544821,0.27250227,0.072047815,0.34616366,-0.2571792,0.17202276,-0.077801995,0.13470389,0.17198022,0.098958425,0.17596225,0.10184395,0.026819076,0.115241185,-0.1692688,-0.06543935,-0.19235642,-0.013076087,-0.20798348,0.21952724,-0.04323117,-0.004981058,0.1678071,0.21550874,0.23897035,0.03315225,0.30819014,0.21197052,0.04284197,0.022396492,0.46345472,0.2196712,0.1670544,-0.23491234,0.060042474,-0.109907836
R_w2v_test_66,-0.03731823,0.11328897,-0.0052795317,0.08523171,0.066685274,-0.270143,0.16868319,0.40139735,-0.13996369,-0.07806334,-0.07930087,-0.15964085,-0.038610533,0.055298075,0.06620553,-0.14135873,0.12814224,-0.12928231,-0.08676274,-0.3343323,0.14958745,0.031867117,0.15428501,-0.041591324,-0.11095909,0.028533604,-0.0513943,-0.013581034,-0.11768382,0.03374297,0.14451423,-0.05148085,0.11041103,-0.21630986,-0.038302667,0.25428215,0.0851649,-0.07968351,-0.12596437,-0.21447492,-0.04858316,-0.15575391,-0.09062642,0.057552993,0.18164454,-0.019365288,-0.123989,-0.00922771,0.1307962,0.11835974,0.08676621,-0.04240913,-0.031075887,-0.08335699,-0.07466335,0.03802006,0.13937609,-0.024424216,-0.09622052,0.07071753,0.051387336,0.0059505133,0.14149565,0.012047872,-0.11421989,0.21468554,0.050205745,0.28770462,-0.21028337,0.13498297,-0.060318485,0.1127961,0.13488954,0.091910765,0.13501985,0.086746484,0.017362854,0.08259827,-0.13438833,-0.047378168,-0.15582763,-0.011567418,-0.16979355,0.17438437,-0.042484876,-0.016329667,0.14810064,0.18292111,0.19272827,0.03278895,0.24882627,0.17571802,0.022057584,0.023352036,0.36828992,0.18298389,0.14203337,-0.19778746,0.05656823,-0.10360488
R_w2v_test_67,-0.042078745,0.116899885,-0.023770442,0.10002274,0.06512702,-0.31984225,0.17068283,0.4554393,-0.15073274,-0.0629134,-0.09090999,-0.17763713,-0.061938576,0.07658377,0.09716883,-0.16274793,0.13446982,-0.15116689,-0.08615466,-0.38534436,0.19803914,0.04826586,0.15315565,-0.045247838,-0.09817816,0.0387779,-0.07434173,-0.047265567,-0.14184763,0.022885395,0.17923382,-0.050175305,0.1383982,-0.21912792,-0.06899213,0.27067953,0.058493745,-0.10731326,-0.15499128,-0.27726892,-0.06360578,-0.17155498,-0.09313895,0.071014434,0.20716688,-0.01337804,-0.16004615,-0.014008718,0.146815,0.14149076,0.10569914,-0.04972179,-0.055361446,-0.09858596,-0.058077466,0.042985875,0.16567017,-0.029826485,-0.14426562,0.078059465,0.036889777,0.036411338,0.13289987,-0.0057015023,-0.15929726,0.25309703,0.06740395,0.30842406,-0.22925408,0.16920047,-0.090986,0.13078341,0.16451812,0.05673521,0.1712049,0.10023371,0.02101882,0.10153707,-0.16303548,-0.08099401,-0.14506711,-0.02996681,-0.17970018,0.2290117,-0.022588544,0.027237372,0.12737639,0.20175208,0.20635572,0.014900657,0.30426577,0.19840398,0.04367704,0.025299175,0.43862742,0.21421446,0.15866965,-0.22452495,0.066995144,-0.082547046
R_w2v_test_68,-0.036749374,0.12137084,-0.019371534,0.10394451,0.05474992,-0.32058114,0.16436318,0.44893795,-0.1442326,-0.061030667,-0.09190573,-0.18097684,-0.07375671,0.0669379,0.104220234,-0.15652032,0.12637454,-0.15656042,-0.081730425,-0.36680594,0.19070806,0.06046233,0.14618301,-0.052828215,-0.09544084,0.04788857,-0.09207182,-0.066587575,-0.14771917,0.015512133,0.17174762,-0.04246207,0.13892123,-0.20352836,-0.08951952,0.2563857,0.03291655,-0.10347712,-0.15967794,-0.2859853,-0.06139222,-0.17210817,-0.07970709,0.07963378,0.204796,-0.007974439,-0.1769816,-0.013246382,0.13474594,0.14852338,0.10937161,-0.050420716,-0.065762065,-0.10326768,-0.05288236,0.03845253,0.16701719,-0.03232557,-0.16358472,0.07441037,0.027790347,0.05553203,0.11139076,-0.014640493,-0.17049831,0.24265139,0.065831624,0.29859686,-0.21948262,0.16483499,-0.10795419,0.11911663,0.1702246,0.031357583,0.18307917,0.10098379,0.01505682,0.10324309,-0.1525094,-0.09699193,-0.117209844,-0.028088994,-0.169797,0.23245911,-0.009472247,0.053942405,0.109633826,0.19822495,0.19757715,-0.000487397,0.32206112,0.18948908,0.05189249,0.031199977,0.4408637,0.2091702,0.15948132,-0.21702918,0.059050128,-0.08254721
R_w2v_test_69,-0.03661526,0.12235233,-0.013145456,0.09262807,0.058633924,-0.32017538,0.16277644,0.4457879,-0.13782729,-0.05550532,-0.087965265,-0.17780718,-0.065967835,0.061924417,0.09190975,-0.1550401,0.12888995,-0.15739052,-0.076887086,-0.37025723,0.19003932,0.058063805,0.1436726,-0.05351327,-0.09886129,0.04809231,-0.09027037,-0.0563456,-0.1429173,0.02110474,0.17446576,-0.043357514,0.13543057,-0.20079842,-0.08336099,0.25068647,0.041115962,-0.107088834,-0.15766484,-0.28238127,-0.059434015,-0.16755682,-0.0884068,0.073358245,0.2052965,-0.017182361,-0.16427988,-0.014357901,0.13597552,0.14913829,0.11209454,-0.0455655,-0.0637337,-0.09169376,-0.06087087,0.041407272,0.17228493,-0.03339874,-0.15287738,0.07380554,0.03282145,0.051442225,0.115993075,-0.009887289,-0.16287163,0.24575543,0.06547672,0.29210827,-0.22162183,0.16078295,-0.10125799,0.122687526,0.16398078,0.037474003,0.17723857,0.103541985,0.014362906,0.097242884,-0.1581769,-0.091010325,-0.13076892,-0.02437192,-0.17154333,0.23360318,-0.013550872,0.04597614,0.11147252,0.20216955,0.19561125,0.0052283695,0.30776766,0.18432549,0.0539463,0.03129767,0.43886283,0.20419995,0.16389224,-0.21514592,0.06300227,-0.08125096
R_w2v_test_70,-0.032486938,0.10677352,-0.023145452,0.08811881,0.063462116,-0.346378,0.14738432,0.45458323,-0.12890151,-0.03955442,-0.09118777,-0.176002,-0.072928414,0.07271503,0.12447286,-0.16734993,0.12903628,-0.15008092,-0.06485438,-0.39157763,0.21955383,0.072927415,0.1451895,-0.0673161,-0.087713175,0.05818572,-0.089884795,-0.050128818,-0.15486576,0.020871479,0.19136892,-0.041103553,0.14552793,-0.18761352,-0.11292197,0.26083302,0.036142286,-0.09873985,-0.17940938,-0.30098653,-0.051600717,-0.17117634,-0.091741346,0.06615695,0.21140732,-0.018166672,-0.16326657,-0.022297813,0.14556825,0.14487574,0.124685906,-0.051414516,-0.07326564,-0.102201894,-0.037739586,0.05274902,0.18414176,-0.036400642,-0.16221926,0.06421704,0.015727913,0.066905916,0.10931689,-0.024965113,-0.19220556,0.2742079,0.08082908,0.29340163,-0.22960624,0.17760146,-0.12266796,0.11677306,0.18427585,0.04611468,0.18501718,0.10009364,0.017418547,0.10280475,-0.17061447,-0.10017401,-0.13059665,-0.021275517,-0.17960083,0.25213122,0.014253777,0.056573186,0.09862234,0.2157508,0.20610417,-0.008958879,0.34748527,0.20012999,0.06036088,0.02645649,0.4567327,0.22797458,0.16791424,-0.21228628,0.05775016,-0.07981822
R_w2v_test_71,-0.03247719,0.10309537,-0.013729954,0.08344526,0.05780903,-0.27819967,0.14802818,0.38779598,-0.12936541,-0.0548839,-0.075923264,-0.1567903,-0.05432579,0.058934465,0.08785796,-0.13480148,0.114472166,-0.13032527,-0.069119826,-0.32447758,0.17127906,0.044584602,0.12359592,-0.043404613,-0.08382856,0.04140723,-0.06270143,-0.042278808,-0.12038695,0.01564937,0.1553092,-0.04544898,0.1166467,-0.177223,-0.069726,0.22774841,0.04202953,-0.090793036,-0.13603663,-0.24157698,-0.049168177,-0.1452463,-0.07757181,0.058970913,0.17730461,-0.011116113,-0.14229512,-0.014162407,0.1208646,0.12663053,0.09134203,-0.048090108,-0.055369318,-0.0892572,-0.04897768,0.03148402,0.14309672,-0.0286544,-0.1319782,0.06392743,0.025188142,0.037896916,0.11375552,-0.009389889,-0.14269593,0.22351934,0.063298434,0.2652161,-0.19397815,0.14441922,-0.08522617,0.1109857,0.14593495,0.040629666,0.15296376,0.08946394,0.018030187,0.08503957,-0.14063779,-0.07361208,-0.11971199,-0.020916319,-0.15346064,0.19860756,-0.009444176,0.023444222,0.10442447,0.17197132,0.1680162,0.0068062455,0.2657484,0.16963379,0.045959715,0.024662891,0.38026035,0.18452127,0.13842738,-0.1898812,0.05665142,-0.068679556
R_w2v_test_72,-0.03192912,0.16391635,0.0077084457,0.088338785,0.058825076,-0.34174109,0.17300479,0.49452856,-0.16414584,-0.07244769,-0.09166462,-0.20494361,-0.0665026,0.05998145,0.08079243,-0.16904171,0.13332735,-0.16859849,-0.074371904,-0.40086794,0.19390087,0.06067987,0.15503861,-0.0632165,-0.120038174,0.06498065,-0.10850147,-0.07755622,-0.15966962,0.034671616,0.1769423,-0.033634044,0.14734952,-0.21705616,-0.08664783,0.28182012,0.049853902,-0.08574008,-0.16552757,-0.30802822,-0.07559142,-0.18855953,-0.09374049,0.11009884,0.22091334,-0.027059698,-0.16951072,-0.021476211,0.14549644,0.15916921,0.10068374,-0.042011637,-0.06428475,-0.10473511,-0.06948112,0.043523084,0.17466815,-0.044184428,-0.16260828,0.08681315,0.04007178,0.05583273,0.12296643,-0.002196841,-0.18618666,0.26353213,0.047510535,0.29908013,-0.22841592,0.16462664,-0.11456754,0.12294992,0.1819091,0.060524244,0.19335787,0.13493256,0.013039168,0.10111035,-0.15703171,-0.085433476,-0.11768257,-0.0014148528,-0.1816346,0.22499447,-0.030743495,0.043422308,0.12887923,0.23189054,0.23184152,-0.0006923464,0.33636665,0.20558923,0.044445094,0.035390843,0.47436514,0.20389365,0.18366814,-0.2348624,0.070107564,-0.10904426
R_w2v_test_73,-0.018167019,0.09452735,-0.03233136,0.12756991,0.086245514,-0.3801803,0.21035191,0.50466657,-0.17233256,-0.07628969,-0.08424652,-0.17864317,-0.053989805,0.10320985,0.117892906,-0.17167732,0.16258284,-0.12468126,-0.10977004,-0.4363648,0.23033378,0.027685305,0.18542735,-0.056586016,-0.09476515,0.016649192,-0.047591012,0.012287031,-0.15221947,0.02083737,0.18022195,-0.093569994,0.15733251,-0.2640677,-0.052450188,0.31925413,0.10209445,-0.09812395,-0.16061321,-0.26273298,-0.054691337,-0.1780214,-0.1476241,0.043942053,0.21031913,-0.025687238,-0.14996502,-0.028920945,0.17568283,0.1424407,0.0999749,-0.075343624,-0.04791031,-0.09664319,-0.046381064,0.028077563,0.17660184,-0.037437562,-0.109486245,0.102403,0.043335788,-0.0043535135,0.2132721,-0.0013895005,-0.17037638,0.32627672,0.096622705,0.37161666,-0.28037333,0.19780356,-0.06971024,0.16147418,0.17834415,0.110223904,0.18388759,0.083576605,0.04303994,0.11898581,-0.19908874,-0.0803234,-0.21711862,-0.026977042,-0.22074685,0.24968949,-0.052109815,-0.041223325,0.18618986,0.1899105,0.21512549,0.02940778,0.30910856,0.22986993,0.046801113,0.01896749,0.4760828,0.24280731,0.14708067,-0.2170409,0.050317965,-0.09250299
R_w2v_test_74,-0.039001085,0.13782027,-0.004893181,0.08892488,0.052169163,-0.30805337,0.15358114,0.4350791,-0.14140949,-0.050447278,-0.0844311,-0.17118345,-0.06471498,0.064361714,0.08914391,-0.14753053,0.11525372,-0.14705123,-0.06775653,-0.36088398,0.18434401,0.057103693,0.1278386,-0.043732356,-0.09950383,0.044844247,-0.100919634,-0.059118204,-0.13940425,0.02116882,0.16324152,-0.03810587,0.13150148,-0.1920423,-0.08066557,0.2456978,0.03942067,-0.09444544,-0.15609306,-0.27533418,-0.062174797,-0.17373812,-0.09540096,0.08185234,0.19381535,-0.02354851,-0.1566819,-0.013169898,0.13039267,0.14524823,0.10622553,-0.036054794,-0.061401397,-0.08172396,-0.055678915,0.04781314,0.16638222,-0.042138964,-0.1556485,0.07187676,0.027191008,0.05089998,0.094294906,-0.005960607,-0.15542702,0.2302777,0.06532738,0.2721702,-0.21066087,0.1562205,-0.10197259,0.109210484,0.16249855,0.03299094,0.16385981,0.112804055,0.0077053374,0.096848935,-0.15027313,-0.079386055,-0.11088427,-0.022262322,-0.15593377,0.21190092,-0.02181993,0.051347535,0.096759655,0.19404176,0.19736612,-0.004218482,0.30267224,0.17584042,0.047432214,0.02594026,0.42960644,0.1874415,0.15091555,-0.20603342,0.057757784,-0.0744047
R_w2v_test_75,-0.026188303,0.10696919,-0.026355797,0.11321779,0.08707269,-0.36179414,0.21951577,0.50412023,-0.18351445,-0.091313496,-0.0902993,-0.18533608,-0.048971392,0.09117686,0.10350921,-0.17279805,0.15705721,-0.1328535,-0.10906027,-0.43142954,0.20765105,0.020664591,0.1919997,-0.052644294,-0.1120193,0.01835207,-0.04359145,0.0046919114,-0.14554349,0.035089888,0.18213904,-0.09170331,0.14895263,-0.27921984,-0.037732348,0.33067423,0.11023875,-0.08891291,-0.14740868,-0.25390413,-0.050255053,-0.18664217,-0.13891175,0.05638645,0.21405335,-0.026798327,-0.15068248,-0.01980839,0.1660454,0.1379442,0.09857112,-0.07369305,-0.041942995,-0.095674135,-0.06381236,0.034175325,0.16547576,-0.038362265,-0.10682764,0.10071854,0.058944374,-0.011603503,0.21729045,0.007344985,-0.16153611,0.31040272,0.082091436,0.37022582,-0.27493215,0.18278416,-0.061960362,0.15664789,0.17170845,0.12880301,0.17620647,0.09479429,0.03755078,0.11264167,-0.18178146,-0.05732875,-0.20965156,-0.017513914,-0.21761358,0.23416786,-0.0611329,-0.046594452,0.19763593,0.20850405,0.22537467,0.040464517,0.3063675,0.23378205,0.03336862,0.023650162,0.46124658,0.24018443,0.16053689,-0.2317628,0.06239133,-0.113755964
R_w2v_test_76,-0.03213338,0.113451384,-0.018055962,0.10566748,0.055537384,-0.33566242,0.1684129,0.46008188,-0.14870837,-0.059255186,-0.087239034,-0.17301951,-0.06929319,0.07527164,0.10379797,-0.15879461,0.13810453,-0.14500049,-0.08086967,-0.39004594,0.20518525,0.05660026,0.15243587,-0.057686336,-0.09308219,0.03465113,-0.08433456,-0.03472169,-0.15109241,0.016466198,0.1772369,-0.058523063,0.14753066,-0.21387635,-0.075275786,0.274048,0.059489418,-0.09137894,-0.16329922,-0.27311954,-0.058760405,-0.17231895,-0.10712415,0.064411,0.2059113,-0.02391955,-0.15637669,-0.016726341,0.15119897,0.15061414,0.10862563,-0.049348183,-0.054647367,-0.08789984,-0.051059004,0.04444355,0.17276274,-0.03356473,-0.13575298,0.07650819,0.027894357,0.0394456,0.1381651,-0.008990911,-0.17323391,0.26027784,0.077041924,0.30705047,-0.23418568,0.17640223,-0.09529846,0.13187578,0.17448187,0.056231976,0.17575951,0.09329988,0.023500724,0.10261737,-0.16948764,-0.08646787,-0.14903148,-0.03354337,-0.1843386,0.23527218,-0.024942463,0.024431424,0.12206246,0.1964972,0.20476982,0.01495901,0.3139334,0.19909713,0.045509912,0.025281867,0.44774553,0.2127908,0.14963318,-0.20348838,0.055718593,-0.07713902
R_w2v_test_77,-0.031531848,0.108183905,-0.0026689307,0.064805135,0.051906805,-0.22010434,0.13079938,0.33191496,-0.110431574,-0.059153497,-0.058339745,-0.11637548,-0.041079737,0.037495293,0.05322171,-0.11330724,0.10439134,-0.1096352,-0.071435936,-0.25943586,0.12432569,0.032803196,0.123417735,-0.032944437,-0.089507006,0.029641047,-0.057344817,-0.0237489,-0.09608712,0.018391676,0.11107328,-0.036414348,0.08763141,-0.1709086,-0.035280548,0.20903644,0.06273414,-0.06878021,-0.107410766,-0.18096074,-0.05026089,-0.12835823,-0.06484531,0.054734074,0.1448455,-0.0144699095,-0.1045961,-0.018957503,0.09972544,0.0988885,0.07474396,-0.025565863,-0.040810585,-0.071416296,-0.06268366,0.027725581,0.12021792,-0.014957306,-0.088495836,0.056505255,0.038598306,0.0143620195,0.106621906,0.007823164,-0.0987143,0.17313516,0.043484204,0.22917306,-0.16438195,0.11137235,-0.0561664,0.08444547,0.1087933,0.057379503,0.11451028,0.06656026,0.011628989,0.08068921,-0.1091225,-0.039234344,-0.11482018,-0.005747573,-0.13210928,0.14542593,-0.031860616,0.00941317,0.10787924,0.14757872,0.14919975,0.011114876,0.19878751,0.1342129,0.03908187,0.008414756,0.30744225,0.14469585,0.118167296,-0.15532711,0.031171938,-0.07211842
R_w2v_test_78,-0.04143604,0.12681346,-0.0060250275,0.09066866,0.041433215,-0.24301335,0.13216183,0.36532015,-0.11890819,-0.056349576,-0.083031416,-0.15724275,-0.07244492,0.038551766,0.08070038,-0.12464502,0.09549497,-0.14727035,-0.075510964,-0.28333125,0.12979707,0.05615113,0.10746144,-0.04552997,-0.087850675,0.046624396,-0.105609655,-0.087815866,-0.12820238,0.0118590025,0.13360548,-0.022316892,0.10692477,-0.16100745,-0.082332656,0.19702418,0.006501748,-0.08236967,-0.124155916,-0.24451931,-0.06077545,-0.14702311,-0.04319385,0.09198302,0.17085615,0.0019096637,-0.1652838,-0.00078886806,0.10065812,0.13696218,0.09640431,-0.03553014,-0.054628927,-0.08332642,-0.06371112,0.039151516,0.141814,-0.022293862,-0.16440177,0.06088664,0.025048757,0.069332466,0.05229907,-0.010936925,-0.13614035,0.1592856,0.036880396,0.2388339,-0.15645483,0.12212218,-0.10193703,0.090621226,0.14682472,-0.0044167126,0.14915727,0.093714364,-0.0032551482,0.08475253,-0.10687695,-0.091612086,-0.063186735,-0.022860967,-0.12969323,0.18542613,-0.003047582,0.08472675,0.06712247,0.1708313,0.16559343,-0.005841947,0.27603334,0.14862737,0.04160907,0.032526508,0.3634743,0.16180834,0.13860774,-0.18494035,0.050313175,-0.06758855
R_w2v_test_79,-0.038236093,0.14621621,-0.011225457,0.10548824,0.07691132,-0.33991516,0.21052618,0.51145464,-0.18680209,-0.08481642,-0.100527585,-0.18679152,-0.06616119,0.07555512,0.08136639,-0.17654258,0.14756292,-0.14790465,-0.0979453,-0.42281976,0.18625201,0.03056197,0.17894949,-0.0529232,-0.12698099,0.02415671,-0.07902875,-0.024904525,-0.15768217,0.041931883,0.1798159,-0.07333617,0.15172166,-0.27688727,-0.03975454,0.3204899,0.0990602,-0.07218039,-0.15680707,-0.26842883,-0.061163846,-0.20738775,-0.12440994,0.08858702,0.22369535,-0.03580788,-0.1546881,-0.016336512,0.15710294,0.151236,0.10997051,-0.05402127,-0.03322162,-0.08876688,-0.081449404,0.05026974,0.16805132,-0.04527385,-0.12755124,0.09238585,0.06433632,0.0056951125,0.17366658,0.006988847,-0.16903941,0.2710044,0.075591184,0.3544513,-0.25430214,0.17855443,-0.08301651,0.1384978,0.17687611,0.113061704,0.1797748,0.11325828,0.021541225,0.11975824,-0.15689401,-0.05934791,-0.18422353,-0.015970057,-0.20922647,0.2066484,-0.059437916,-0.015790803,0.17466038,0.22201586,0.24141769,0.030456265,0.3220786,0.21905333,0.03251465,0.023075515,0.46308374,0.21549226,0.16975121,-0.23025085,0.06111409,-0.11648879
R_w2v_test_80,-0.045193776,0.12916419,-0.009487428,0.09342986,0.056934744,-0.30505964,0.15950021,0.43641874,-0.1410142,-0.058132384,-0.09038609,-0.17244126,-0.06056838,0.056484934,0.087342076,-0.15482466,0.12916432,-0.1553606,-0.07861266,-0.36383268,0.18157078,0.05796555,0.14259054,-0.046210796,-0.102983065,0.045799516,-0.08698865,-0.05228776,-0.13935927,0.024551751,0.16973859,-0.038239207,0.12975103,-0.19834092,-0.07769488,0.25167826,0.04555553,-0.10268974,-0.15598021,-0.27074102,-0.06408891,-0.16729638,-0.08450707,0.07678088,0.20125094,-0.014950538,-0.1549698,-0.0101454845,0.13497354,0.13990726,0.107286945,-0.0405513,-0.055776317,-0.0951621,-0.06525954,0.04330852,0.16536447,-0.031005349,-0.14826977,0.069939785,0.03398172,0.04708261,0.10859336,-0.005268534,-0.15527707,0.22901072,0.06435608,0.28730413,-0.21814181,0.15428393,-0.09609057,0.1166516,0.1582111,0.046141926,0.16350643,0.10538379,0.012672738,0.09517773,-0.15045281,-0.079957575,-0.12680472,-0.020956466,-0.16867562,0.2161357,-0.015665138,0.03903748,0.10811377,0.20330933,0.20091918,0.01244461,0.30011082,0.18162806,0.041772705,0.024401356,0.42448723,0.19697516,0.16132373,-0.2173354,0.06384439,-0.08216147
R_w2v_test_81,-0.042305015,0.1457752,-0.003344417,0.09143184,0.04864008,-0.30376667,0.15365066,0.43984142,-0.14796785,-0.054692306,-0.09488662,-0.17505641,-0.087136276,0.049364462,0.09005051,-0.14713785,0.12371174,-0.15785405,-0.068664014,-0.35671613,0.17542186,0.072628886,0.124220476,-0.052235782,-0.09461677,0.05850807,-0.12202315,-0.08587162,-0.15150909,0.021734668,0.1675248,-0.031279333,0.14412796,-0.19191416,-0.09371931,0.24465737,0.01932058,-0.08607235,-0.16063781,-0.29528382,-0.06853651,-0.18256287,-0.076828726,0.098016515,0.20307823,-0.02035524,-0.17007369,-0.015589411,0.12630075,0.1560699,0.114724174,-0.031335544,-0.06135255,-0.085667,-0.07047729,0.04539108,0.17281501,-0.033103794,-0.17352697,0.07160689,0.03101404,0.07110328,0.083170354,-0.014617713,-0.17168775,0.21772906,0.06263946,0.27977297,-0.19723627,0.15024836,-0.113989875,0.10632231,0.16904691,0.017938811,0.1822311,0.11249552,0.0021744727,0.10678734,-0.14409795,-0.09617449,-0.09535536,-0.033595897,-0.16278385,0.20909047,-0.007746587,0.06715623,0.09193407,0.2001526,0.20455441,-0.015161499,0.31843042,0.17894575,0.05321473,0.028212214,0.4355541,0.18554375,0.16109957,-0.21061268,0.053398468,-0.06825308
R_w2v_test_82,-0.028426,0.11930815,-0.020136507,0.12394396,0.067452155,-0.34998417,0.19559735,0.49463096,-0.16439244,-0.0760006,-0.09111213,-0.19184068,-0.07727757,0.07852839,0.09732865,-0.15886262,0.15152669,-0.15006329,-0.10095141,-0.41304612,0.20429747,0.048772987,0.16465525,-0.05625333,-0.09835627,0.03559704,-0.08775614,-0.044391453,-0.16800761,0.01828395,0.1760837,-0.06751018,0.16025151,-0.24346954,-0.06818044,0.29969376,0.06607469,-0.084787615,-0.15835541,-0.27742255,-0.058638018,-0.19265452,-0.12806451,0.07430962,0.21694714,-0.01883775,-0.17160052,-0.02156205,0.16603033,0.16177039,0.1081405,-0.061730966,-0.052774977,-0.08486885,-0.06548134,0.04013385,0.17462434,-0.045140423,-0.14638698,0.09690854,0.044200465,0.03002476,0.15876955,-0.0035228182,-0.17500125,0.2776198,0.081527814,0.34520847,-0.2477325,0.18829396,-0.09007026,0.14301358,0.18270364,0.056867223,0.18895935,0.088385224,0.034571327,0.111790866,-0.16934212,-0.0940982,-0.16801435,-0.036635023,-0.20410575,0.23698606,-0.044318102,0.0071361894,0.14210247,0.20117325,0.2222152,0.00865835,0.3262772,0.21215513,0.06119801,0.03237228,0.46731532,0.22261685,0.14986977,-0.2146795,0.05021548,-0.08303639
R_w2v_test_83,-0.030235229,0.13287112,-0.007962349,0.11715329,0.063016355,-0.34919542,0.18227191,0.49303365,-0.1612536,-0.06176712,-0.09385343,-0.19362374,-0.08572297,0.07722833,0.08559395,-0.15597323,0.14739715,-0.14975883,-0.08209128,-0.40898937,0.19980015,0.061478566,0.14848351,-0.06319191,-0.09728669,0.040926263,-0.11134337,-0.040622942,-0.16892241,0.021481456,0.18126751,-0.057629503,0.15727413,-0.22304122,-0.081837885,0.29676569,0.06764623,-0.06574818,-0.1614102,-0.28048307,-0.05636911,-0.2000721,-0.13051713,0.08427088,0.21680307,-0.026250986,-0.16235901,-0.028745616,0.157545,0.16158885,0.11377952,-0.044821534,-0.045492373,-0.07499107,-0.07057692,0.050856553,0.18812048,-0.04716625,-0.14548327,0.09163338,0.04044847,0.036230706,0.13417071,-0.01045189,-0.17863569,0.26032507,0.08859941,0.32288006,-0.23292683,0.18201122,-0.109458864,0.12327327,0.18386638,0.055486027,0.18784139,0.09964529,0.02510265,0.111720145,-0.15853427,-0.09166537,-0.15936205,-0.037581652,-0.20026511,0.22660151,-0.037405934,0.01793477,0.1289312,0.19919157,0.23110117,0.0014454373,0.31923258,0.20381662,0.06255657,0.023715409,0.46632555,0.20434189,0.15407594,-0.19914722,0.048393417,-0.07583982
R_w2v_test_84,-0.046405368,0.15257727,-0.00033141905,0.09944612,0.060206078,-0.32896668,0.18341532,0.48760223,-0.16014957,-0.060341395,-0.10242961,-0.19665846,-0.075190775,0.061088078,0.08746128,-0.16882622,0.14152023,-0.16507293,-0.07407111,-0.40234575,0.19403696,0.058732938,0.14201751,-0.056872953,-0.11772756,0.051702533,-0.11446547,-0.06804568,-0.15725486,0.03101471,0.18822135,-0.043344516,0.14833368,-0.22054413,-0.082456894,0.27859575,0.04079303,-0.09265822,-0.1664194,-0.3037115,-0.07320798,-0.20249434,-0.10138601,0.1027649,0.21778743,-0.027548533,-0.1627636,-0.022168467,0.14145194,0.16256547,0.12559064,-0.034288745,-0.05781781,-0.09225052,-0.07684106,0.04978901,0.18761171,-0.04135483,-0.17164074,0.08720499,0.038646244,0.049074195,0.10299338,-0.005928436,-0.17777967,0.24476385,0.076038785,0.308462,-0.22522447,0.1692531,-0.11304487,0.1134508,0.17804682,0.046564106,0.18836603,0.11968304,0.008000717,0.11193272,-0.15159678,-0.08282983,-0.135972,-0.023382876,-0.18292464,0.2274524,-0.021086784,0.051123984,0.120130256,0.21762231,0.2323465,0.0030255404,0.33356175,0.19406117,0.06227241,0.023042336,0.47361067,0.20113814,0.17350361,-0.22898243,0.06696852,-0.0889498
