Review,0,1,2,3,4,5,6,7,8,9,10,11,12,13,14,15,16,17,18,19,20,21,22,23,24,25,26,27,28,29,30,31,32,33,34,35,36,37,38,39,40,41,42,43,44,45,46,47,48,49,50,51,52,53,54,55,56,57,58,59,60,61,62,63,64,65,66,67,68,69,70,71,72,73,74,75,76,77,78,79,80,81,82,83,84,85,86,87,88,89,90,91,92,93,94,95,96,97,98,99
R_w2v_train_1,-0.016875692,0.09625457,-0.025694404,0.13207081,0.10018875,-0.38322288,0.21112944,0.50541437,-0.1680384,-0.06904846,-0.085228465,-0.18558733,-0.071636155,0.106496714,0.123362295,-0.14976855,0.16717046,-0.11221224,-0.09781308,-0.43087047,0.23442948,0.0316756,0.18563953,-0.074360795,-0.08222435,0.03021402,-0.07183157,0.0065469434,-0.16364738,0.03637441,0.19065325,-0.092549734,0.15685375,-0.26048732,-0.054703977,0.33147907,0.09909403,-0.064338915,-0.14871885,-0.2523524,-0.034517158,-0.2027031,-0.16905415,0.04167307,0.21091257,-0.024013836,-0.13614754,-0.040322695,0.18167163,0.14188671,0.12218969,-0.08681146,-0.05076166,-0.080231994,-0.049238324,0.04984591,0.19620726,-0.037855893,-0.110045955,0.10391267,0.03259087,-0.005166422,0.19301814,-0.00943612,-0.18228547,0.33352655,0.12244547,0.355718,-0.25358284,0.21408448,-0.093525015,0.13336408,0.18957743,0.11222995,0.18282875,0.06421931,0.035784148,0.117309414,-0.17612872,-0.08493848,-0.23358975,-0.031300247,-0.21902753,0.235028,-0.047405854,-0.03851957,0.17961246,0.17873384,0.2263702,0.009919308,0.3109774,0.21966125,0.07066399,0.012767495,0.46808803,0.22863682,0.15798482,-0.20112592,0.025549022,-0.08201029
R_w2v_train_2,-0.031687494,0.12845556,-0.006838158,0.09422699,0.051267818,-0.29480296,0.1477034,0.416111,-0.13967808,-0.055444006,-0.08804479,-0.16234273,-0.07495058,0.057191957,0.0875307,-0.13930997,0.120017074,-0.14395863,-0.0671111,-0.34005168,0.16861112,0.05646055,0.12339317,-0.050784875,-0.088748164,0.052401464,-0.09969535,-0.06676139,-0.13946053,0.020786231,0.16460432,-0.034421153,0.12890308,-0.18717378,-0.080995314,0.2417144,0.0329036,-0.07285743,-0.14441825,-0.2653643,-0.0627218,-0.17110413,-0.08818964,0.08258288,0.18902878,-0.019386316,-0.15838255,-0.014093845,0.12827934,0.13735633,0.100994766,-0.03691933,-0.058431547,-0.0849123,-0.059745725,0.04902336,0.15980993,-0.039075088,-0.15168236,0.07120527,0.02664885,0.053425327,0.0891321,-0.0093975505,-0.15294059,0.22051023,0.067897454,0.2616751,-0.18931377,0.14623855,-0.1024687,0.10007233,0.15522994,0.029627329,0.17018855,0.09727637,0.006123346,0.09492761,-0.13126288,-0.08464379,-0.10503081,-0.031404845,-0.14919494,0.19758105,-0.008647991,0.048564833,0.100108646,0.18171917,0.19403891,-0.0090755625,0.29467216,0.17237793,0.053960953,0.024293745,0.40141413,0.17553394,0.14830758,-0.19949067,0.052850813,-0.07136882
R_w2v_train_3,-0.03496399,0.14149016,-0.0061089373,0.10082855,0.070694596,-0.3397773,0.18657847,0.48197696,-0.16292785,-0.060562886,-0.09569518,-0.18284425,-0.06761561,0.07543182,0.09582182,-0.16746072,0.13990504,-0.14815006,-0.07621542,-0.40552083,0.2030149,0.05034651,0.14423542,-0.061451092,-0.106112346,0.03201314,-0.09733718,-0.039995376,-0.15064277,0.033548765,0.18247488,-0.05587254,0.14245243,-0.22407323,-0.06774906,0.29149064,0.061875116,-0.082951084,-0.16579658,-0.28609297,-0.060602404,-0.20183298,-0.111027025,0.08567345,0.21197629,-0.03224927,-0.14928709,-0.02477088,0.14535083,0.15150516,0.12357408,-0.04255718,-0.048227668,-0.08600217,-0.064037316,0.05539134,0.18183108,-0.044513714,-0.14490251,0.08712011,0.04036267,0.034989562,0.12825173,-0.007212846,-0.17327206,0.26379552,0.08544134,0.31049865,-0.22868414,0.17543396,-0.10205144,0.118613034,0.1783506,0.073656864,0.18461174,0.10914275,0.021778906,0.115069106,-0.15911032,-0.073988214,-0.16212365,-0.023290029,-0.1903648,0.21387318,-0.024878003,0.026115464,0.12841427,0.20647937,0.23311777,0.007711561,0.32009804,0.20379545,0.053569358,0.01911227,0.45718846,0.20222166,0.16126168,-0.21377754,0.05633211,-0.08860075
R_w2v_train_4,-0.042613886,0.14075135,0.003466559,0.09032675,0.059864596,-0.29179826,0.15950045,0.428585,-0.13712443,-0.053195234,-0.08519837,-0.1715541,-0.062334698,0.054852046,0.07182634,-0.14896207,0.12425531,-0.1480765,-0.07536303,-0.3404802,0.16942127,0.06026564,0.13719305,-0.041198425,-0.1025428,0.042449977,-0.08843502,-0.04502893,-0.13674662,0.02215059,0.15375532,-0.043212608,0.12187721,-0.19774224,-0.06973375,0.24622883,0.058523025,-0.08432861,-0.14959516,-0.2568776,-0.06817324,-0.16506712,-0.09832063,0.07820332,0.19398086,-0.01932326,-0.1490239,-0.010803633,0.13416003,0.13868798,0.09921384,-0.037662342,-0.05173173,-0.088469215,-0.06862419,0.046413776,0.16673923,-0.03739604,-0.1345728,0.07173173,0.030435177,0.036180925,0.10437243,0.00090714346,-0.14982519,0.21899858,0.054047253,0.28171134,-0.20650719,0.15053053,-0.08836804,0.107331246,0.15676667,0.04925976,0.15569407,0.10151435,0.009602582,0.09664584,-0.14298858,-0.074167185,-0.13235955,-0.01646817,-0.16183327,0.19305491,-0.0254184,0.031293016,0.11458595,0.19145267,0.20331433,0.0037680177,0.2823314,0.17737553,0.04507613,0.022272255,0.41276044,0.1836248,0.1515924,-0.19487289,0.052347597,-0.08260404
R_w2v_train_5,-0.03732947,0.13696525,-0.007829766,0.09459354,0.070110425,-0.33290696,0.17281759,0.47262138,-0.15084259,-0.0715159,-0.095748305,-0.19535336,-0.062048428,0.057684947,0.08784052,-0.16792957,0.14443973,-0.16308954,-0.08247781,-0.3866524,0.19257325,0.06303519,0.15780969,-0.056839712,-0.112529494,0.06104455,-0.08570838,-0.05384751,-0.15047094,0.027184924,0.1841354,-0.04048348,0.13521819,-0.21848376,-0.08890238,0.27549693,0.06177448,-0.10013628,-0.16373423,-0.2905202,-0.065694764,-0.18696962,-0.092432335,0.07936273,0.22161476,-0.01897501,-0.16511102,-0.020695273,0.15047142,0.15032613,0.11508367,-0.048790574,-0.062263884,-0.112678684,-0.07049352,0.04827804,0.18430892,-0.032798484,-0.15358014,0.07733214,0.045247827,0.0465605,0.13493827,-0.00095275725,-0.16467917,0.26231343,0.05982703,0.3111324,-0.23538907,0.16496642,-0.10104338,0.119853154,0.17256995,0.06268561,0.17969261,0.112562075,0.019522682,0.10408078,-0.15501301,-0.08518115,-0.14659101,-0.015102653,-0.19007581,0.22805567,-0.015254641,0.030447746,0.13622855,0.22174294,0.21844456,0.006508437,0.3217734,0.19930695,0.0507391,0.03433896,0.4607984,0.21261331,0.17658979,-0.23052284,0.060657084,-0.103787586
R_w2v_train_6,-0.035994735,0.08995998,-0.041523777,0.09839344,0.07657958,-0.35840875,0.16631275,0.46636105,-0.14045982,-0.053059466,-0.090609744,-0.18351659,-0.06676808,0.08190994,0.14005864,-0.17185979,0.1334065,-0.15008447,-0.07049595,-0.40477997,0.22885118,0.058580972,0.16102427,-0.06156943,-0.085514195,0.046158288,-0.07374847,-0.041417003,-0.14158145,0.01549358,0.2040379,-0.05161017,0.14838919,-0.1979171,-0.09729372,0.26859388,0.043554097,-0.117269725,-0.17528537,-0.3035268,-0.047305938,-0.16910785,-0.089154884,0.0645206,0.21525365,-0.01151486,-0.16592206,-0.020472743,0.15100116,0.13893896,0.12544274,-0.06661982,-0.07651257,-0.11478393,-0.028717883,0.051029168,0.17867139,-0.031336978,-0.14342178,0.06636243,0.019412123,0.057644673,0.14782706,-0.016025368,-0.19575912,0.29334864,0.083221495,0.318636,-0.2464998,0.17896706,-0.10648085,0.12888527,0.19523424,0.05814848,0.19156365,0.08606428,0.022726744,0.102631845,-0.18476757,-0.10232636,-0.15976173,-0.022740819,-0.17776279,0.27189234,0.017227594,0.053700637,0.12223953,0.21613449,0.20301124,0.00052856,0.34736794,0.2113498,0.05580011,0.03846136,0.46846834,0.2435606,0.1739631,-0.22230542,0.06407793,-0.084381305
R_w2v_train_7,-0.03909833,0.119586825,-0.019674394,0.11246282,0.070791185,-0.34691536,0.20007494,0.48820072,-0.16579953,-0.07219241,-0.097797476,-0.18915437,-0.058740854,0.07571392,0.100653335,-0.17031796,0.1476363,-0.15506057,-0.10131375,-0.41443342,0.20589814,0.04639408,0.16885503,-0.050381087,-0.106392935,0.039324753,-0.06671687,-0.03334247,-0.15046151,0.027362864,0.18016012,-0.06519985,0.14918825,-0.23916645,-0.06546911,0.2931215,0.07450724,-0.10771786,-0.16096742,-0.28458142,-0.06009959,-0.1801679,-0.11517714,0.06825213,0.2220536,-0.02008596,-0.1635805,-0.017824009,0.1587073,0.14315413,0.110937834,-0.064476214,-0.05766756,-0.1041531,-0.07195906,0.038278364,0.17304891,-0.037699338,-0.14385176,0.08611087,0.050157655,0.028419718,0.16322933,-0.0013752943,-0.16653816,0.28193063,0.07640318,0.34838766,-0.2614352,0.1812351,-0.08726452,0.14685053,0.17592746,0.07056032,0.18164082,0.10432996,0.032036513,0.10769297,-0.17872727,-0.080188975,-0.17158687,-0.027926032,-0.20160182,0.24072054,-0.03418812,0.0049582063,0.15148883,0.2126654,0.22351351,0.022133559,0.3176778,0.21383119,0.04802276,0.028203044,0.46986085,0.22873382,0.16577713,-0.22761361,0.06425844,-0.096334085
R_w2v_train_8,-0.03255657,0.12643257,-0.0048861913,0.093623,0.03195481,-0.23651229,0.14578766,0.3705656,-0.123601615,-0.057796426,-0.07827537,-0.16857792,-0.08138972,0.026757194,0.06719969,-0.122747555,0.105087474,-0.14915636,-0.07957249,-0.27821687,0.12323151,0.05624085,0.109084755,-0.040965565,-0.09580546,0.051046737,-0.114999205,-0.089243256,-0.12804523,0.005905593,0.1251698,-0.021166677,0.11444927,-0.170586,-0.07201585,0.20113519,0.013253933,-0.070006676,-0.118235864,-0.23923619,-0.063521184,-0.1602481,-0.04533494,0.09036088,0.16507497,0.0007242227,-0.16331573,-0.0030259914,0.10523393,0.14109805,0.09670454,-0.02751632,-0.041930504,-0.075082794,-0.07275928,0.039724182,0.13879016,-0.02020414,-0.16033933,0.06897588,0.036382917,0.058173504,0.067075446,-0.010447896,-0.13484278,0.15105088,0.038023397,0.2468951,-0.15175083,0.12605712,-0.09884688,0.082678735,0.1445916,-0.006812539,0.15026672,0.092953876,-0.004008984,0.08540134,-0.085157335,-0.0887876,-0.06878562,-0.025443286,-0.14149825,0.17453447,-0.012002444,0.06547712,0.07531033,0.17192598,0.17665792,-0.0028704763,0.269895,0.1448431,0.051055588,0.030144379,0.36433268,0.15469238,0.12523544,-0.17811279,0.04633675,-0.074305974
R_w2v_train_9,-0.035401545,0.12848811,-0.010099473,0.1094443,0.06848944,-0.35683978,0.17424823,0.48552558,-0.15764196,-0.057030495,-0.08956143,-0.18755876,-0.06564429,0.083222054,0.11033436,-0.16318913,0.14018396,-0.1498767,-0.07837836,-0.40809047,0.21992517,0.059793312,0.15040506,-0.05168887,-0.09982874,0.04320933,-0.09139934,-0.036435142,-0.15259725,0.026302146,0.1852204,-0.055979073,0.14545892,-0.22434191,-0.08031935,0.28838098,0.06170684,-0.101320334,-0.17004448,-0.2917649,-0.061947625,-0.18888664,-0.12071541,0.07599924,0.21592803,-0.02161728,-0.16649042,-0.016843649,0.15236656,0.14843543,0.11897758,-0.051101018,-0.063955046,-0.09545234,-0.05028765,0.050659776,0.18913089,-0.04473096,-0.14845297,0.08531237,0.024938071,0.042432163,0.1351795,-0.006207414,-0.17926979,0.28296933,0.07820617,0.3177918,-0.24568272,0.18119161,-0.10770611,0.12690659,0.1839279,0.06503371,0.18310641,0.10512906,0.016667597,0.10723019,-0.17181684,-0.09074675,-0.1591014,-0.025533115,-0.18483812,0.24062002,-0.022828417,0.03182457,0.13510217,0.20865075,0.22304864,8.4262965e-06,0.3317661,0.20480426,0.050188202,0.028299706,0.47018543,0.21857852,0.16034882,-0.22029626,0.05506826,-0.08306052
R_w2v_train_10,-0.037160154,0.117503025,-0.012165296,0.08733809,0.04912915,-0.29452324,0.15529029,0.41563153,-0.13798343,-0.061984163,-0.081489466,-0.16375826,-0.061864182,0.05881391,0.08638475,-0.14387082,0.11763182,-0.14113961,-0.077436835,-0.3432805,0.17206742,0.04658694,0.13636413,-0.04113437,-0.09340529,0.038142644,-0.07713169,-0.04960637,-0.13108984,0.017659409,0.15768272,-0.042810608,0.12620075,-0.19361399,-0.06756237,0.24307434,0.042183097,-0.09123153,-0.14529122,-0.25318903,-0.058212258,-0.15692471,-0.08246371,0.07141215,0.186027,-0.01318986,-0.15157183,-0.0077074105,0.12301643,0.13455226,0.09474602,-0.042826492,-0.051668115,-0.08485167,-0.055527665,0.033123214,0.1481274,-0.033267092,-0.14040226,0.070469424,0.031149628,0.043622214,0.1086294,-0.012307418,-0.14970067,0.21817814,0.06219873,0.275145,-0.20577593,0.14569266,-0.09053935,0.118825026,0.15407853,0.043175325,0.16136758,0.09876247,0.010881184,0.09192021,-0.14492767,-0.076757915,-0.11421612,-0.021781102,-0.1554221,0.20466356,-0.02334778,0.03730471,0.10666875,0.18584695,0.18474902,0.0067250584,0.29044035,0.1810209,0.038316507,0.02657769,0.4016112,0.18956918,0.14333713,-0.20150378,0.061422117,-0.07593971
R_w2v_train_11,-0.024676848,0.09136668,-0.01617336,0.09404148,0.060812198,-0.28534102,0.15623863,0.39201674,-0.12962624,-0.05675551,-0.07196439,-0.14669134,-0.049067475,0.068079,0.086112805,-0.13555616,0.121404134,-0.11366828,-0.07813308,-0.33144024,0.17288366,0.03439255,0.13286239,-0.043568317,-0.080490865,0.026491137,-0.054046765,-0.018779924,-0.12323305,0.018417068,0.1466215,-0.05599111,0.11970471,-0.19261917,-0.05632204,0.23763508,0.058121555,-0.0834736,-0.12971717,-0.22621219,-0.048498057,-0.14305021,-0.09837933,0.050617255,0.17237273,-0.016638799,-0.1294541,-0.017970188,0.12770969,0.1171259,0.08456923,-0.05110753,-0.05018393,-0.07933177,-0.04556066,0.02788626,0.14320555,-0.029947745,-0.110269465,0.07332625,0.031724714,0.019261863,0.13635863,-0.0007120496,-0.13818021,0.23520634,0.065531686,0.2737313,-0.20679276,0.14722866,-0.06924207,0.11740429,0.14273307,0.06270928,0.14762118,0.07884025,0.022955388,0.08952589,-0.14748318,-0.06751043,-0.13895407,-0.022839915,-0.16137908,0.19707972,-0.02973137,0.0023986031,0.12265837,0.16309187,0.17011046,0.013910883,0.2514799,0.17323424,0.041592676,0.018823545,0.3768944,0.18392171,0.12820762,-0.17684558,0.04785857,-0.07231411
R_w2v_train_12,-0.012943688,0.12351795,-0.00442374,0.111041136,0.06467843,-0.3553859,0.17428678,0.4829434,-0.14897339,-0.056246698,-0.100217134,-0.20448188,-0.08006418,0.05941621,0.088915735,-0.1603849,0.15080135,-0.16383104,-0.07061141,-0.400434,0.21593164,0.07201377,0.15043117,-0.070646524,-0.08801486,0.054737255,-0.10529959,-0.059340667,-0.16947544,0.02110702,0.19083738,-0.049949195,0.16061856,-0.2083946,-0.10638892,0.28573957,0.043658864,-0.084707044,-0.16978218,-0.31107232,-0.052630644,-0.20526628,-0.12479981,0.0744587,0.22185917,-0.021195477,-0.17004149,-0.026908055,0.1627354,0.16914254,0.11914238,-0.05931257,-0.07093264,-0.0972577,-0.061334714,0.04991125,0.19682457,-0.036618542,-0.16398753,0.080911785,0.032089517,0.050022904,0.13394652,-0.018588498,-0.18861622,0.27913967,0.090304255,0.31590876,-0.23538321,0.18392403,-0.11552295,0.121991076,0.19597735,0.047147695,0.19615622,0.09608524,0.034594532,0.09982755,-0.16867633,-0.09645563,-0.15964456,-0.029880064,-0.20287313,0.2401491,-0.020853495,0.023751704,0.12690209,0.21495275,0.21627645,-0.012454112,0.33522955,0.20693612,0.06931035,0.046955734,0.48019394,0.2180667,0.16430427,-0.19733149,0.04866642,-0.090956055
R_w2v_train_13,-0.016875692,0.09625457,-0.025694404,0.13207081,0.10018875,-0.38322288,0.21112944,0.50541437,-0.1680384,-0.06904846,-0.085228465,-0.18558733,-0.071636155,0.106496714,0.123362295,-0.14976855,0.16717046,-0.11221224,-0.09781308,-0.43087047,0.23442948,0.0316756,0.18563953,-0.074360795,-0.08222435,0.03021402,-0.07183157,0.0065469434,-0.16364738,0.03637441,0.19065325,-0.092549734,0.15685375,-0.26048732,-0.054703977,0.33147907,0.09909403,-0.064338915,-0.14871885,-0.2523524,-0.034517158,-0.2027031,-0.16905415,0.04167307,0.21091257,-0.024013836,-0.13614754,-0.040322695,0.18167163,0.14188671,0.12218969,-0.08681146,-0.05076166,-0.080231994,-0.049238324,0.04984591,0.19620726,-0.037855893,-0.110045955,0.10391267,0.03259087,-0.005166422,0.19301814,-0.00943612,-0.18228547,0.33352655,0.12244547,0.355718,-0.25358284,0.21408448,-0.093525015,0.13336408,0.18957743,0.11222995,0.18282875,0.06421931,0.035784148,0.117309414,-0.17612872,-0.08493848,-0.23358975,-0.031300247,-0.21902753,0.235028,-0.047405854,-0.03851957,0.17961246,0.17873384,0.2263702,0.009919308,0.3109774,0.21966125,0.07066399,0.012767495,0.46808803,0.22863682,0.15798482,-0.20112592,0.025549022,-0.08201029
R_w2v_train_14,-0.03280659,0.109126166,-0.01361565,0.10329452,0.05825439,-0.31825453,0.16462779,0.44101986,-0.1395695,-0.052921176,-0.08790408,-0.16472694,-0.06569591,0.06997756,0.09555812,-0.15014692,0.13022107,-0.1386217,-0.084918514,-0.37201482,0.19445026,0.05269136,0.14339224,-0.052056886,-0.08946553,0.037248902,-0.08010961,-0.040621933,-0.1430257,0.020806136,0.16601105,-0.053352244,0.14271519,-0.20422755,-0.07393448,0.2674172,0.055054627,-0.086600766,-0.15094724,-0.26116183,-0.055366613,-0.16765544,-0.106831014,0.06307104,0.19688185,-0.021474853,-0.14851394,-0.019409101,0.14663008,0.1365916,0.103058286,-0.053409107,-0.057446294,-0.084891155,-0.048607476,0.042029016,0.16331777,-0.039796,-0.13442431,0.07674982,0.025093788,0.036394846,0.12782454,-0.011746097,-0.16428676,0.25008675,0.072782606,0.2944702,-0.22263578,0.16732207,-0.098199405,0.121783845,0.16698644,0.055933487,0.16967483,0.0892701,0.019523958,0.09419568,-0.16131036,-0.08646237,-0.1401139,-0.027833126,-0.17221679,0.22015327,-0.028296834,0.024433289,0.11671225,0.18798845,0.19457603,0.0070469347,0.29754856,0.18967696,0.052243717,0.023894528,0.42884874,0.2020183,0.14679104,-0.1949947,0.049860187,-0.07260418
R_w2v_train_15,-0.05234872,0.1332313,-0.021007884,0.09101962,0.06284045,-0.32314184,0.17370012,0.4640444,-0.14835037,-0.06465629,-0.094565086,-0.18259569,-0.05831197,0.06662379,0.095172994,-0.16542493,0.1390471,-0.16746439,-0.0753613,-0.3864823,0.1961166,0.05115214,0.15001647,-0.04699877,-0.110323146,0.045289725,-0.08172601,-0.053107355,-0.1403292,0.029178193,0.19255216,-0.040529694,0.13498507,-0.21126685,-0.078375645,0.27434647,0.047611766,-0.11725093,-0.16748242,-0.29574266,-0.06761093,-0.17678356,-0.077155836,0.08134822,0.21877287,-0.012280787,-0.16889954,-0.015155422,0.13791612,0.14548624,0.113668576,-0.044778626,-0.066662975,-0.104700916,-0.060817618,0.049132325,0.16949439,-0.031955775,-0.15796927,0.06752376,0.03355254,0.054625154,0.11472194,-0.009216747,-0.16757321,0.24359621,0.06807264,0.30626184,-0.22680184,0.16202912,-0.10363303,0.12559897,0.17632413,0.05140155,0.17742501,0.11228806,0.009687344,0.101666726,-0.16421108,-0.0794944,-0.13383839,-0.020906862,-0.17889203,0.2348416,-0.0032087825,0.047865905,0.11739327,0.22089384,0.20995505,0.007968142,0.31644866,0.20202664,0.047704186,0.025636138,0.45109814,0.21632023,0.17788668,-0.23800933,0.080391355,-0.08405162
R_w2v_train_16,-0.025996283,0.10761064,-0.026772339,0.09953612,0.058873188,-0.33039266,0.1568255,0.44073397,-0.14176157,-0.05369305,-0.08530952,-0.1663223,-0.07070503,0.07494475,0.107806385,-0.15081072,0.13068461,-0.14064527,-0.076805726,-0.37832728,0.20231399,0.054437727,0.14385888,-0.0535775,-0.0879813,0.048132204,-0.08958316,-0.047507588,-0.14421225,0.01791173,0.17608657,-0.049839802,0.13892579,-0.20054841,-0.08087363,0.259914,0.0349457,-0.0963786,-0.16193222,-0.2774059,-0.05631859,-0.16472298,-0.09791821,0.06496236,0.20043263,-0.014109263,-0.15750891,-0.02720206,0.13915691,0.13570718,0.10951612,-0.05156923,-0.06255137,-0.088453054,-0.04386772,0.033183865,0.16637541,-0.03415663,-0.15040925,0.07716343,0.022935096,0.04472795,0.12509343,-0.018148033,-0.17213623,0.2580567,0.07927023,0.29707208,-0.21878473,0.16585645,-0.10795127,0.12481575,0.1627121,0.046809115,0.18126467,0.0939102,0.012688303,0.10469463,-0.16158976,-0.09211443,-0.13397467,-0.028910205,-0.17219785,0.23508415,-0.014714313,0.034736786,0.11302771,0.1862109,0.19281459,-0.00012254048,0.30851167,0.19262451,0.051125497,0.024866398,0.43464035,0.20700455,0.15113987,-0.20471187,0.05443865,-0.06889428
R_w2v_train_17,-0.032088105,0.094034426,-0.016501147,0.078307435,0.050902918,-0.26055145,0.1324063,0.3583779,-0.12012781,-0.046822585,-0.07184633,-0.13891563,-0.048297405,0.05786303,0.07985994,-0.1247303,0.106569305,-0.12118454,-0.062220473,-0.3070785,0.15577695,0.043154478,0.11842335,-0.040428046,-0.07949113,0.035513587,-0.06477315,-0.035156634,-0.11672472,0.015680745,0.14766166,-0.040348295,0.10559315,-0.16972858,-0.06166251,0.21566392,0.04068975,-0.08603592,-0.12622002,-0.22147688,-0.046011366,-0.13340464,-0.07969373,0.053268798,0.16458449,-0.008637746,-0.1263933,-0.015918579,0.11200723,0.109866686,0.08775469,-0.04310838,-0.049935322,-0.07333113,-0.045453813,0.029769918,0.13262717,-0.02451444,-0.11922263,0.06100341,0.02500691,0.03507734,0.10468257,-0.0069604507,-0.13094611,0.20645936,0.060686264,0.2416826,-0.17985286,0.13237974,-0.07934889,0.10331496,0.13366364,0.043405674,0.13438936,0.08274792,0.012943651,0.081289634,-0.12727477,-0.06851611,-0.11192029,-0.02085603,-0.14300202,0.18541066,-0.015250092,0.024141822,0.09813296,0.1598002,0.16102949,0.009343455,0.2404987,0.15613717,0.0398455,0.020677576,0.35312492,0.17078963,0.12881733,-0.17396617,0.053031232,-0.06443065
R_w2v_train_18,-0.027493324,0.13436687,-0.00036416366,0.12868261,0.05124636,-0.3209855,0.17110327,0.4896977,-0.15549469,-0.07207763,-0.0930544,-0.20237818,-0.11269513,0.065064505,0.06838243,-0.13376343,0.14195216,-0.17044109,-0.08761403,-0.39295363,0.17850599,0.07336992,0.13439539,-0.056656882,-0.09436694,0.0549634,-0.14093938,-0.09000869,-0.19079414,0.011126587,0.16829507,-0.04738799,0.16739191,-0.22271086,-0.08687067,0.28571555,0.045016773,-0.05189549,-0.15696438,-0.29103154,-0.06777245,-0.21456811,-0.12113659,0.111954555,0.22042836,-0.023269545,-0.19282812,-0.017316792,0.16171724,0.18827984,0.1095589,-0.042565793,-0.04364673,-0.057896003,-0.07973501,0.05236234,0.17606378,-0.057895154,-0.17589432,0.0928042,0.04465439,0.06109842,0.1097975,-0.001983,-0.18539089,0.22776458,0.060587972,0.31669003,-0.20138681,0.17844923,-0.105457634,0.12491143,0.18758306,0.003219238,0.1924223,0.08230585,0.035695005,0.10804941,-0.12508325,-0.118244395,-0.12072017,-0.05528505,-0.19642085,0.2097094,-0.041640528,0.04854133,0.092234194,0.20108056,0.23455088,-0.017980069,0.3402529,0.19612691,0.08048551,0.044478998,0.4559654,0.19065566,0.12715693,-0.19431908,0.043176882,-0.06783319
R_w2v_train_19,-0.047574285,0.15421991,-0.0041642245,0.082419716,0.06617728,-0.30126184,0.18755333,0.46268526,-0.16513444,-0.06511905,-0.098311566,-0.17524062,-0.056950938,0.06372782,0.070442535,-0.17326331,0.13017292,-0.1533773,-0.06830887,-0.37875667,0.17788498,0.039344627,0.13967712,-0.045242142,-0.1188783,0.02841539,-0.09020718,-0.052562594,-0.13934635,0.036094043,0.17364208,-0.041665055,0.1290768,-0.22924888,-0.054470558,0.27004063,0.055737197,-0.082386784,-0.15598123,-0.2720413,-0.05829413,-0.19617754,-0.0899265,0.09923569,0.2125519,-0.03664132,-0.15643738,-0.020946503,0.13631247,0.14390726,0.11337227,-0.025971517,-0.043099348,-0.09121593,-0.06623496,0.05127284,0.16298485,-0.042682365,-0.14690818,0.07351462,0.055840805,0.030845629,0.11593548,0.003836706,-0.15352824,0.22386102,0.063400604,0.29764342,-0.2173268,0.15478508,-0.08811263,0.11301544,0.16272339,0.07560975,0.17815696,0.11877235,0.018042231,0.11389187,-0.1361665,-0.055294324,-0.14185083,-0.015825255,-0.1768354,0.1931815,-0.028846523,0.031266972,0.13047868,0.2147889,0.2275554,0.019704519,0.3029132,0.19108798,0.042429935,0.018443242,0.43627074,0.18768156,0.17100006,-0.21989052,0.072734594,-0.096280195
R_w2v_train_20,-0.041788366,0.12364626,-0.015694605,0.09374664,0.06396194,-0.31488857,0.17169337,0.44757906,-0.1467774,-0.06527519,-0.08540877,-0.17085673,-0.06035154,0.06478887,0.090984024,-0.15741141,0.13388002,-0.14842157,-0.08528177,-0.36997774,0.18554872,0.052110698,0.15227,-0.0449494,-0.103509374,0.04311757,-0.07541975,-0.040924963,-0.13916309,0.022691406,0.17043011,-0.04860723,0.1288326,-0.21351169,-0.06941422,0.26444256,0.05726211,-0.10173113,-0.15373628,-0.2676759,-0.065084614,-0.16910094,-0.0896804,0.0700031,0.20308709,-0.013060276,-0.1531768,-0.019274237,0.13929097,0.13770773,0.10417571,-0.044430673,-0.05795981,-0.09808391,-0.06672046,0.03719848,0.16548814,-0.029287206,-0.14014892,0.07555047,0.03706216,0.03725815,0.12943779,-0.0026379991,-0.15245159,0.24564432,0.067318074,0.30429062,-0.22648185,0.15928985,-0.089464515,0.12508021,0.16066179,0.06262522,0.16677137,0.10115845,0.015598051,0.1034781,-0.15789,-0.07549134,-0.1413258,-0.02172236,-0.17650402,0.21950334,-0.023723288,0.024376698,0.129051,0.19625753,0.20019631,0.010747999,0.29200715,0.19036247,0.045058046,0.022566339,0.4308282,0.20657766,0.15956417,-0.21715198,0.059336558,-0.08657161
R_w2v_train_21,-0.039981168,0.12178243,-0.004412988,0.07401985,0.036929943,-0.2527726,0.12407055,0.36446393,-0.11469186,-0.041406125,-0.07851703,-0.14844231,-0.06362509,0.044044245,0.073582895,-0.1267648,0.100838184,-0.13604245,-0.056946628,-0.2959961,0.14543405,0.05917206,0.102501824,-0.041260432,-0.082347885,0.052024126,-0.09178044,-0.07175578,-0.12289834,0.017958347,0.14908569,-0.02311257,0.1099912,-0.15058662,-0.08305811,0.20014283,0.01681517,-0.08153785,-0.13294023,-0.24913457,-0.06091601,-0.14982295,-0.060422666,0.078155965,0.17256463,-0.011292533,-0.13871926,-0.009942126,0.10366818,0.123509355,0.095920384,-0.02720788,-0.057715736,-0.07798618,-0.053964604,0.043572307,0.14542557,-0.030512985,-0.14806151,0.05407888,0.01941618,0.061405182,0.06290903,-0.010955864,-0.14028244,0.18344162,0.050969206,0.22100484,-0.16351783,0.12703219,-0.09825903,0.088224664,0.14022242,0.013757594,0.14642945,0.098421715,0.0020219197,0.08268907,-0.11732838,-0.07768673,-0.07238602,-0.023420164,-0.12797855,0.18118243,0.00078167964,0.0628102,0.0678991,0.16859525,0.16890617,-0.0070697805,0.26186618,0.1460355,0.046119854,0.024732148,0.35953495,0.15610251,0.14109416,-0.17953074,0.051525887,-0.06074966
R_w2v_train_22,-0.03857405,0.12697822,0.0019742963,0.07301955,0.05093641,-0.26307887,0.13494447,0.3892441,-0.12251366,-0.040555906,-0.086149074,-0.16837095,-0.061344475,0.040829454,0.06320115,-0.13849927,0.10666167,-0.15163097,-0.061851572,-0.31804258,0.16044287,0.062010728,0.12266361,-0.049296834,-0.08623913,0.048189238,-0.08836079,-0.06857072,-0.13087913,0.025750216,0.15457807,-0.025944954,0.11414603,-0.15950455,-0.08402279,0.22072203,0.024805607,-0.09221193,-0.13894024,-0.2602498,-0.057798535,-0.15780298,-0.06587729,0.08075722,0.18508688,-0.013311099,-0.1412201,-0.010117838,0.11644804,0.13621914,0.103772245,-0.033131685,-0.06363754,-0.08506006,-0.06768482,0.042465396,0.1575684,-0.026734926,-0.15534693,0.058234964,0.03156525,0.05847352,0.076814525,-0.012059257,-0.1440196,0.19599006,0.053387903,0.24188523,-0.18404308,0.13097785,-0.0996795,0.09384669,0.14365692,0.025132926,0.15404633,0.10435141,0.0053204997,0.079195835,-0.12833942,-0.07211643,-0.09623314,-0.019656394,-0.14534973,0.1867062,-0.004422766,0.057704024,0.086343616,0.1929444,0.1836057,0.0022141617,0.27473786,0.15922916,0.043272637,0.035069045,0.38560873,0.17106017,0.15204157,-0.1927252,0.06052337,-0.079276204
R_w2v_train_23,-0.035937496,0.13107552,-0.01852053,0.10947095,0.06967577,-0.35692713,0.17487572,0.4927079,-0.15533067,-0.05664175,-0.096631,-0.18449076,-0.07530458,0.079484336,0.12413901,-0.17127381,0.13364875,-0.15931523,-0.08711275,-0.41451538,0.21379487,0.06505186,0.15657315,-0.060408875,-0.102625094,0.040814962,-0.09292411,-0.045409746,-0.15552287,0.022327572,0.19085935,-0.07006613,0.15292294,-0.22318506,-0.0847336,0.28980526,0.05640678,-0.09749757,-0.17450212,-0.30778414,-0.06573204,-0.1882929,-0.11484489,0.07342605,0.21834973,-0.023862176,-0.1682614,-0.021227475,0.15493006,0.15822689,0.11777887,-0.05467739,-0.060066886,-0.10229924,-0.049171735,0.053254344,0.19134448,-0.041799072,-0.15662928,0.07933948,0.021303492,0.048883393,0.1395902,-0.014629821,-0.19869536,0.27956367,0.08630106,0.33345988,-0.25093347,0.19337977,-0.11047627,0.12904902,0.19249561,0.060745,0.18384723,0.10355876,0.016120804,0.11416767,-0.1813722,-0.09416674,-0.15522714,-0.036598776,-0.19416188,0.24967897,-0.0105041955,0.03864726,0.1275128,0.21041739,0.22610596,0.0059318226,0.33357584,0.21144536,0.054889336,0.025864698,0.4820011,0.22740333,0.16741723,-0.21888898,0.06074615,-0.086177506
R_w2v_train_24,-0.038926087,0.14062816,0.00033300876,0.09713005,0.06081541,-0.29583976,0.18423764,0.4569976,-0.15400814,-0.07317885,-0.09900716,-0.1801862,-0.060905986,0.056444075,0.0695734,-0.16989557,0.13563567,-0.15029162,-0.08774144,-0.36942455,0.1661637,0.06010837,0.1524187,-0.050117888,-0.11570554,0.03539281,-0.08097535,-0.0374694,-0.14836626,0.035117235,0.16487058,-0.05246663,0.13463901,-0.23649965,-0.0588192,0.27373144,0.07685223,-0.08403147,-0.14970216,-0.26352152,-0.059098713,-0.18350703,-0.09965037,0.07964477,0.21504015,-0.0218637,-0.15434772,-0.008476892,0.15127948,0.14158028,0.10293603,-0.042173784,-0.04396763,-0.08724899,-0.08308465,0.052528594,0.17072752,-0.040342163,-0.13402334,0.07955558,0.052840095,0.029067133,0.13477987,0.009200749,-0.1509126,0.22791651,0.054722335,0.3095087,-0.22769101,0.15711778,-0.0891328,0.11842901,0.16232185,0.080099024,0.15505259,0.10953049,0.022042945,0.09618253,-0.14016932,-0.0654011,-0.14892767,-0.018747859,-0.19012345,0.19672649,-0.045858566,0.0052602123,0.1369075,0.21483693,0.22064823,0.026831983,0.29317296,0.1949607,0.029171102,0.02446733,0.43049443,0.1981734,0.1588158,-0.21914808,0.060114935,-0.1068274
R_w2v_train_25,-0.065434456,0.15558581,-0.011442564,0.09970848,0.058474742,-0.3062713,0.1644594,0.46428353,-0.15088862,-0.06304447,-0.09963738,-0.19222185,-0.07675383,0.06264846,0.07874,-0.17605577,0.12178382,-0.17082019,-0.073860876,-0.38128978,0.19263342,0.052910656,0.15225032,-0.04960683,-0.117436565,0.051758215,-0.09320703,-0.07429478,-0.1415895,0.041234612,0.1845485,-0.023151195,0.14279246,-0.20609522,-0.08643544,0.2607329,0.038929395,-0.11428459,-0.16965115,-0.31094146,-0.07753098,-0.18850933,-0.07310487,0.099022195,0.22254795,-0.012332655,-0.17329665,-0.015191469,0.13983905,0.1486983,0.13030306,-0.027757114,-0.064640835,-0.10017787,-0.08283992,0.058253743,0.18031447,-0.024511779,-0.1741521,0.075629056,0.04259099,0.05640746,0.093814224,-0.0050313226,-0.16499177,0.2168937,0.06195263,0.3001336,-0.22893363,0.16746521,-0.10568303,0.11125246,0.16291851,0.04272711,0.16711289,0.13735181,0.0033532362,0.102742046,-0.15020457,-0.08052105,-0.120925166,-0.030373048,-0.16467187,0.22101517,-0.017887786,0.067190215,0.11368516,0.22198352,0.22170676,0.015233088,0.32609642,0.18695553,0.033580363,0.030674014,0.44856343,0.20173055,0.18279102,-0.25006187,0.07422942,-0.09154368
R_w2v_train_26,-0.043750584,0.12482132,-0.0037763985,0.097456254,0.05973863,-0.3257071,0.15791473,0.44854367,-0.14365155,-0.04793475,-0.08556565,-0.17892528,-0.06768717,0.06958635,0.09814341,-0.15493843,0.13173482,-0.14678481,-0.076032415,-0.37899595,0.1944923,0.06298916,0.1435026,-0.058537,-0.088394746,0.047659777,-0.09883559,-0.05237609,-0.15103504,0.029348247,0.18165036,-0.040668827,0.14207728,-0.19866583,-0.08514978,0.26716602,0.04425616,-0.09235369,-0.15670441,-0.28349417,-0.05698993,-0.18886203,-0.09846135,0.07592719,0.20599419,-0.017080784,-0.1505722,-0.01804455,0.14068581,0.14019752,0.118355766,-0.04528328,-0.062299367,-0.091855995,-0.06005194,0.050424673,0.17614129,-0.037819512,-0.15246287,0.073929116,0.024842348,0.05341386,0.1076404,-0.01496574,-0.17262651,0.24631937,0.083066635,0.29499644,-0.21263194,0.17406656,-0.1073557,0.11383122,0.17723042,0.0548575,0.1737464,0.10698679,0.010939702,0.09825424,-0.14731738,-0.08394945,-0.13330305,-0.030488847,-0.17287602,0.22025177,-0.008109238,0.046115406,0.10596144,0.19661412,0.21058862,0.0012201378,0.31474924,0.19248897,0.05792511,0.023203883,0.43909863,0.20117573,0.15930861,-0.20737468,0.054380707,-0.082770675
R_w2v_train_27,-0.015811397,0.08005606,-0.04330514,0.13036047,0.100104906,-0.38242015,0.22115956,0.5031745,-0.1748035,-0.08151231,-0.08501798,-0.18072617,-0.046889413,0.10846277,0.12741008,-0.168097,0.16736387,-0.11560463,-0.11143437,-0.43715248,0.23568825,0.020735309,0.19221409,-0.058932647,-0.08930138,0.018674776,-0.03304568,0.022628913,-0.14879249,0.0245265,0.1875111,-0.10249528,0.15076375,-0.2714176,-0.047988568,0.32720497,0.10730357,-0.09957548,-0.15248458,-0.25269082,-0.043334827,-0.1772998,-0.15347467,0.03213149,0.21191758,-0.02030313,-0.14744896,-0.03540963,0.17985266,0.13269229,0.10277029,-0.086576425,-0.054155365,-0.101588726,-0.043044124,0.02464489,0.1748385,-0.03454071,-0.10326886,0.10391471,0.04704416,-0.015768668,0.23477437,0.00042052814,-0.1673569,0.3437291,0.10465454,0.38136598,-0.28371695,0.20405342,-0.06353944,0.16395797,0.1757703,0.12134311,0.1819442,0.07389431,0.05000614,0.11791579,-0.19958414,-0.07542724,-0.23637486,-0.029068636,-0.22689278,0.25507233,-0.052336916,-0.058083285,0.20336425,0.18809406,0.21121694,0.03204729,0.2976345,0.23569115,0.053859014,0.018527279,0.47223607,0.25057453,0.15286581,-0.21824807,0.04925394,-0.09570139
R_w2v_train_28,-0.012322739,0.10754726,-0.022647558,0.117138006,0.09043995,-0.36656794,0.19460087,0.48986366,-0.15010063,-0.07169498,-0.08743105,-0.19833976,-0.053423356,0.0736373,0.10742951,-0.17023261,0.15775312,-0.14741237,-0.08601702,-0.40749356,0.22746623,0.062130198,0.16216734,-0.06545886,-0.09163159,0.049872205,-0.06809122,-0.03320262,-0.15162577,0.0135273235,0.18397383,-0.070961215,0.145252,-0.22533457,-0.09833458,0.2897571,0.0678402,-0.10069566,-0.16516718,-0.2943963,-0.04834643,-0.18206865,-0.12510093,0.056571256,0.22431587,-0.023958767,-0.16599402,-0.039309826,0.16660035,0.1513464,0.10994855,-0.0740485,-0.0752574,-0.1256335,-0.045163527,0.03417468,0.1945685,-0.040561,-0.14438854,0.08376197,0.034976583,0.029006906,0.18680139,-0.0068659117,-0.18839757,0.32079494,0.07756105,0.3373326,-0.25572136,0.18082094,-0.09506575,0.14093217,0.18424094,0.07850151,0.19868672,0.09256717,0.039503887,0.1106435,-0.18858498,-0.09663542,-0.18354702,-0.023542449,-0.20709194,0.25148684,-0.014488998,0.0028825875,0.16487773,0.20426212,0.20297891,-0.0026996422,0.3270556,0.22060333,0.06764371,0.041166652,0.4915968,0.23521191,0.16575988,-0.21257843,0.0451782,-0.0956117
R_w2v_train_29,-0.037127286,0.11898181,-0.008667912,0.11001464,0.06753057,-0.36064878,0.20731977,0.5133797,-0.16765732,-0.07416088,-0.09355289,-0.18734881,-0.064204976,0.091343045,0.09353444,-0.18034196,0.15525931,-0.14009401,-0.09917864,-0.42750734,0.21604946,0.03308389,0.17192912,-0.040515333,-0.104692206,0.02634756,-0.077062175,-0.015666986,-0.15149733,0.026128452,0.17076343,-0.06883514,0.16311496,-0.2523281,-0.06262121,0.29259524,0.080185205,-0.11092104,-0.16375598,-0.28171015,-0.07325001,-0.17797762,-0.1332976,0.06352783,0.2095924,-0.04076729,-0.15441503,-0.022941194,0.16025046,0.15998664,0.10578585,-0.055906802,-0.04911735,-0.096629314,-0.0517757,0.029256336,0.17121157,-0.0383194,-0.122292794,0.10755504,0.039297707,0.007124326,0.17258814,0.0007154244,-0.16960889,0.28376138,0.0863011,0.3411189,-0.27424282,0.18503657,-0.07045064,0.15580043,0.17240804,0.07412936,0.18663616,0.10216605,0.033423208,0.1115417,-0.19595568,-0.07691258,-0.1803074,-0.024686622,-0.20082048,0.2496798,-0.058499686,-0.0060499758,0.1677056,0.20073703,0.21446197,0.028364616,0.32273644,0.21744737,0.051931188,0.017653225,0.48744312,0.22404751,0.16291665,-0.22557902,0.06763505,-0.08341594
R_w2v_train_30,-0.041753665,0.14733888,-0.0009317836,0.08750378,0.06752437,-0.33085507,0.2170501,0.50553894,-0.19658087,-0.10601527,-0.09822129,-0.19225095,-0.052094348,0.065248,0.0676579,-0.17984962,0.14159723,-0.15872681,-0.105499126,-0.42284513,0.16559519,0.020558514,0.19167814,-0.043211766,-0.1460962,0.017868012,-0.05941011,-0.022213591,-0.14067,0.050934967,0.17408097,-0.075515345,0.14623597,-0.29092324,-0.02234802,0.33587807,0.11464153,-0.07291907,-0.13979486,-0.25572407,-0.060635395,-0.20065571,-0.11706741,0.09276889,0.21725696,-0.036541115,-0.15553276,0.003593471,0.1453345,0.14582208,0.09227237,-0.054367997,-0.02362444,-0.08680226,-0.09496471,0.048470974,0.1514316,-0.044094592,-0.11216582,0.0959243,0.076794684,-0.0053557525,0.1910646,0.01773167,-0.15280494,0.26041317,0.04824677,0.35351557,-0.26175493,0.15088025,-0.05959175,0.14568278,0.16561568,0.13999285,0.16759986,0.12614426,0.01886774,0.10473048,-0.15507743,-0.030181006,-0.1695666,-0.00018183049,-0.20369478,0.20281117,-0.07432689,-0.0293612,0.18904346,0.23911905,0.24661127,0.053090356,0.31946695,0.23091844,0.0026330221,0.031334486,0.44476235,0.2245993,0.1720435,-0.25203484,0.08209741,-0.14083782
R_w2v_train_31,-0.05405612,0.14479588,-0.01082182,0.11849811,0.08569314,-0.32346702,0.2098497,0.5009725,-0.17086291,-0.09487981,-0.100467466,-0.20428723,-0.05575103,0.060891837,0.06897554,-0.16818154,0.17167757,-0.18018605,-0.10869089,-0.4097952,0.1813096,0.052651215,0.18866654,-0.05098075,-0.1387539,0.04058911,-0.075983785,-0.029928163,-0.15544416,0.03732605,0.18140118,-0.050314512,0.1362413,-0.26426175,-0.052922145,0.31201002,0.09602221,-0.10702777,-0.1594952,-0.2736284,-0.06805855,-0.19758995,-0.107595146,0.082185514,0.23484598,-0.01579347,-0.16447161,-0.011875392,0.17281765,0.15517372,0.11150026,-0.04704089,-0.035829153,-0.09961366,-0.1012086,0.05047159,0.17825252,-0.029217362,-0.1325245,0.08682393,0.06623653,0.017678821,0.16182578,0.02275735,-0.13892522,0.25483826,0.054872986,0.35597596,-0.25711426,0.16887325,-0.07151493,0.13565286,0.16754125,0.086721666,0.16125244,0.09210218,0.034769107,0.1006744,-0.1528004,-0.07259571,-0.19303934,-0.014026971,-0.21901454,0.21163158,-0.04776692,-0.011768718,0.16896261,0.23615535,0.2494623,0.039712116,0.30989867,0.20862775,0.04019916,0.031357367,0.45553192,0.21959175,0.17252183,-0.24313693,0.07173961,-0.12144963
R_w2v_train_32,-0.014236329,0.15749578,0.009234901,0.1001816,0.072255194,-0.35272747,0.15979311,0.49293077,-0.1324125,-0.05947268,-0.090901196,-0.2194928,-0.0778861,0.049816977,0.07788816,-0.16807355,0.14553797,-0.17730772,-0.060841776,-0.37817764,0.21228485,0.096459314,0.13300474,-0.07629476,-0.10660806,0.09227369,-0.11858394,-0.09709552,-0.16373202,0.020993631,0.18011421,-0.034074716,0.1421562,-0.18843971,-0.14275494,0.2548191,0.030444697,-0.08651094,-0.1795363,-0.33328426,-0.057024565,-0.199122,-0.10320029,0.093559235,0.23334499,-0.022209328,-0.1801432,-0.04211507,0.15464827,0.17078686,0.11721396,-0.052393354,-0.08921938,-0.12794533,-0.061086074,0.045806035,0.2170386,-0.048301775,-0.20010614,0.07398094,0.022459514,0.08169904,0.111645065,-0.01485881,-0.19772752,0.2888006,0.06300774,0.28388095,-0.21949658,0.1636479,-0.13584657,0.10992848,0.19556542,0.02212219,0.2152153,0.123419575,0.020010166,0.11112997,-0.16443962,-0.1220496,-0.121742144,-0.010590295,-0.18607135,0.22923061,0.005120498,0.06657239,0.11313859,0.22324751,0.21448459,-0.041084364,0.35531357,0.19716431,0.07867625,0.046111185,0.5091127,0.2060258,0.18491913,-0.21325319,0.045802474,-0.09066823
R_w2v_train_33,-0.014042172,0.09152575,-0.03337843,0.12502596,0.086322606,-0.37168813,0.20584247,0.49484777,-0.16531256,-0.07076676,-0.085579164,-0.17962821,-0.054209493,0.10306122,0.12117002,-0.16990659,0.16040902,-0.12737642,-0.10168068,-0.42893553,0.23352364,0.032140065,0.18056633,-0.05824293,-0.09075089,0.029767726,-0.054301668,-0.000935496,-0.1496946,0.0220507,0.18940954,-0.08648081,0.15325642,-0.2536623,-0.06249609,0.31106102,0.08272995,-0.10354471,-0.16405325,-0.2733411,-0.046154965,-0.18205455,-0.13625742,0.043053113,0.21090972,-0.019243311,-0.15756214,-0.03586505,0.16705233,0.13814321,0.1097096,-0.07661547,-0.06305647,-0.100227274,-0.04787444,0.02602992,0.17809042,-0.038974956,-0.1264797,0.09288216,0.03855784,0.005619101,0.20177536,-0.004083534,-0.1777302,0.3272242,0.09735733,0.36157703,-0.27246937,0.19750758,-0.0830673,0.15419817,0.1792113,0.09999418,0.1886867,0.079876624,0.04133278,0.11900739,-0.19105497,-0.077802435,-0.20612626,-0.033705063,-0.21608452,0.25565225,-0.04176649,-0.025424963,0.18008205,0.19264027,0.21064463,0.020469967,0.3126511,0.22455569,0.05310861,0.021613715,0.4705206,0.24270365,0.15696125,-0.2158173,0.047459465,-0.0864618
R_w2v_train_34,-0.039040115,0.12747191,-0.005575615,0.09234257,0.046146873,-0.29715404,0.15563548,0.43358454,-0.14149687,-0.051202092,-0.08583327,-0.1748279,-0.07358289,0.0562923,0.079617284,-0.14996731,0.12459515,-0.15193933,-0.07349822,-0.35636702,0.1761649,0.059587736,0.12699203,-0.049563885,-0.100881174,0.04916402,-0.100175306,-0.064308666,-0.14279762,0.018300889,0.16390996,-0.034528352,0.13561222,-0.19602294,-0.07783677,0.24529943,0.03642097,-0.08768251,-0.1535959,-0.27762076,-0.06412206,-0.17966798,-0.08247335,0.09015686,0.1973237,-0.021381952,-0.15965809,-0.015660373,0.12995085,0.14432025,0.10498269,-0.036115214,-0.05399448,-0.08360826,-0.06550735,0.047249194,0.16470824,-0.03679859,-0.15832579,0.07290295,0.03545274,0.05039284,0.096566886,-0.009448661,-0.16033931,0.21633953,0.061154295,0.27883458,-0.20090903,0.15013519,-0.10350547,0.10319585,0.1659346,0.035323035,0.17054331,0.10425086,0.009763436,0.09735003,-0.13662155,-0.081888795,-0.111470275,-0.024814641,-0.16676553,0.20595177,-0.01676187,0.05139662,0.096904926,0.19539542,0.2018838,0.0042722197,0.3031186,0.18012552,0.05492808,0.029787038,0.42098302,0.1886299,0.14869387,-0.20332928,0.05904164,-0.0763738
R_w2v_train_35,-0.045205202,0.12512116,-0.018329257,0.09369908,0.061637014,-0.32993132,0.16759524,0.46241158,-0.14701346,-0.05563531,-0.0954979,-0.17914292,-0.06361498,0.0725726,0.10014224,-0.16578601,0.13313633,-0.1574643,-0.07539384,-0.39065626,0.2011,0.06025725,0.14870727,-0.05154678,-0.104318954,0.043343637,-0.08305105,-0.050389647,-0.14960381,0.024173573,0.1880694,-0.044339977,0.1408679,-0.2056511,-0.087262124,0.26727498,0.048219647,-0.10835361,-0.16859129,-0.2950632,-0.06453421,-0.17633162,-0.09388116,0.07652863,0.21581164,-0.015121031,-0.16153568,-0.0131951375,0.14120565,0.14604093,0.112578,-0.04652932,-0.06481922,-0.099692725,-0.06025314,0.045988847,0.17479797,-0.035980158,-0.15786065,0.07391114,0.029045826,0.055209603,0.11917885,-0.011101615,-0.17246899,0.25376615,0.07020748,0.3018927,-0.23021784,0.1696241,-0.10424397,0.12326507,0.17646539,0.052652,0.17565346,0.1069464,0.015427352,0.09756534,-0.16499384,-0.08451222,-0.137395,-0.02375312,-0.18167575,0.2353894,-0.009336181,0.042650104,0.114750296,0.21597631,0.21119274,0.008615384,0.3213762,0.20194636,0.046090018,0.031107204,0.45205414,0.21529587,0.17073645,-0.22559452,0.07006209,-0.08431879
R_w2v_train_36,-0.04938959,0.13902515,-0.0012812959,0.08372343,0.05076388,-0.29146397,0.1542478,0.4252673,-0.14855847,-0.05592167,-0.08967096,-0.16774713,-0.066897124,0.055854224,0.073695004,-0.15212883,0.11290625,-0.15070735,-0.06878051,-0.34830156,0.16410798,0.05468118,0.13395132,-0.047088925,-0.10519543,0.041444313,-0.09732426,-0.059393432,-0.13965735,0.026574643,0.16541207,-0.042032465,0.13071086,-0.19887894,-0.06954629,0.2498084,0.041647818,-0.07949399,-0.15120812,-0.2667095,-0.0636747,-0.17639242,-0.08061034,0.08718961,0.19877967,-0.022293324,-0.15004146,-0.012471088,0.12478807,0.13849378,0.103817895,-0.027179418,-0.042725023,-0.078707874,-0.06861253,0.042628493,0.15737009,-0.038443103,-0.14837748,0.066358194,0.041175947,0.046978332,0.09664691,-0.0037103766,-0.150773,0.2102119,0.064780176,0.27660307,-0.20380124,0.15048638,-0.09521455,0.10283484,0.15781577,0.04794278,0.15804826,0.11264246,0.0012209965,0.100081086,-0.13324834,-0.07035419,-0.11240323,-0.024835972,-0.1616142,0.19122009,-0.021821631,0.04424286,0.10388705,0.1991506,0.20063578,0.008135349,0.29662248,0.17858265,0.036425814,0.018832441,0.41137114,0.17839147,0.15103076,-0.20625137,0.061977327,-0.08334351
R_w2v_train_37,-0.009840908,0.10362516,-0.020862732,0.12519409,0.0915412,-0.36336032,0.20502195,0.49364632,-0.1564582,-0.07890021,-0.08632454,-0.19547404,-0.043214906,0.07790017,0.09872763,-0.17041802,0.16158009,-0.14126354,-0.09358196,-0.40751112,0.2180438,0.052262098,0.16303118,-0.06078501,-0.092708856,0.04052568,-0.06101569,-0.018436931,-0.15343557,0.014966853,0.17782965,-0.07697694,0.14196946,-0.23632276,-0.08557871,0.2976645,0.078202985,-0.1006998,-0.15762824,-0.2840734,-0.051929157,-0.18226218,-0.1382764,0.053989712,0.22312905,-0.029832585,-0.16074166,-0.041654196,0.17127743,0.14968689,0.100570336,-0.07757364,-0.07433848,-0.12038852,-0.05085104,0.030431967,0.18715078,-0.043938905,-0.13319221,0.09035231,0.049300052,0.016815715,0.20431685,-0.0013617582,-0.1817563,0.3222642,0.07438542,0.3499002,-0.26016057,0.17916334,-0.07551347,0.1501222,0.17524557,0.09094847,0.1988457,0.09411292,0.043452553,0.110772856,-0.19053508,-0.090234146,-0.19440477,-0.022782568,-0.21913284,0.24891457,-0.031156924,-0.020214545,0.17963243,0.20066753,0.20572983,0.006077867,0.30996078,0.2231467,0.064944915,0.042890374,0.48776084,0.23367602,0.15890563,-0.21291304,0.04418616,-0.10399059
R_w2v_train_38,-0.043503825,0.1429624,-0.00986647,0.103451885,0.07461749,-0.32918307,0.19339766,0.48445642,-0.16584542,-0.07576773,-0.09729567,-0.18860328,-0.05651533,0.06925511,0.083982185,-0.17056584,0.1468332,-0.15820055,-0.0916265,-0.40041402,0.18979622,0.04803199,0.16109376,-0.04878928,-0.11955252,0.036042005,-0.07768601,-0.032520052,-0.14986658,0.031465974,0.17807938,-0.055074308,0.13793306,-0.24556553,-0.06138678,0.29437694,0.08168695,-0.09979621,-0.16473646,-0.27894405,-0.06930703,-0.18795268,-0.107108176,0.08348572,0.2206498,-0.021990377,-0.16018634,-0.015855972,0.15296146,0.14827096,0.10835143,-0.045725886,-0.048737332,-0.09847195,-0.07892834,0.047152247,0.1736397,-0.037821364,-0.13804805,0.08670332,0.049239002,0.024860678,0.14822908,0.008125885,-0.15866981,0.25929058,0.06364253,0.33235636,-0.24360757,0.17145409,-0.08655259,0.13295643,0.17131005,0.084114745,0.1725206,0.10947048,0.021305026,0.106458,-0.16223295,-0.071097195,-0.16752997,-0.01636827,-0.19916834,0.21600232,-0.0408239,0.008242912,0.15457687,0.21853721,0.23089881,0.026116833,0.30848685,0.20772873,0.038599845,0.0245547,0.45322508,0.21531813,0.17019941,-0.23151904,0.06708413,-0.103895605
R_w2v_train_39,-0.04601131,0.1289123,-0.013335215,0.097884074,0.05977108,-0.35154867,0.16584845,0.48317462,-0.14675388,-0.058229513,-0.097347446,-0.18919244,-0.07379402,0.07378934,0.1151121,-0.1639733,0.13894677,-0.16050492,-0.07337108,-0.40712577,0.21141453,0.06735506,0.15466873,-0.063436925,-0.09846886,0.05406996,-0.10683666,-0.05903704,-0.16123143,0.027123522,0.19944893,-0.043832716,0.15009788,-0.21743552,-0.09720655,0.28668538,0.04141605,-0.10166238,-0.17691463,-0.30340886,-0.060967308,-0.19809367,-0.09515588,0.07819743,0.22329724,-0.019637924,-0.17318788,-0.019763848,0.14477965,0.15362655,0.1314111,-0.044843454,-0.06270197,-0.093650416,-0.067255646,0.052426476,0.19202557,-0.033242892,-0.16537398,0.076900125,0.030306881,0.057756174,0.11299243,-0.013784516,-0.18361604,0.26922804,0.08731685,0.3111276,-0.22818235,0.18550634,-0.12153594,0.1251371,0.1835722,0.04850443,0.19018456,0.11213721,0.012739929,0.109518625,-0.1626766,-0.09350972,-0.13910052,-0.034267325,-0.18321025,0.24609864,-0.014095669,0.05423684,0.11047699,0.21173373,0.22110668,0.0018273096,0.34244895,0.20059285,0.053716056,0.022133537,0.4714787,0.21741934,0.1779451,-0.2271959,0.061410688,-0.08313973
R_w2v_train_40,-0.03846016,0.12380937,-0.008486753,0.094800256,0.05444841,-0.28613314,0.16612746,0.42448327,-0.14488424,-0.05761771,-0.08808769,-0.16287436,-0.06437606,0.057948556,0.07651935,-0.14697595,0.12024093,-0.13345866,-0.07603139,-0.34681156,0.16944897,0.0433908,0.13583438,-0.044650085,-0.09790528,0.03586987,-0.0830894,-0.046362244,-0.13927835,0.026146648,0.15385649,-0.045010235,0.1325065,-0.20782281,-0.05770201,0.24878448,0.05472298,-0.07392648,-0.1386696,-0.24743396,-0.055456493,-0.16876473,-0.093361445,0.080367684,0.19405341,-0.022617273,-0.14495601,-0.014217492,0.1311324,0.13345979,0.09780834,-0.04219297,-0.04599955,-0.07990243,-0.06369361,0.042971488,0.1485418,-0.037174918,-0.1357609,0.07407432,0.040433414,0.033975553,0.11059322,-0.0039085136,-0.15047862,0.21618953,0.06376242,0.2827821,-0.20351534,0.15649974,-0.08647985,0.11338785,0.15743203,0.05239642,0.16007282,0.094133995,0.015804594,0.09492083,-0.13417749,-0.075128675,-0.13349141,-0.024428569,-0.16530432,0.18816394,-0.03373495,0.024054946,0.116357714,0.18772084,0.19458777,0.008053689,0.28514367,0.173169,0.045354683,0.023640191,0.4040985,0.18007813,0.14785856,-0.1912592,0.04970908,-0.07907018
R_w2v_train_41,-0.043679044,0.16487607,0.002691635,0.105984926,0.06598236,-0.32947132,0.19085084,0.49761328,-0.15817758,-0.07293682,-0.10309831,-0.20183745,-0.06619714,0.05614693,0.07984348,-0.17371045,0.14867458,-0.16983947,-0.09578905,-0.3980583,0.1877023,0.06897618,0.15844703,-0.062090777,-0.12482753,0.061671924,-0.105784476,-0.060159344,-0.1617682,0.031759687,0.18158445,-0.039914005,0.14307062,-0.23223618,-0.08485396,0.29118326,0.06708158,-0.10026543,-0.17636009,-0.30339056,-0.073840454,-0.19656418,-0.09120263,0.092287675,0.23184466,-0.021207094,-0.17170466,-0.019555552,0.15525025,0.15736368,0.11549804,-0.03942962,-0.059064217,-0.10580148,-0.08734006,0.051520843,0.18778214,-0.035283986,-0.1636001,0.08507961,0.048021223,0.045893207,0.12192217,0.003212218,-0.16739762,0.25082928,0.060064126,0.32553476,-0.23900306,0.16836813,-0.1065789,0.12033375,0.18031397,0.06319241,0.18055913,0.119449064,0.015324434,0.104770206,-0.15958901,-0.08370971,-0.14784604,-0.01848328,-0.19713163,0.220611,-0.031635344,0.03469025,0.13574678,0.22842708,0.23839638,0.009747654,0.32384,0.2013292,0.05054134,0.02481763,0.47860026,0.20960888,0.18239504,-0.23704138,0.0644327,-0.104429975
R_w2v_train_42,-0.07468139,0.1681934,-0.012040388,0.11000908,0.10746638,-0.32631153,0.23086172,0.50795275,-0.16418213,-0.116161585,-0.10073021,-0.20898974,-0.033408564,0.04547853,0.07166527,-0.17920764,0.18200785,-0.18591121,-0.13079038,-0.39324647,0.17134047,0.042768504,0.23277816,-0.03869113,-0.1685951,0.04352406,-0.03807128,-0.0040805377,-0.12784308,0.03390468,0.1760138,-0.054203577,0.1140414,-0.28170115,-0.03604211,0.33016634,0.13278387,-0.14432257,-0.1596946,-0.24737929,-0.07509292,-0.18654642,-0.07981014,0.06164347,0.23389548,-0.0019389048,-0.1553024,-0.013641011,0.16360958,0.13296162,0.12045737,-0.0483387,-0.037678335,-0.13470483,-0.124859124,0.043476705,0.18651485,-0.003868821,-0.10551699,0.0825676,0.083399214,0.0030963114,0.19242942,0.036184307,-0.095527016,0.24953145,0.04592845,0.39354694,-0.28225565,0.15190251,-0.050425768,0.14088139,0.14983927,0.13523938,0.15516454,0.09778706,0.018650487,0.10791804,-0.16727577,-0.048792873,-0.23441511,0.005852294,-0.22964188,0.21084982,-0.056508962,-0.036146883,0.2200011,0.24299598,0.24509788,0.052701317,0.28105447,0.21712412,0.030624177,0.017488705,0.46040046,0.23644763,0.19870183,-0.26791212,0.07496259,-0.15613551
R_w2v_train_43,-0.03237455,0.10482639,-0.020093568,0.08026028,0.057830036,-0.31107488,0.1357368,0.41386536,-0.11840905,-0.039868057,-0.08522553,-0.16734588,-0.07357101,0.05901218,0.108611286,-0.15169306,0.11778898,-0.1429817,-0.05597617,-0.3496682,0.19678636,0.070079885,0.129001,-0.061011106,-0.08085935,0.058605254,-0.0867397,-0.058116812,-0.13703081,0.014976691,0.1755236,-0.035978362,0.12767805,-0.16875122,-0.10575927,0.23381476,0.025151407,-0.09596603,-0.1614985,-0.28206345,-0.049037598,-0.1581455,-0.07291612,0.066758424,0.19730502,-0.011734094,-0.15506037,-0.018715573,0.12785427,0.13288336,0.11428476,-0.050473645,-0.070449546,-0.1038558,-0.037906427,0.04840494,0.16876659,-0.029635139,-0.15220702,0.056293204,0.01274105,0.06973815,0.09351556,-0.023050386,-0.17657381,0.24496089,0.07049846,0.26316378,-0.20188774,0.15780054,-0.119128495,0.105097145,0.17145817,0.029862061,0.17286542,0.09355784,0.014412789,0.09398178,-0.1502345,-0.09803191,-0.11417526,-0.021768998,-0.15462917,0.23017187,0.01941439,0.06673491,0.08546252,0.19812615,0.18471116,-0.01283694,0.31995,0.17826599,0.053452875,0.028407408,0.42198163,0.20655447,0.1602946,-0.19831881,0.054453764,-0.06681845
R_w2v_train_44,-0.025651127,0.116020344,-0.020786187,0.09721855,0.06054352,-0.32677758,0.1578631,0.44794512,-0.1348264,-0.056977917,-0.09114041,-0.17745991,-0.075209185,0.06388892,0.09822552,-0.15820023,0.12738109,-0.1495974,-0.070837036,-0.36983424,0.19644931,0.06553034,0.13704714,-0.057056136,-0.09215249,0.057826232,-0.09812979,-0.057453573,-0.15596631,0.018516755,0.17981033,-0.044872914,0.1372041,-0.19645411,-0.09897056,0.26088825,0.035808533,-0.086611345,-0.16647479,-0.28458387,-0.058421336,-0.17420514,-0.091874085,0.07226525,0.21010225,-0.018261367,-0.16708343,-0.029249374,0.1400751,0.14362812,0.11645732,-0.051074803,-0.06717872,-0.09901531,-0.04900368,0.04254376,0.17547575,-0.0386245,-0.16222371,0.06796946,0.025924161,0.055451058,0.11600213,-0.01805729,-0.17930946,0.25393134,0.06892611,0.28864324,-0.21387462,0.16135652,-0.11520878,0.1174104,0.17143366,0.04054266,0.18676887,0.10195462,0.015753854,0.1053097,-0.15585718,-0.094897725,-0.12935482,-0.02656293,-0.17777488,0.23277454,-0.00876412,0.04515035,0.10621639,0.20139217,0.1979113,-0.0063047796,0.3191418,0.19317369,0.056214213,0.03193617,0.44367933,0.203715,0.1577234,-0.20408313,0.0530891,-0.08235302
R_w2v_train_45,-0.04959355,0.11482289,-0.007769955,0.07741737,0.07325102,-0.2230572,0.15935437,0.34511054,-0.11446723,-0.07930449,-0.07167446,-0.14431949,-0.025722174,0.029184854,0.05060033,-0.12406696,0.12625614,-0.12621652,-0.09156413,-0.26669112,0.11449509,0.029394729,0.1546562,-0.027002111,-0.11384361,0.030440109,-0.02831013,-0.0022367241,-0.08796529,0.02584687,0.123102956,-0.033511613,0.07612376,-0.18952174,-0.028837943,0.22688985,0.08570242,-0.10059562,-0.107349075,-0.16883592,-0.051855844,-0.12829222,-0.05295089,0.044847865,0.16035695,0.0014893605,-0.10579178,-0.0073269787,0.111017644,0.09247776,0.08198115,-0.032983962,-0.023882126,-0.0903111,-0.0828468,0.027567796,0.12577885,-0.0016133155,-0.07316099,0.055041347,0.057656977,0.0043297317,0.13246177,0.021547988,-0.06455517,0.16982506,0.03280451,0.26955056,-0.19310325,0.10106384,-0.0334601,0.09868159,0.10330784,0.09088085,0.103709556,0.070729636,0.009757973,0.07692156,-0.11118839,-0.036438424,-0.1596774,0.0019517905,-0.15578325,0.14315851,-0.037072495,-0.019644275,0.14692841,0.16593271,0.16742115,0.037827563,0.1963218,0.14775778,0.022980152,0.014563322,0.31422213,0.16136785,0.13277544,-0.18560322,0.05202662,-0.104088224
R_w2v_train_46,-0.040222514,0.12178484,-0.006770669,0.085045815,0.047769807,-0.28788406,0.14562285,0.41066465,-0.13393655,-0.050915353,-0.08315396,-0.16185397,-0.061790854,0.056957047,0.08360246,-0.14635456,0.11613986,-0.14165832,-0.06624158,-0.33965534,0.17094037,0.055766698,0.12398744,-0.045515522,-0.09258443,0.04373871,-0.08476773,-0.057132717,-0.13336548,0.019036908,0.16124356,-0.03513371,0.12289326,-0.17962497,-0.07791174,0.23463786,0.03521416,-0.09072259,-0.14623085,-0.26144415,-0.058423884,-0.16102768,-0.078175955,0.07736364,0.18753669,-0.01889726,-0.14759156,-0.013463497,0.12168209,0.1344183,0.1028581,-0.033821873,-0.055845197,-0.087972805,-0.055126186,0.04173465,0.1602439,-0.033743683,-0.14594342,0.06744677,0.029455263,0.051750448,0.09206583,-0.009564614,-0.15007858,0.2125844,0.061673652,0.2608628,-0.19627333,0.14387973,-0.09501846,0.1040476,0.15258388,0.035698466,0.1613361,0.10317848,0.010003306,0.089868546,-0.1383695,-0.075927466,-0.10834649,-0.02129356,-0.15409562,0.20333867,-0.008318824,0.049043294,0.0951687,0.18551935,0.18990834,0.0016420645,0.28634873,0.17173399,0.045721885,0.026847895,0.4016195,0.18107863,0.14609373,-0.19762447,0.060675193,-0.07385233
R_w2v_train_47,-0.032972816,0.14622048,0.009355589,0.09352782,0.050065603,-0.30295008,0.15473084,0.4315244,-0.13627894,-0.047579456,-0.0954149,-0.19309829,-0.07747004,0.03948396,0.07421052,-0.14693621,0.12770301,-0.16514334,-0.06813707,-0.34353817,0.16956808,0.08130277,0.12010765,-0.054244887,-0.09773403,0.06303673,-0.11514323,-0.08894518,-0.15147752,0.016096516,0.1625205,-0.027419938,0.13392664,-0.18140301,-0.106533855,0.23933057,0.022737402,-0.088416204,-0.1544585,-0.29562542,-0.06978101,-0.18810096,-0.08850528,0.09249007,0.20182885,-0.019042924,-0.16993819,-0.01952498,0.13019209,0.1589663,0.11121618,-0.037759818,-0.06499494,-0.092960194,-0.067656,0.048281062,0.1829332,-0.033045776,-0.17566532,0.07263241,0.025373627,0.061719313,0.07916797,-0.013861072,-0.16530496,0.22064902,0.05906708,0.26874903,-0.1975604,0.15043828,-0.118187286,0.1003105,0.1732505,0.016761808,0.1751681,0.10825959,0.008534656,0.09704463,-0.13824652,-0.093049414,-0.104055546,-0.022618666,-0.16209768,0.20627822,-0.00788384,0.060929414,0.090711266,0.1974844,0.20106827,-0.02072666,0.31228054,0.17212594,0.061145034,0.037270755,0.43859643,0.18378848,0.16271354,-0.19659491,0.04955792,-0.081219725
R_w2v_train_48,-0.04326726,0.1477043,-0.011531243,0.117859736,0.058122825,-0.31734088,0.17724635,0.46701226,-0.15480646,-0.074548975,-0.102511406,-0.20509732,-0.08750352,0.05101506,0.107173905,-0.15794191,0.12460425,-0.18424115,-0.096138984,-0.3620978,0.1717064,0.066220745,0.14343092,-0.05393956,-0.10998527,0.056785665,-0.12650736,-0.10087049,-0.16207865,0.012935577,0.16619171,-0.034091532,0.14095122,-0.21751931,-0.10031563,0.25751007,0.016687222,-0.09928146,-0.1614195,-0.30128714,-0.07180075,-0.1911141,-0.0658907,0.10511182,0.21725051,0.0067629167,-0.20558274,-0.014635794,0.12997408,0.1750383,0.11976693,-0.048784234,-0.06933059,-0.11155331,-0.068943344,0.041963067,0.17541547,-0.026758378,-0.1948777,0.084344804,0.03301587,0.075757265,0.09116922,-0.01658677,-0.18048477,0.2204119,0.05660083,0.31598663,-0.21133009,0.1631851,-0.116894245,0.115780756,0.18045397,0.0057771676,0.19628458,0.10522791,0.0035308928,0.111455694,-0.13522205,-0.11733375,-0.09919907,-0.026106795,-0.17374055,0.23578516,-0.009151598,0.08761315,0.10236522,0.21899863,0.21625233,-0.0097400285,0.3445078,0.18827493,0.06063206,0.042192943,0.45696893,0.21128671,0.17285156,-0.22963278,0.05780989,-0.09679388
R_w2v_train_49,-0.035516746,0.12515,-0.0070189107,0.09221902,0.0532041,-0.3033599,0.15992357,0.43301275,-0.13990533,-0.05568533,-0.086081624,-0.17448886,-0.06400828,0.05674922,0.076716125,-0.15224357,0.12615849,-0.14612661,-0.076103695,-0.3504196,0.17638634,0.05839773,0.13636144,-0.047975592,-0.09549862,0.043846596,-0.08655657,-0.055133663,-0.14353152,0.019419855,0.1623513,-0.03756264,0.13289873,-0.19411433,-0.08015139,0.2469228,0.04434798,-0.09137743,-0.14883226,-0.2704534,-0.06335061,-0.16994862,-0.09145408,0.07693675,0.19790827,-0.021702973,-0.1540697,-0.016690113,0.13375112,0.14180753,0.1004789,-0.042813964,-0.05781012,-0.09323516,-0.056616694,0.04019747,0.16486736,-0.036773648,-0.14683765,0.071346894,0.03428405,0.04490376,0.110465944,-0.009519507,-0.15743145,0.23058768,0.057360083,0.27919018,-0.21012363,0.15262638,-0.09542519,0.11304171,0.15874307,0.04133797,0.17003395,0.102101795,0.017531706,0.094981104,-0.14390734,-0.08312654,-0.12173605,-0.023108179,-0.16747186,0.20539142,-0.017531069,0.0370355,0.11363639,0.1922048,0.19093946,0.005290625,0.2952057,0.17901215,0.049518406,0.03191039,0.42383742,0.18910505,0.15183723,-0.19962378,0.055826828,-0.08226322
R_w2v_train_50,-0.054557506,0.15367906,0.0065505933,0.07397738,0.04955797,-0.2893697,0.15586053,0.44738773,-0.13346295,-0.048868135,-0.09797273,-0.18061952,-0.07656031,0.057485536,0.07751616,-0.15263839,0.122142114,-0.15775596,-0.06843927,-0.36085573,0.17286444,0.065725535,0.12055499,-0.046520185,-0.100538306,0.057903826,-0.114292085,-0.077527724,-0.14459969,0.03219408,0.16975774,-0.028094744,0.13269989,-0.18766795,-0.08563567,0.23412883,0.02880243,-0.09653183,-0.15571071,-0.28892612,-0.069587536,-0.17722917,-0.08420751,0.08951732,0.20148008,-0.02226416,-0.15558289,-0.012547541,0.12279186,0.16021195,0.11458283,-0.028442709,-0.06072494,-0.08528706,-0.06926715,0.046976075,0.17127122,-0.03521097,-0.16036366,0.072050035,0.037839204,0.056334924,0.07538899,-0.00809669,-0.17065842,0.21127518,0.07293588,0.26561972,-0.20027083,0.15811463,-0.10426552,0.104914665,0.16203961,0.020956531,0.16964345,0.12602673,0.0070270323,0.09677294,-0.14255561,-0.075114936,-0.10712246,-0.030697301,-0.15546508,0.20379807,-0.015556137,0.066221796,0.09664258,0.2000557,0.21314567,0.00051527034,0.30001217,0.16942112,0.055035386,0.022556363,0.4372847,0.18006492,0.17413884,-0.20920701,0.06367804,-0.074796
R_w2v_train_51,-0.051192857,0.12689316,-0.020832403,0.10357182,0.098741926,-0.3377568,0.2060047,0.49486464,-0.16695896,-0.09719078,-0.09744246,-0.2007403,-0.037493892,0.06914602,0.089412756,-0.18390505,0.17134611,-0.16989364,-0.1074885,-0.40724653,0.19557521,0.04626044,0.1969456,-0.04921471,-0.13403639,0.045087524,-0.050960533,-0.0057243854,-0.13530207,0.036426935,0.18732902,-0.052113704,0.12270875,-0.2623883,-0.048969537,0.30883524,0.10950396,-0.12921736,-0.16310558,-0.26956868,-0.06516455,-0.18248646,-0.093299426,0.06492896,0.22967556,-0.011292485,-0.1569306,-0.010835788,0.1709018,0.1340889,0.11438227,-0.054658186,-0.047613807,-0.12593336,-0.09189062,0.04837557,0.17986682,-0.014455797,-0.107266605,0.082956776,0.06452657,0.009702586,0.1842665,0.02515789,-0.13336791,0.27768835,0.059075236,0.36662525,-0.2722211,0.16541468,-0.06850293,0.14011827,0.16448641,0.11458993,0.16234203,0.0968168,0.027812183,0.103994325,-0.17750755,-0.061155647,-0.21525952,-0.0018417898,-0.21897177,0.23197916,-0.032736793,-0.016907196,0.18777356,0.23794237,0.23806791,0.04260023,0.29749426,0.2179626,0.035770345,0.032554492,0.4578163,0.23835233,0.18871315,-0.2594528,0.07114845,-0.1316924
R_w2v_train_52,-0.04867629,0.1513581,-0.0004580159,0.094716854,0.044443153,-0.3236161,0.17887624,0.47908157,-0.16352166,-0.052499972,-0.10527225,-0.18529738,-0.0673375,0.061501183,0.07606679,-0.16948748,0.13210437,-0.16407844,-0.06938422,-0.39440244,0.19536373,0.061438717,0.13221698,-0.059210658,-0.11362244,0.038901284,-0.11002854,-0.07001236,-0.1552455,0.029951269,0.17711452,-0.037639163,0.14582723,-0.21057686,-0.074573934,0.27143833,0.04303224,-0.0882807,-0.1700397,-0.29911023,-0.06282606,-0.20283452,-0.09938808,0.10421102,0.22331505,-0.03406545,-0.16614759,-0.024969112,0.13962463,0.15941352,0.12439974,-0.032458052,-0.056597758,-0.08393335,-0.07160712,0.057700574,0.1810801,-0.046200525,-0.17000484,0.07993631,0.041172944,0.053284843,0.09507398,-0.007224167,-0.16987729,0.23257248,0.07503809,0.2986048,-0.22051862,0.17034987,-0.10940714,0.11425932,0.17966303,0.041409057,0.19236091,0.12563561,0.015422265,0.10782367,-0.14835615,-0.07790737,-0.13426523,-0.026137631,-0.17701554,0.22065449,-0.022907723,0.054737687,0.10140035,0.21604037,0.23463461,0.0031720945,0.33372718,0.19815242,0.054413088,0.02577056,0.4580829,0.19568309,0.16707565,-0.21705465,0.06983437,-0.07658304
R_w2v_train_53,-0.043727174,0.13742897,-0.010409093,0.10112999,0.06643854,-0.31811127,0.16324446,0.45908234,-0.15009965,-0.054400977,-0.09356913,-0.18527491,-0.07029923,0.06850877,0.092585236,-0.15627982,0.14076261,-0.16000085,-0.0751025,-0.37839046,0.18276982,0.05770259,0.14907528,-0.057236042,-0.10313058,0.043236505,-0.094014056,-0.053766202,-0.15144266,0.026930228,0.1806708,-0.048368167,0.13676523,-0.2094629,-0.078456156,0.269725,0.05177203,-0.09340017,-0.16239913,-0.28475088,-0.065152206,-0.18314062,-0.09745779,0.08275624,0.20789248,-0.016602898,-0.15710501,-0.016007645,0.1400732,0.15034176,0.11745281,-0.043345448,-0.05494477,-0.08640892,-0.06950256,0.051281366,0.17893815,-0.034395028,-0.15279172,0.07737061,0.0320124,0.049327347,0.11136368,-0.009435776,-0.16424572,0.24770416,0.07162336,0.29572657,-0.21975137,0.16496898,-0.10566702,0.119513564,0.17484367,0.05264912,0.1675693,0.106276184,0.013489966,0.09776174,-0.14932157,-0.08539909,-0.14307533,-0.024052314,-0.1815051,0.21148844,-0.014557614,0.037753772,0.11412575,0.2038893,0.21791631,0.0085409945,0.31290382,0.18840684,0.047417242,0.029543893,0.44064477,0.20605795,0.16163921,-0.21454068,0.058523107,-0.083934724
R_w2v_train_54,-0.04144672,0.12505282,-0.012049813,0.10811461,0.06013514,-0.3471761,0.1737261,0.47964418,-0.15280423,-0.06015006,-0.0899996,-0.18304798,-0.07759512,0.075375326,0.103981055,-0.16239826,0.13855937,-0.15561236,-0.08236826,-0.40322143,0.20481482,0.061416335,0.1540253,-0.0563401,-0.09378604,0.04067359,-0.09488667,-0.046182077,-0.15825176,0.021099895,0.18248497,-0.053723738,0.15445909,-0.21916574,-0.08346401,0.28543755,0.053904586,-0.09884218,-0.16609706,-0.29101962,-0.061638772,-0.18552913,-0.10701026,0.07532575,0.21794917,-0.020204633,-0.16942295,-0.015895419,0.1492447,0.1531308,0.1133955,-0.050149236,-0.058579024,-0.093431816,-0.058084257,0.0432005,0.1812035,-0.03859218,-0.15318805,0.085994534,0.031408496,0.046607792,0.12928908,-0.014693902,-0.17798805,0.26062772,0.07916464,0.31738827,-0.23844276,0.17883469,-0.10427114,0.12907678,0.18065296,0.051710065,0.18716595,0.10493103,0.01784618,0.106724806,-0.16698971,-0.09335501,-0.14201239,-0.03188931,-0.18425559,0.2404272,-0.021482887,0.03986833,0.12208654,0.20756602,0.21703148,0.00828876,0.33065546,0.20468561,0.050964527,0.02593898,0.4674481,0.21625301,0.16277239,-0.22090977,0.06416991,-0.081202954
R_w2v_train_55,-0.039995026,0.13085693,-0.015239743,0.10385635,0.060921803,-0.3416285,0.17294705,0.47787505,-0.15567122,-0.059659597,-0.09317707,-0.18677324,-0.069627,0.07317173,0.10114248,-0.16659869,0.138848,-0.15735267,-0.07965571,-0.39670137,0.20412774,0.059723493,0.15255761,-0.05274383,-0.103738815,0.04834394,-0.09246811,-0.051964577,-0.1529821,0.023817383,0.18386723,-0.055759013,0.14384304,-0.21958861,-0.081813395,0.2823302,0.05306785,-0.100677036,-0.16850618,-0.29491398,-0.06393928,-0.18736602,-0.10704007,0.079847604,0.21536888,-0.020580415,-0.16660903,-0.017002763,0.14797302,0.14999674,0.11271794,-0.04806876,-0.060480867,-0.09400876,-0.06018549,0.045120522,0.18280993,-0.042552363,-0.15885589,0.079075105,0.033793926,0.04775637,0.12941524,-0.009589492,-0.17362307,0.26666248,0.07589113,0.31561285,-0.23943307,0.17494798,-0.10061546,0.1272086,0.1790721,0.0568392,0.18256666,0.113751985,0.012479481,0.10753808,-0.17006561,-0.08951679,-0.14133708,-0.027729552,-0.18437128,0.23788968,-0.019208921,0.03679895,0.12546763,0.2100516,0.21437277,0.005722603,0.32698494,0.20399441,0.04646125,0.025769383,0.4655082,0.22087793,0.16349825,-0.22551955,0.06270796,-0.08568579
R_w2v_train_56,-0.041124582,0.15059607,0.009197912,0.09741658,0.06438755,-0.3316582,0.2063099,0.4994569,-0.17907043,-0.09289203,-0.09930539,-0.19711208,-0.06333658,0.06230253,0.07532811,-0.17338873,0.13916889,-0.16030927,-0.099261105,-0.4072065,0.16985166,0.043988977,0.16974676,-0.05366872,-0.1346569,0.029119508,-0.083405755,-0.03584708,-0.14954577,0.041285694,0.17904203,-0.062945046,0.15037508,-0.26252678,-0.048277,0.31932196,0.09833179,-0.069775045,-0.14721431,-0.27710763,-0.06329799,-0.20169985,-0.118595034,0.09192819,0.21909113,-0.03246951,-0.16205347,0.0009690081,0.14989978,0.15238762,0.099310376,-0.045549605,-0.03251843,-0.08268485,-0.09700271,0.052908164,0.16510849,-0.0522105,-0.12825584,0.09586414,0.063774966,0.018834269,0.15724446,0.00875623,-0.16201653,0.2517862,0.054397464,0.33622292,-0.25455427,0.15877266,-0.07647838,0.13311267,0.17321646,0.11069075,0.17418544,0.12271225,0.022267416,0.10288108,-0.15268578,-0.05070654,-0.15445104,-0.0102342935,-0.19791828,0.21101463,-0.063662685,-0.0039025247,0.1638238,0.23235284,0.23959334,0.03076242,0.3196856,0.22136374,0.023444653,0.032789875,0.44859338,0.21840978,0.1655349,-0.23741949,0.075821824,-0.12372533
R_w2v_train_57,-0.054852907,0.14909047,0.0024016986,0.07748126,0.03295542,-0.29889286,0.13588285,0.4461167,-0.1369037,-0.038087837,-0.10619933,-0.19184344,-0.08363348,0.048741184,0.08948155,-0.15075204,0.11575105,-0.17368063,-0.0708979,-0.37000006,0.17509633,0.07469788,0.1195637,-0.052210942,-0.104710914,0.061250288,-0.1314259,-0.09631728,-0.15262176,0.028400967,0.18268748,-0.015654927,0.14515905,-0.1847934,-0.10517013,0.24565983,0.026398363,-0.10377517,-0.15814938,-0.31809777,-0.077740006,-0.19373256,-0.07968007,0.105146304,0.20500186,-0.01665511,-0.17212519,-0.005460575,0.1255288,0.15519963,0.12301625,-0.040793296,-0.06299278,-0.09105228,-0.068657,0.06595267,0.1895816,-0.04662499,-0.19418046,0.06137037,0.017894587,0.09227088,0.058681287,-0.0103733735,-0.18683355,0.2184689,0.071014486,0.26515067,-0.19735113,0.16347624,-0.1317402,0.10755029,0.1713774,0.0075404756,0.1762202,0.13508597,-0.006435362,0.10409943,-0.12943175,-0.10576338,-0.09229558,-0.03638544,-0.15428598,0.22801198,0.0004706686,0.08701999,0.061093442,0.20681918,0.20913674,-0.019901574,0.3331107,0.18721257,0.0665268,0.024271943,0.4591503,0.186059,0.1796865,-0.22960092,0.071714856,-0.07375929
R_w2v_train_58,-0.038416967,0.1447952,-0.00082074606,0.09774618,0.049788177,-0.33505523,0.1651674,0.47734183,-0.15840721,-0.051354486,-0.098006114,-0.18037483,-0.0833375,0.05818508,0.09601553,-0.15424432,0.1281232,-0.16521427,-0.07949808,-0.39022434,0.1971463,0.07846384,0.13714305,-0.059954315,-0.10130658,0.052803002,-0.12630865,-0.071244135,-0.15916209,0.022854114,0.17444755,-0.046884723,0.14391145,-0.2051594,-0.09156347,0.26933837,0.032876067,-0.079260245,-0.16272467,-0.30979902,-0.07075168,-0.19673634,-0.09326918,0.09986168,0.21785195,-0.027757894,-0.17065272,-0.01658547,0.1387532,0.1646162,0.1179981,-0.03087697,-0.06080675,-0.095369734,-0.07379544,0.04661958,0.18647994,-0.040002666,-0.18029788,0.08145157,0.03012457,0.062977806,0.096654154,-0.01022065,-0.18091597,0.24948768,0.083309874,0.30236763,-0.21893287,0.16427901,-0.117667794,0.11422956,0.17928822,0.042260714,0.18492292,0.117388174,0.0010716146,0.118834116,-0.1520276,-0.093259975,-0.11832528,-0.02844753,-0.18055399,0.23155491,-0.013830927,0.05802422,0.10374489,0.20942624,0.21882263,-0.009397354,0.3356043,0.19085774,0.05706365,0.015224466,0.46780246,0.20477223,0.16399959,-0.22393224,0.05818218,-0.070134215
R_w2v_train_59,-0.036917854,0.12466558,0.00093775254,0.07765095,0.052852996,-0.2602992,0.13133895,0.38240087,-0.119866624,-0.047082637,-0.07815295,-0.16366878,-0.053373042,0.04004923,0.06690618,-0.1357604,0.11156458,-0.13962331,-0.060905807,-0.3038012,0.15027624,0.05858554,0.11783856,-0.047100812,-0.089062974,0.052986957,-0.08519657,-0.060049035,-0.12864578,0.019958798,0.14505324,-0.028150734,0.112265706,-0.16415483,-0.084487885,0.21415795,0.037600845,-0.079724155,-0.1379967,-0.24912971,-0.055782244,-0.15760976,-0.07441318,0.07571493,0.18048863,-0.016549654,-0.13777462,-0.01829645,0.11387197,0.1293608,0.098205596,-0.032830417,-0.055192336,-0.09009614,-0.061700694,0.040476125,0.15309155,-0.029635454,-0.13985617,0.055945598,0.03369688,0.050407488,0.08469893,-0.010052196,-0.13574138,0.19761074,0.04999854,0.23932505,-0.17843491,0.13161719,-0.09105094,0.09190592,0.14194405,0.03498759,0.14978127,0.09845095,0.009077899,0.08055116,-0.12379165,-0.071708046,-0.10259755,-0.017684402,-0.1480235,0.17661175,-0.009173042,0.047577173,0.09143021,0.17844687,0.17440721,-0.0043243654,0.26361942,0.15539998,0.04682835,0.03150564,0.37885237,0.16398421,0.14759581,-0.1835255,0.049211733,-0.08098779
R_w2v_train_60,-0.043729365,0.12390258,-0.0039873007,0.10122293,0.05516751,-0.32247195,0.16484377,0.4492775,-0.14864302,-0.05801469,-0.086782396,-0.17073242,-0.06360375,0.07121038,0.09403754,-0.15311253,0.13380946,-0.14702122,-0.08495039,-0.37665102,0.19733812,0.05236504,0.14552462,-0.048950553,-0.09627893,0.043026533,-0.083492525,-0.039391253,-0.14359392,0.026114874,0.17354812,-0.047327816,0.13889495,-0.20530945,-0.07466308,0.2681649,0.05147368,-0.09753374,-0.1585087,-0.27688158,-0.059235234,-0.16891493,-0.10158981,0.070275076,0.20284112,-0.018177517,-0.15371008,-0.01727728,0.14227007,0.14201628,0.10737762,-0.046171818,-0.05638062,-0.08801466,-0.056684643,0.043375846,0.16829516,-0.036654785,-0.1459897,0.07317794,0.025372602,0.03946082,0.12432597,-0.00972588,-0.16471136,0.24427341,0.07532041,0.2965847,-0.22186689,0.1685222,-0.09930704,0.12316985,0.16694619,0.0539768,0.16931425,0.09998224,0.012570106,0.09880757,-0.16001454,-0.08456433,-0.13976537,-0.024049798,-0.16919114,0.22322564,-0.019626498,0.032443885,0.11635822,0.19724685,0.1999255,0.00953853,0.30477902,0.19358897,0.048041504,0.020466672,0.4391067,0.20645012,0.15730871,-0.20755707,0.056103755,-0.07633974
R_w2v_train_61,-0.036538936,0.13332422,-0.0037801715,0.10225198,0.05255229,-0.28657365,0.16095027,0.4411044,-0.14879051,-0.065055646,-0.08918485,-0.17336923,-0.08665208,0.059039414,0.06447829,-0.1356657,0.12587385,-0.14631009,-0.074758776,-0.3541215,0.16023433,0.056346104,0.12897962,-0.04811815,-0.09812215,0.04270073,-0.11158932,-0.066167556,-0.15903765,0.020857356,0.15595816,-0.04544498,0.14326748,-0.20844142,-0.06914417,0.25812382,0.0499457,-0.058725473,-0.14490631,-0.25900123,-0.06242227,-0.18574367,-0.09681374,0.09864482,0.1996885,-0.02296986,-0.16198218,-0.014563268,0.13654938,0.15406659,0.09967264,-0.0340131,-0.04138535,-0.06828126,-0.073968075,0.045337338,0.15646547,-0.046783876,-0.14823844,0.07940288,0.046003167,0.04586906,0.105684094,0.0014832718,-0.16184668,0.20769459,0.05485158,0.2907266,-0.18988483,0.15881258,-0.09099088,0.1116658,0.16266844,0.029904237,0.1681513,0.088089146,0.02139606,0.10013856,-0.12117216,-0.0901088,-0.11805437,-0.03826302,-0.17393893,0.1835661,-0.034359768,0.036452934,0.10269047,0.19086602,0.21036673,-0.005620186,0.2988903,0.17618096,0.057797585,0.034093384,0.41181743,0.17371398,0.1374315,-0.18904872,0.04961549,-0.072731316
R_w2v_train_62,-0.053007424,0.14032426,-0.0034391845,0.096501485,0.060841016,-0.3098475,0.17784278,0.46316868,-0.151317,-0.06649629,-0.089820184,-0.18758781,-0.061595757,0.058351655,0.08144656,-0.16084966,0.13780424,-0.16728367,-0.08302998,-0.37851843,0.1827159,0.05836016,0.15689148,-0.046831522,-0.12193243,0.049599078,-0.08070369,-0.053370908,-0.14165856,0.028872779,0.17503421,-0.039821167,0.13136044,-0.21469069,-0.07408712,0.27168435,0.057528198,-0.11122112,-0.16510344,-0.28198266,-0.06586043,-0.18009816,-0.08414447,0.08382126,0.2154925,-0.016405018,-0.16017316,-0.0071907146,0.14501907,0.14584582,0.108155526,-0.03732745,-0.05667452,-0.099546626,-0.08027566,0.044840112,0.16738509,-0.028979816,-0.14838475,0.07386051,0.041655425,0.047373943,0.11669396,-0.0016144646,-0.15121415,0.23525977,0.063090526,0.31357446,-0.22875442,0.15861073,-0.094649665,0.12370523,0.16117086,0.05873861,0.1638127,0.115961716,0.008878263,0.0949043,-0.15408356,-0.07259171,-0.1409626,-0.022156,-0.18080264,0.21789303,-0.02254831,0.031652484,0.123370714,0.21443948,0.21655375,0.017070193,0.30490452,0.19601227,0.042656384,0.02723791,0.4459286,0.2060282,0.17586812,-0.23296905,0.07156499,-0.09571083
R_w2v_train_63,-0.029474206,0.1176194,-0.010126334,0.12559599,0.06663175,-0.35551363,0.1983096,0.49412465,-0.16165236,-0.059932612,-0.10129538,-0.18750355,-0.07921927,0.075567044,0.09964916,-0.15446377,0.15473962,-0.1450901,-0.095340595,-0.4188984,0.21602207,0.052000284,0.16474174,-0.06585172,-0.09916106,0.03408531,-0.09305738,-0.045881968,-0.16951384,0.030156413,0.17782539,-0.066394486,0.16738424,-0.23776278,-0.065363,0.30423325,0.065527946,-0.068880856,-0.15578991,-0.27437806,-0.04492289,-0.20451945,-0.14733636,0.068054065,0.22112271,-0.02389857,-0.15214229,-0.029178228,0.17666826,0.15506594,0.12592483,-0.0718018,-0.051310614,-0.07746637,-0.07500872,0.053276803,0.18708548,-0.0509744,-0.14665683,0.097587764,0.03389144,0.030273335,0.14550379,-0.009772293,-0.17866507,0.28848696,0.09780817,0.34058058,-0.24584574,0.20073521,-0.101876356,0.13100788,0.19457783,0.06453282,0.19340496,0.08240783,0.035540625,0.10696595,-0.16649789,-0.09421038,-0.18747155,-0.039546944,-0.20675644,0.22981945,-0.047946773,-0.0027816892,0.13699405,0.19610792,0.2311131,0.00094782235,0.33404177,0.20513389,0.074016616,0.024523307,0.4717574,0.21517035,0.15616535,-0.20382406,0.033252567,-0.074112535
R_w2v_train_64,-0.025531644,0.1043364,-0.023484334,0.12432464,0.07121197,-0.37174535,0.19539046,0.4881997,-0.16261409,-0.067195885,-0.08718785,-0.18258165,-0.06466237,0.091979414,0.113137,-0.16296831,0.1497461,-0.13775635,-0.09655265,-0.42571032,0.23142552,0.043491017,0.17700209,-0.053578585,-0.08911451,0.023096748,-0.068864994,-0.011276912,-0.15743221,0.020402014,0.17981662,-0.075952075,0.165523,-0.23709111,-0.06749988,0.30246642,0.08358067,-0.09510278,-0.15965037,-0.2678311,-0.04937188,-0.18529963,-0.14110713,0.05366161,0.21131451,-0.02498815,-0.15301204,-0.026715914,0.17430468,0.14839686,0.109396994,-0.06811137,-0.050717264,-0.09354213,-0.05057924,0.03835891,0.1821553,-0.039847173,-0.12872808,0.09371123,0.030309463,0.019470887,0.17322744,-0.0137010785,-0.17856753,0.30518043,0.095002085,0.34221944,-0.26275873,0.19766945,-0.08624508,0.14560544,0.18122198,0.08471034,0.1835915,0.0861462,0.03627417,0.10807985,-0.18337548,-0.088754684,-0.18805088,-0.030257553,-0.20517944,0.24769576,-0.045058105,-0.0060195527,0.15647341,0.19315924,0.21269101,0.015648535,0.31986514,0.21800137,0.05147953,0.01858508,0.46477747,0.23390162,0.15467083,-0.20922466,0.051857095,-0.08356816
R_w2v_train_65,-0.05894765,0.15737389,-0.0072126463,0.103085004,0.066581085,-0.32515877,0.19813144,0.49414048,-0.17923792,-0.07601165,-0.11035178,-0.1932185,-0.07409748,0.06208961,0.07832941,-0.17904279,0.12879887,-0.16990063,-0.09222033,-0.4043437,0.17714353,0.050017014,0.16767533,-0.04284829,-0.13048,0.041779075,-0.08201342,-0.05669533,-0.15169369,0.03598435,0.19019504,-0.05739638,0.14259878,-0.25073582,-0.058752216,0.29286227,0.06906542,-0.09714564,-0.1552113,-0.29497352,-0.062860325,-0.19979501,-0.09038533,0.08799617,0.22590372,-0.025282457,-0.17355831,-0.0037724772,0.14677721,0.15231352,0.115829594,-0.047190078,-0.044659533,-0.09625008,-0.09055016,0.052016623,0.174686,-0.03569469,-0.15678665,0.07607967,0.06601744,0.036480997,0.1400061,-0.0033619925,-0.15841372,0.23944122,0.07047895,0.33608398,-0.24895719,0.16108355,-0.09291719,0.12776938,0.17270088,0.0730044,0.1704825,0.12838235,0.0018927604,0.11145699,-0.151675,-0.06341438,-0.1396969,-0.023146508,-0.18832529,0.2134287,-0.030291976,0.026913013,0.14178899,0.23543678,0.23505749,0.026456958,0.32700342,0.20753334,0.02491891,0.02935242,0.4667901,0.21698275,0.17926706,-0.25440696,0.08048874,-0.10833323
R_w2v_train_66,-0.044633046,0.12415597,0.00046619834,0.07418837,0.03778419,-0.24487843,0.12773067,0.35839894,-0.117204785,-0.047128014,-0.0748772,-0.15122646,-0.064545944,0.042862836,0.07214903,-0.11877033,0.100838386,-0.13988787,-0.06031318,-0.28428653,0.13804282,0.053094685,0.10114847,-0.034728184,-0.087970726,0.049589474,-0.08461353,-0.0762268,-0.116044335,0.017470784,0.15029663,-0.02419783,0.103597194,-0.14661433,-0.075734645,0.19655558,0.016268289,-0.0909765,-0.13167961,-0.24695311,-0.060746208,-0.14399095,-0.0561649,0.08125403,0.16954973,-0.0073079104,-0.1447113,-0.0063299257,0.10010438,0.1281541,0.09197629,-0.032710902,-0.055637166,-0.08514269,-0.05626131,0.03714834,0.13370359,-0.027818339,-0.14714213,0.054827195,0.021079434,0.06108043,0.06196693,-0.016530344,-0.13347428,0.1740777,0.04946004,0.23104607,-0.16033454,0.12494699,-0.09773055,0.09129323,0.13932672,0.00898995,0.14489698,0.099401295,0.0032601068,0.07152483,-0.112152696,-0.074690014,-0.07208806,-0.021962373,-0.12743716,0.18087788,0.0030714497,0.056769893,0.06677554,0.17230724,0.16360547,-0.0014788804,0.25884846,0.1455489,0.04672357,0.024345668,0.3556359,0.15827824,0.13982427,-0.18628892,0.059989,-0.06113073
R_w2v_train_67,-0.02956509,0.08441963,-0.02866493,0.086959116,0.06392962,-0.2998215,0.15119715,0.39807037,-0.1293308,-0.05352279,-0.07651407,-0.15303434,-0.047917455,0.07008884,0.101376735,-0.14126761,0.119723134,-0.121123075,-0.07101624,-0.34881088,0.18461025,0.038716476,0.13676067,-0.04684672,-0.080446936,0.031184083,-0.05661254,-0.022159772,-0.12598456,0.01519291,0.15982224,-0.055045713,0.12462696,-0.18830566,-0.066107534,0.24072815,0.04988405,-0.0957487,-0.14332877,-0.24304807,-0.04555942,-0.14366688,-0.0934839,0.053573042,0.18185115,-0.01435776,-0.13683964,-0.01743075,0.12614721,0.11883398,0.094358176,-0.0501332,-0.05453746,-0.08917203,-0.03857814,0.031197669,0.15232334,-0.030114442,-0.11939484,0.068887144,0.026841044,0.028435528,0.1370612,-0.006757984,-0.15097274,0.24557936,0.07313278,0.28049275,-0.21021934,0.1541638,-0.07555645,0.11545571,0.15177168,0.06287559,0.15298773,0.07849809,0.026847677,0.088068865,-0.15117416,-0.07491454,-0.14252038,-0.021213742,-0.15994833,0.21457559,-0.014618122,0.017190484,0.117787175,0.17613415,0.17648965,0.010107291,0.2729315,0.18060464,0.03707422,0.024727112,0.39472806,0.19772977,0.13821669,-0.19177909,0.054806978,-0.07214465
R_w2v_train_68,-0.039219685,0.14429538,0.00071953464,0.10060149,0.05258343,-0.313936,0.16714072,0.45867845,-0.14597179,-0.054224424,-0.09034968,-0.19075254,-0.078515396,0.06147632,0.082778975,-0.15894258,0.13525075,-0.16398586,-0.07692141,-0.36790663,0.18609235,0.07054081,0.13280506,-0.051298104,-0.1065053,0.052790087,-0.11876703,-0.07702015,-0.1542854,0.018243482,0.16765587,-0.043462288,0.14466609,-0.20477033,-0.08910799,0.2569137,0.034093883,-0.085001945,-0.16025472,-0.29440013,-0.07542662,-0.18773688,-0.09996726,0.096074335,0.20450245,-0.024608156,-0.16742681,-0.01418963,0.14053191,0.16291597,0.11026179,-0.037608843,-0.05581132,-0.0866822,-0.070969425,0.04683388,0.1824553,-0.04136848,-0.16938181,0.0801595,0.030940274,0.053983625,0.09933303,-0.007887484,-0.17390652,0.23309527,0.06443298,0.29482958,-0.2149943,0.16291995,-0.10703888,0.115839966,0.17717667,0.025816036,0.17728913,0.111801215,0.008793126,0.104393646,-0.15020658,-0.098252125,-0.12001699,-0.03462284,-0.17362317,0.21856704,-0.022126067,0.049993414,0.101337425,0.20335117,0.21531104,-0.008447191,0.3232939,0.1847972,0.05655614,0.0263603,0.4513251,0.19635521,0.15590246,-0.212193,0.055596612,-0.07752565
R_w2v_train_69,-0.024949193,0.085595176,-0.033683173,0.09095269,0.06727328,-0.33489245,0.15435378,0.43368602,-0.12968168,-0.05100911,-0.08392011,-0.16117257,-0.058359005,0.07911308,0.11708498,-0.16106427,0.1277549,-0.13567923,-0.068448775,-0.3768748,0.21367176,0.055271946,0.146934,-0.055029053,-0.08106731,0.04572353,-0.063878186,-0.029646719,-0.14323512,0.017656378,0.18415552,-0.054033272,0.13435201,-0.19327669,-0.08868126,0.26230475,0.04246708,-0.105428755,-0.16509604,-0.27301818,-0.046479512,-0.15827689,-0.090349056,0.052352898,0.19879553,-0.012415533,-0.15337524,-0.025490418,0.13917245,0.12609138,0.11151972,-0.060653977,-0.07149122,-0.10306871,-0.03473329,0.036738466,0.16697976,-0.03136745,-0.14049695,0.06289325,0.02459976,0.044132926,0.13795999,-0.016732609,-0.17223005,0.27908266,0.0784065,0.29779884,-0.22993608,0.17092691,-0.101299465,0.12746257,0.17172655,0.056213103,0.18335992,0.087351866,0.024928177,0.10054996,-0.16832364,-0.08758435,-0.1481933,-0.027419504,-0.17849573,0.24915056,0.0016967686,0.02978015,0.11907853,0.19451587,0.18734406,-0.00021244632,0.3106715,0.19705439,0.04811254,0.026581723,0.43126735,0.22054462,0.15472756,-0.20472834,0.05506327,-0.0776026
R_w2v_train_70,-0.041655224,0.14240941,-0.008621049,0.11074306,0.057208806,-0.32647467,0.18038157,0.47648,-0.15804145,-0.06762533,-0.09440247,-0.19615355,-0.08196267,0.062789306,0.08975317,-0.15791911,0.14109142,-0.16607454,-0.08688958,-0.38944703,0.18558255,0.06017946,0.14505419,-0.055604227,-0.104816616,0.04733903,-0.11304301,-0.071100846,-0.162595,0.02427714,0.17313543,-0.04228449,0.15409124,-0.21839473,-0.087722465,0.27209634,0.038422152,-0.09026389,-0.15920559,-0.2916306,-0.066525534,-0.19488975,-0.098501876,0.0877204,0.21307242,-0.01722134,-0.17299157,-0.016642505,0.14522438,0.16919193,0.11585051,-0.04825029,-0.059108328,-0.08876958,-0.07052345,0.042735092,0.17743848,-0.03961607,-0.16640365,0.0868507,0.03822146,0.051024597,0.10928954,-0.010878513,-0.178642,0.2404501,0.073297925,0.30980134,-0.22576801,0.17431028,-0.10955006,0.11988858,0.17754455,0.030527338,0.18496172,0.1034423,0.018518472,0.10776105,-0.14964359,-0.09584878,-0.1277022,-0.029802764,-0.18266699,0.22816019,-0.027388599,0.04589579,0.11378802,0.21149695,0.22279055,0.0015155456,0.32993767,0.19263896,0.056831844,0.034001555,0.45966977,0.20295933,0.16603652,-0.21781996,0.06001382,-0.08386547
R_w2v_train_71,-0.036162462,0.11714112,0.0013807648,0.07738009,0.038979985,-0.2533859,0.12789129,0.36464623,-0.11465693,-0.04415594,-0.07714068,-0.149642,-0.058821138,0.044479616,0.06926564,-0.12708089,0.10219885,-0.13416699,-0.05991363,-0.29840967,0.14680402,0.057665806,0.105456814,-0.043383874,-0.08300246,0.044734724,-0.08682659,-0.06411309,-0.122298405,0.015194946,0.14178962,-0.024811815,0.109724164,-0.15552174,-0.07846813,0.20449492,0.026531221,-0.079315014,-0.13061208,-0.24152762,-0.058645055,-0.14446455,-0.06873838,0.074323,0.17032565,-0.012994649,-0.13691169,-0.009691914,0.110219374,0.126107,0.09168634,-0.030370865,-0.054442856,-0.078862995,-0.05670272,0.041908868,0.1454032,-0.03362996,-0.14037369,0.058340345,0.024111548,0.05709424,0.0705612,-0.008988875,-0.13821682,0.18176153,0.048054017,0.22950815,-0.1709108,0.13040838,-0.09091469,0.08986469,0.14083235,0.020702584,0.14557953,0.09526183,0.005111047,0.079925574,-0.11955672,-0.07690528,-0.08452333,-0.023887975,-0.1353276,0.18016003,-0.007681996,0.05424933,0.076139264,0.1699126,0.16757908,-0.0036745097,0.26002228,0.14776264,0.04390708,0.024682172,0.35992086,0.1579095,0.1354319,-0.17896348,0.053873662,-0.06492535
R_w2v_train_72,-0.028818194,0.09543218,-0.015261534,0.087430686,0.052718062,-0.28429416,0.14258733,0.38725406,-0.120991915,-0.046676334,-0.07029014,-0.14980485,-0.055365637,0.06618362,0.09103336,-0.1327761,0.11287179,-0.11862484,-0.06715399,-0.32728347,0.17268762,0.046963453,0.12939383,-0.047673117,-0.076142535,0.03364436,-0.069702625,-0.031097353,-0.122900315,0.013938004,0.14523044,-0.045938663,0.12421065,-0.17670402,-0.06696614,0.22426231,0.048614908,-0.08197752,-0.13657312,-0.23318918,-0.046778124,-0.14450009,-0.09332871,0.05539098,0.16879816,-0.017665453,-0.131149,-0.017812608,0.123041645,0.12308538,0.09592877,-0.045362942,-0.051576417,-0.07883988,-0.041362666,0.034559626,0.14773852,-0.030893967,-0.11935823,0.0675177,0.02019721,0.034226015,0.110701084,-0.010158986,-0.14888664,0.225061,0.06730906,0.25770444,-0.19906358,0.14586304,-0.081931,0.10473161,0.14403374,0.04893373,0.14555106,0.07510854,0.020127587,0.086058944,-0.1387193,-0.07491596,-0.12699817,-0.024000818,-0.14815164,0.19879788,-0.01616028,0.025270917,0.1035149,0.17114909,0.1693933,0.00196792,0.27243167,0.1670305,0.043638624,0.023750983,0.374483,0.17976432,0.13145956,-0.1723086,0.04461343,-0.063134335
R_w2v_train_73,-0.025531644,0.1043364,-0.023484334,0.12432464,0.07121197,-0.37174535,0.19539046,0.4881997,-0.16261408,-0.067195885,-0.08718785,-0.18258165,-0.06466237,0.091979414,0.113137,-0.1629683,0.1497461,-0.13775635,-0.09655265,-0.4257103,0.23142552,0.043491017,0.17700209,-0.053578585,-0.08911451,0.023096748,-0.068864994,-0.011276912,-0.15743221,0.020402014,0.17981662,-0.075952075,0.165523,-0.23709111,-0.06749988,0.30246642,0.08358067,-0.09510278,-0.15965037,-0.2678311,-0.04937188,-0.18529963,-0.14110711,0.05366161,0.21131454,-0.02498815,-0.15301204,-0.026715914,0.17430466,0.14839686,0.109396994,-0.06811137,-0.050717264,-0.09354213,-0.05057924,0.03835891,0.1821553,-0.039847173,-0.12872809,0.09371122,0.030309463,0.019470887,0.17322744,-0.0137010785,-0.17856753,0.3051804,0.095002085,0.34221947,-0.26275873,0.19766945,-0.08624508,0.14560544,0.18122196,0.08471034,0.1835915,0.0861462,0.03627417,0.10807985,-0.18337548,-0.088754684,-0.18805088,-0.030257551,-0.20517944,0.24769576,-0.045058105,-0.0060195513,0.15647341,0.19315924,0.21269101,0.015648535,0.31986514,0.21800137,0.05147953,0.01858508,0.46477747,0.23390162,0.15467083,-0.20922466,0.0518571,-0.08356816
R_w2v_train_74,-0.039835293,0.116138384,-0.022312552,0.10245475,0.06074774,-0.33184883,0.16666159,0.46995163,-0.14878997,-0.059891284,-0.093798675,-0.1786278,-0.075312644,0.07445902,0.10664964,-0.15900476,0.13362205,-0.15053071,-0.078100435,-0.3916096,0.20295498,0.059852462,0.15089583,-0.05799715,-0.09599529,0.045358744,-0.094172,-0.05464705,-0.15733856,0.017125277,0.18181771,-0.053450935,0.14783323,-0.21636394,-0.081089064,0.27590147,0.050944567,-0.090429306,-0.16657168,-0.28402925,-0.052669585,-0.18609662,-0.09505585,0.0765437,0.21596578,-0.020745648,-0.16685311,-0.020383608,0.14651732,0.14946426,0.11412501,-0.05008614,-0.05533083,-0.08995054,-0.054236054,0.050205857,0.17335771,-0.03729598,-0.14946803,0.072561346,0.035733864,0.04911327,0.12838079,-0.010318038,-0.18083169,0.25866613,0.073586866,0.31137547,-0.2260203,0.18097357,-0.10200621,0.12335146,0.18104255,0.047352497,0.18668345,0.096432135,0.02210856,0.10600745,-0.15708482,-0.08802218,-0.14311516,-0.035848245,-0.18467727,0.23240796,-0.015161265,0.04510951,0.11409718,0.20821123,0.21316028,0.003747572,0.32927272,0.19748193,0.058659226,0.02755622,0.4483403,0.21377625,0.1588244,-0.21313943,0.05625288,-0.07698709
R_w2v_train_75,-0.048143014,0.1532318,0.0021365744,0.08588316,0.055471364,-0.31201437,0.16597493,0.46216598,-0.14603093,-0.047352493,-0.09839278,-0.18362737,-0.07117023,0.057920862,0.084352076,-0.16196185,0.12891628,-0.16449681,-0.06882903,-0.38526556,0.18702435,0.06102329,0.13251434,-0.050266415,-0.11092856,0.055451345,-0.11232501,-0.074151106,-0.15023457,0.037733108,0.18572892,-0.028481595,0.14212818,-0.19330741,-0.096126206,0.2516364,0.028840525,-0.10067632,-0.16640143,-0.3014858,-0.06970086,-0.19677633,-0.08971813,0.09055829,0.21626465,-0.026809229,-0.15770762,-0.019180043,0.13922726,0.15725003,0.12281081,-0.032318562,-0.0667816,-0.07668194,-0.076702006,0.04905657,0.17627251,-0.04320046,-0.1718077,0.0685477,0.03807869,0.055078525,0.08323815,-0.008382168,-0.17911549,0.22957098,0.08412888,0.2721208,-0.22026525,0.17168252,-0.11012059,0.11010926,0.16759153,0.021467155,0.17432928,0.12163279,0.011341226,0.101076685,-0.14902343,-0.080237426,-0.11301323,-0.026792096,-0.16747297,0.21609895,-0.011265427,0.06239927,0.08609074,0.21798714,0.21707864,0.0011124418,0.32543108,0.178824,0.059585195,0.021759987,0.4529223,0.18746088,0.17777567,-0.22242892,0.06684164,-0.07429511
R_w2v_train_76,-0.05853152,0.1544305,-0.004505248,0.10827867,0.09672594,-0.32146114,0.2246502,0.50810236,-0.17062755,-0.10967159,-0.10319369,-0.20791717,-0.030808011,0.057048053,0.06646345,-0.18483335,0.18417488,-0.17644997,-0.1277753,-0.41027722,0.17976081,0.048049737,0.21384789,-0.04811744,-0.15709737,0.047074456,-0.046827663,0.0024440486,-0.13968633,0.048690468,0.17614545,-0.048450634,0.11817389,-0.28226265,-0.042734552,0.32077715,0.12584604,-0.13642542,-0.15994243,-0.26297742,-0.067537434,-0.18731661,-0.09294466,0.06635157,0.24071,-0.009337321,-0.15455697,-0.013012609,0.17213024,0.14248814,0.107902534,-0.04813367,-0.038169716,-0.12825413,-0.12032288,0.05080557,0.17996472,-0.015324066,-0.10697218,0.08466316,0.08015411,0.0009595789,0.18920583,0.03456431,-0.11141675,0.25939444,0.043566313,0.37820172,-0.27702978,0.15381987,-0.05819756,0.14204542,0.15691738,0.12944706,0.149468,0.103598796,0.027957512,0.0951266,-0.16917771,-0.050534245,-0.22506995,0.0039159437,-0.22645412,0.20854181,-0.050807387,-0.035289314,0.2081626,0.24716063,0.25343195,0.058448467,0.288505,0.212213,0.026266942,0.021430617,0.46177554,0.23392577,0.19179505,-0.27084848,0.07745678,-0.15509729
R_w2v_train_77,-0.044465736,0.13939184,-0.0092424415,0.110582314,0.078683496,-0.31655213,0.19472538,0.47995487,-0.16604462,-0.08701363,-0.094470054,-0.1919855,-0.06438471,0.064772144,0.074892774,-0.1591862,0.15947764,-0.1591739,-0.10129687,-0.38993356,0.17752317,0.04877682,0.17373909,-0.04993835,-0.11815899,0.044587508,-0.08305338,-0.031365767,-0.15218554,0.03194054,0.170801,-0.050384197,0.13441868,-0.25240442,-0.052108277,0.2950426,0.08814948,-0.08796779,-0.1516866,-0.26133084,-0.06614682,-0.19370323,-0.104823746,0.08198691,0.21998341,-0.022208583,-0.16113786,-0.014315873,0.16117713,0.14966258,0.10908431,-0.044113353,-0.039603353,-0.09403771,-0.090490766,0.04667263,0.17361885,-0.034021623,-0.1291403,0.08744535,0.060245898,0.01746691,0.15469393,0.017757406,-0.14505427,0.24674872,0.06130049,0.33877802,-0.23702781,0.16798927,-0.07828739,0.12943393,0.16272444,0.082404114,0.1643011,0.09466159,0.027644439,0.107434765,-0.14723215,-0.07490972,-0.17965971,-0.021375135,-0.20413154,0.20615166,-0.045975015,-0.001216873,0.15993834,0.21668789,0.23153298,0.024340818,0.3002466,0.20234582,0.04680711,0.0275752,0.44188917,0.2082562,0.16463904,-0.22653866,0.056363676,-0.10612049
R_w2v_train_78,-0.026808517,0.10609309,-0.013710379,0.09131535,0.05002028,-0.29712325,0.15538232,0.40782177,-0.13667056,-0.05336414,-0.0788159,-0.15441705,-0.060436472,0.060935542,0.09000092,-0.13894327,0.12244188,-0.13156173,-0.07858464,-0.34045342,0.1789482,0.051273726,0.13366418,-0.049511667,-0.08494099,0.039244853,-0.08189389,-0.04063856,-0.1279555,0.015698465,0.15095972,-0.05275411,0.12957002,-0.19268982,-0.06474401,0.24466449,0.046132904,-0.08036952,-0.14218315,-0.2497353,-0.058700815,-0.15691337,-0.09348162,0.0658386,0.18032649,-0.02004141,-0.13991626,-0.01882845,0.12749885,0.13190992,0.09253833,-0.04022599,-0.047005203,-0.081299186,-0.049346276,0.031212766,0.15172046,-0.0342706,-0.13251017,0.07371741,0.028893106,0.03232755,0.12135728,-0.005047472,-0.14845204,0.23821631,0.067221,0.27704498,-0.20709535,0.15222661,-0.08557999,0.11477068,0.15232508,0.052314065,0.15388252,0.092356555,0.013935999,0.09815836,-0.14681107,-0.077949405,-0.12944017,-0.02465664,-0.16284987,0.20448115,-0.019901494,0.020593286,0.113041885,0.1725034,0.17848796,0.0058131614,0.2792582,0.17759737,0.04670984,0.014413035,0.39949372,0.18980816,0.13630971,-0.18618077,0.05061335,-0.06715265
R_w2v_train_79,-0.041877225,0.1462853,-0.0020192277,0.09819733,0.05759449,-0.34259412,0.18598634,0.49450946,-0.15909807,-0.059893955,-0.090741634,-0.18447107,-0.06999367,0.07215854,0.08749423,-0.17339575,0.14085887,-0.15493156,-0.08106527,-0.40967384,0.20251389,0.05419509,0.1461626,-0.0519307,-0.10949423,0.03911594,-0.09937453,-0.04940595,-0.15467645,0.028680174,0.18414773,-0.04939859,0.15297787,-0.22646986,-0.08270122,0.27886084,0.05439825,-0.09624583,-0.1729092,-0.30455732,-0.0749793,-0.1911853,-0.11392733,0.08066794,0.21641593,-0.034331314,-0.15798584,-0.022489062,0.15059404,0.16808592,0.11774232,-0.037571084,-0.062322825,-0.08458704,-0.06605941,0.04752834,0.18502207,-0.042641446,-0.15587218,0.08883741,0.03931662,0.03885975,0.124748,-0.007958338,-0.18049438,0.25703788,0.07868012,0.30514982,-0.24422355,0.17982686,-0.09649744,0.12739797,0.17680858,0.055463493,0.18569182,0.1172905,0.016278816,0.112687476,-0.17851919,-0.075782634,-0.1425207,-0.025603225,-0.1911211,0.23242564,-0.03664904,0.034093875,0.122018434,0.21649528,0.22549266,0.012840967,0.3277209,0.20034014,0.05759092,0.018448874,0.47645506,0.20508766,0.16893522,-0.22386767,0.06237492,-0.08428038
R_w2v_train_80,-0.045031648,0.14402834,-0.0015919553,0.08467229,0.05477521,-0.28465876,0.1525327,0.41921145,-0.13471222,-0.061145812,-0.08836802,-0.1763534,-0.06460616,0.044536036,0.07449182,-0.14264543,0.12211665,-0.16408865,-0.07140959,-0.33825734,0.16182834,0.06926322,0.13259837,-0.04851062,-0.11145479,0.05724116,-0.09811486,-0.06884113,-0.13660787,0.023395304,0.16115287,-0.029594189,0.11881052,-0.1859351,-0.0818054,0.23790498,0.03687715,-0.09335649,-0.15282609,-0.27495357,-0.07549175,-0.16664469,-0.07199978,0.08617588,0.19759265,-0.01078877,-0.15284969,-0.015236025,0.12164374,0.14148779,0.1074564,-0.030149769,-0.056117862,-0.09332173,-0.07551421,0.03754874,0.16965838,-0.028088752,-0.15457924,0.06635232,0.032710902,0.056732602,0.08072039,-0.0038751464,-0.14406632,0.20552285,0.05611386,0.26915395,-0.19603756,0.1412345,-0.10319714,0.10011691,0.15347941,0.03348698,0.15538971,0.10672712,0.0046452917,0.09182424,-0.13514316,-0.081603475,-0.10689324,-0.017041119,-0.1528184,0.19479807,-0.013276174,0.05521978,0.09403608,0.20000623,0.19948176,0.003126802,0.29352677,0.17136571,0.043093964,0.023735693,0.41323394,0.18306446,0.16306435,-0.20829146,0.06426686,-0.0861164
R_w2v_train_81,-0.026587795,0.11911944,-0.019648116,0.08947228,0.06452317,-0.3441374,0.15211307,0.4591298,-0.12911119,-0.0494442,-0.09175207,-0.18732883,-0.080754,0.060134213,0.10789041,-0.16614072,0.1325529,-0.15885061,-0.06196419,-0.3854945,0.21646176,0.07565864,0.1414324,-0.06871303,-0.08479687,0.067692906,-0.098186135,-0.062956765,-0.15485927,0.017355274,0.18841085,-0.044323005,0.14570175,-0.19077124,-0.11376795,0.26038206,0.035019588,-0.091161005,-0.17391416,-0.30123144,-0.054910336,-0.17700244,-0.09317322,0.068618126,0.21460548,-0.018105818,-0.16735926,-0.026298948,0.14525534,0.15069334,0.12191116,-0.052095063,-0.07265843,-0.10818423,-0.041184284,0.051551167,0.1882692,-0.036442634,-0.16570647,0.068223596,0.017205667,0.063481346,0.11441992,-0.023621898,-0.18906423,0.27275494,0.074982725,0.2909147,-0.22334346,0.17581865,-0.12566374,0.11560495,0.18841101,0.03974075,0.18895976,0.09623173,0.017317025,0.10087196,-0.16372074,-0.10158248,-0.13315903,-0.025199594,-0.17933215,0.24505788,0.011134384,0.056085248,0.10429399,0.21212754,0.20333359,-0.016443983,0.34452283,0.19748572,0.06630174,0.029335039,0.46028996,0.21849385,0.16698071,-0.20656835,0.051422272,-0.079519786
R_w2v_train_82,-0.02777464,0.09368864,-0.026449112,0.09602949,0.0645678,-0.3060139,0.1625343,0.41445923,-0.14068474,-0.055806603,-0.07841825,-0.15706106,-0.051529072,0.079894215,0.099439405,-0.14856234,0.122832924,-0.12275545,-0.08373784,-0.36132163,0.18956813,0.037291232,0.14869702,-0.04355767,-0.08418693,0.030528296,-0.053134333,-0.02057612,-0.12528795,0.015349051,0.16037011,-0.058283325,0.1286719,-0.20373239,-0.06195084,0.25241792,0.0615629,-0.09962713,-0.144609,-0.24316439,-0.048840452,-0.15106224,-0.0957793,0.04962474,0.18529187,-0.015509068,-0.13995016,-0.019226568,0.13332608,0.119217485,0.09248895,-0.05424324,-0.051360488,-0.0912616,-0.042421248,0.02925936,0.14837295,-0.028301982,-0.117852814,0.07356144,0.03514343,0.019456474,0.14697856,-0.0042403634,-0.14537807,0.2513427,0.069316365,0.29369462,-0.22212891,0.15732418,-0.08209569,0.12699628,0.14895107,0.069451146,0.1587167,0.087603085,0.021545164,0.09704957,-0.1595224,-0.07204435,-0.14712673,-0.028789468,-0.16877796,0.21933757,-0.025381137,0.009069001,0.13110696,0.17461509,0.18129945,0.018215615,0.27180693,0.18712956,0.03537011,0.020383505,0.40095013,0.20427051,0.14136364,-0.19595884,0.0559209,-0.07733055
R_w2v_train_83,-0.050117336,0.1303007,-0.010718229,0.100200795,0.0659249,-0.32275102,0.17864403,0.4634349,-0.1548079,-0.07156694,-0.092778526,-0.18046866,-0.061380606,0.06831278,0.08569943,-0.16601112,0.13805486,-0.15609607,-0.09371518,-0.38288817,0.18689828,0.050925095,0.16256489,-0.043691225,-0.11415763,0.0409847,-0.07042679,-0.040672615,-0.1400488,0.025206994,0.17404756,-0.05004153,0.13345696,-0.22915697,-0.06486789,0.27821228,0.06898883,-0.11029245,-0.15383941,-0.27489546,-0.065353625,-0.17317596,-0.09385548,0.07287836,0.20854235,-0.017024867,-0.15946846,-0.007495756,0.14784707,0.14241406,0.10665488,-0.04651816,-0.05185852,-0.10164844,-0.07426698,0.040837724,0.16813727,-0.029927943,-0.13921861,0.08008926,0.0434044,0.033838563,0.13827941,-0.00014579334,-0.14659144,0.24634768,0.061005354,0.31833395,-0.23927826,0.15942305,-0.084268115,0.13096765,0.15985781,0.06996197,0.16529939,0.10902679,0.012685071,0.10185758,-0.16352586,-0.07424072,-0.1493967,-0.01954171,-0.18130721,0.22462116,-0.030726552,0.020384954,0.13960385,0.20861417,0.21123213,0.025460633,0.3030525,0.20080066,0.033874653,0.023773508,0.4440026,0.21584697,0.16192429,-0.23111479,0.067933455,-0.093262434
R_w2v_train_84,-0.014109726,0.11363827,-0.015350781,0.09789132,0.0744135,-0.355922,0.16630402,0.46873116,-0.13798265,-0.0611135,-0.08608379,-0.18946955,-0.06541572,0.06954146,0.09956897,-0.16235113,0.14207515,-0.14757457,-0.07058161,-0.3846425,0.22090808,0.06324391,0.14852071,-0.060710035,-0.087028526,0.060333174,-0.07878469,-0.041233193,-0.14683557,0.014571209,0.17407587,-0.055242013,0.1394039,-0.2060732,-0.10128331,0.2679252,0.05978965,-0.095277056,-0.16764219,-0.2859904,-0.053026985,-0.17297916,-0.11251946,0.05900254,0.2083004,-0.021525683,-0.16051692,-0.03353459,0.15553866,0.14447364,0.10702078,-0.05890743,-0.07255546,-0.112702206,-0.040275436,0.036560643,0.18828776,-0.03880293,-0.15071909,0.078069516,0.02160448,0.04233547,0.14808649,-0.008901982,-0.17513816,0.29794848,0.07048036,0.30273983,-0.23811138,0.1717435,-0.10545999,0.12822708,0.18116595,0.056840517,0.18774383,0.09415823,0.03194208,0.106513366,-0.17250988,-0.09637583,-0.15705952,-0.01653703,-0.18426958,0.23673114,-0.011110931,0.020686401,0.13720277,0.20161729,0.19768493,-0.014580725,0.3248404,0.20381257,0.064024486,0.03005523,0.4684883,0.21687178,0.1603889,-0.2035439,0.04640353,-0.08016201
